1
40
6
-0.3999142276891521
0.07834451416279435
0.059365213379038786
-0.36046343612764803
0.043712187766040356
-0.009918672688495686
-0.2524705574328117
-0.04735047982974647
-0.06317392362548985
-0.7802084752927799
0.03199020576394972
-0.2217495967989319
0.004199250802574322
0.0848762622337575
0.33858704822465713
-0.44408633320455976
-0.41532223720170514
-0.5473682092710422
0.05642942106152606
1.0401565860186999
0.014477749157233676
0.07160752917683005
-0.4177109978534738
-0.5541446667235401
-0.17021051272686966
0.07399337302364722
-0.48940664359062735
0.032106307429747016
0.07068079911685075
0.0982981384566343
-0.12057134395141195
-0.04253250459277354
0.1451369970351127
-0.6605498999554249
0.48416195397337736
-0.06017705710586068
0.8820762797364774
-0.015026727245447406
0.31974809676292537
0.09743292531795242
-0.02648911090987981
0.41935555669376956
-0.8432591565270907
0.6966401803655995
-0.8780890341236487
0.020651283275240958
0.2702282216680679
0.32434531336325356
0.17757734151592772
-0.07395919250278603
0.13999281198442198
0.19639227452589697
0.07772215989210692
0.03668337189573793
0.222992775120893
0.26415029974468024
-0.025514686909207558
0.09060398971445244
0.03294722609239875
-0.018769997610486068
-0.05931274227494683
0.2117543314585676
1.9082731698286506
0.4434612923057355
-0.24906121997135336
-0.7046372505812842
0.41963973077950484
0.7383622450854115
-0.749850094146946
0.24725391436259628
-0.19550954201712095
-0.07447549096768669
0.14517285311015948
-0.04488242450229267
0.0297414213117884
0.18346776653888217
0.17371101540865683
-0.0038731695418994065
-0.08417932052454873
0.10226835158611515
0.019659110158067403
-0.06532933734414823
-0.03213350757175918
-0.4012011611710447
0.8313945247122158
-0.26664189585084114
-0.04909336508292834
-0.5955405665720299
-0.3175726724291548
0.044445049369938434
0.04414566897702595
0.02949461502677844
-0.13744843733360662
-0.003699413348532093
0.032775683188070205
-0.06487182315417872
-0.14720437378547555
-0.2967703345715566
-0.092569964047733
-0.13912658395323696
0.08594101380384635
0.1195651896193673
0.07711172879810338
-0.13112024922150378
0.09858417348898502
4.469297631753327
0.4191967184307972
-2.1914235396059296
-0.3407108399157119
-1.1775078074707774
-0.9868612848207108
-0.16048514043799225
-0.48935710349286193
0.35888634141294506
-0.33368638501044057
0.16869401701525538
-0.043139812358789956
-0.3943102654565285
0.020749107746053812
-0.1364522817566715
-1.0232619087853447
-0.12095016446160327
-0.35048553894247697
0.16370383107067477
0.2436411165244933
-0.08111263002742124
-0.2576673538533137
0.10771364163173112
-0.1316891048227207
0.07529432235934595
-0.007789613475436365
-0.25309721939443375
0.2056049897625058
-0.5241152292561512
0.21562273442338342
-0.018242825182096894
0.023080093672878575
-0.09592434516782435
-0.20252488859713075
0.8508331831165027
-0.4332788227298575
0.10268003655388219
0.30341649154585104
-0.12556279317858252
-0.8085131550959167
-0.056124722494861244
-0.18464389996962657
1.2719723928572584
0.40138792948485535
1.2908123715699984
0.4403857490393204
-0.5558892565266184
0.28704595649734105
-1.4801108471700517
0.382203775395414
0.2312331827070189
0.6770115253514296
-0.509425800574814
-0.31384128921875076
-0.3536120674477652
0.29845538430609186
-2.0307999724147114
2.0270652794852215
0.20128058970351792
0.2381757951114474
-0.549190309660967
0.48261231711371616
0.1640635144803936
0.35255550627662563
0.0482942169876021
-0.22245575302029127
-0.19060725326756323
0.06958461351641439
0.1382314233270516
0.12663614252916547
3.637814397719713
0.1729587954412184
-1.3732153189799494
-0.4182660725892042
-0.6045994030686778
-1.1970695438269014
-0.12820580601125764
0.3218674297009997
0.18364927278178617
0.0229114907701819
0.14256624152988515
-0.010014545631367614
0.19109328750267257
0.27092834998842336
-0.11491059877952729
0.12189866857036205
-0.07082003877309889
-0.10456638636303597
-0.008567015597881573
0.05926475575882528
0.46128644995898255
-2.6032735351326353
1.349743699030299
-0.4068817891122783
0.279969643967883
-1.1242322348548406
-1.913411273501218
1.001832970825556
1.9940362849495168
1.868104750885085
-0.0941411020676666
-0.2776922009096304
0.3339861711427043
1.5520056935982116
-0.3200619956305344
-0.5238508386025771
-0.3051276028222053
0.45692497743785726
0.14901578655990372
-0.07718215337477685
-0.11915825674784943
0.03608124287546075
-0.33023471937379395
0.2524335479793656
-0.22048997629105738
-0.05717308312200141
-0.11998639308131438
-0.28903395946788507
-1.4076255967896911
2.274829505230246
0.9277832851234915
0.4261307148510012
-0.46235275317463687
0.8684703199072872
1.7363336867217274
0.24878548484274016
-0.3856098972670717
-0.05621821902073816
-0.3252550001307812
-0.21532994715575365
0.2044468556028533
-0.27701718810088544
0.23169274393194303
0.0011334728365110865
0.11750906356753438
-0.15960755649173775
-0.10572961734153515
0.13810569317197233
0.11413452986541721
0.40188009437362776
-0.3797933697192665
0.030764957889640107
0.06525265686139166
0.04995220549719192
0.09809843403891913
0.11726807059385715
-0.1316051495362965
0.5566969809149206
-0.3556718449899021
0.11801688820621244
-0.04438689454843718
0.16688922028292938
0.45856853949632975
-0.39853585953169623
0.005214743269294231
-0.0543509314887054
-0.129313084393504
-0.09244173305346666
0.19453141828256154
-0.047978540782747346
-0.061799735533139014
-0.5141834307557053
0.49418841160673166
-0.12583075329497823
-0.05701147593353884
-0.2247288119140356
-0.31070641903863694
0.005217461423094428
1.1101241902363546
-1.586421202739026
-0.09298802453509976
-0.21966173986156629
0.08880835780805507
0.6825540365917749
-1.0597932933147234
-0.7490047729833906
-0.32865046857214647
-0.13617497496370157
0.18664813130220773
0.8227796020515824
0.9868620199290882
-0.1807434491980511
0.2790425882275019
-0.13265163339031008
-0.04295896365938789
0.008956922379726194
0.19525584693860157
0.10186114963086146
-0.17894916935419822
2.3290614904128177
1.25232210759147
0.3001948340777805
-0.2273972564963701
0.7985990696498119
0.7954961696172302
0.1967982113230548
0.4415791037732026
-0.11310638099676507
0.1523485851787434
0.01956469979467653
0.07854415139659006
0.3265579002169486
0.2558978508698124
0.6895955886324895
0.4820991821509235
1.186686315773269
-0.023902430849551324
-1.6663111739617138
-0.6816960264642498
0.13650498805271413
-0.4362661331308684
0.2252077080335899
0.09836123020464171
0.017241249205484695
-0.22611776976496925
-0.1695461902691343
