1
40
6
-0.002172303861828502
-0.03260241947554365
0.22595835889305096
-0.6375627142882471
-0.0936794675115791
0.010946293105984255
0.023880718208473636
0.0534985628312792
0.011418493475196257
0.38275841781676667
0.6328678219034369
-0.9130801743148866
-0.05243974401545219
0.029556809828854384
0.03833156410947745
-1.062099966406057
1.267518624545995
0.059025734872365634
0.04250489225295527
0.001032997851044078
-0.06824682913975705
0.047224499341171386
0.44245931934677224
1.4266894632452012
0.013610286693749207
0.05524429185677143
0.0211932641994267
0.29680910334024707
-0.036097485084628296
-0.006875382309026554
-0.7792543571087162
0.046625477627903186
0.3088170096720834
0.006767812366159239
0.047743092259722286
-0.036609816294905166
-0.25101300595924586
0.36610719719592133
-0.7320540509720967
0.026678865494359615
-1.2036211776743955
-0.2517958125351622
0.2929992600062073
-0.14109481266040966
0.10548575413720307
0.13581080541101634
-0.025003699358479375
0.2067089817347378
-0.059810133384943745
-0.416276902307091
-0.1623137159471899
0.01854437060442508
0.07892238489462475
0.16802571371247696
-0.3187598624440816
-0.10282139800052527
0.6397063340147054
-0.9812430248848446
-0.4852808914386164
-0.14107796464065736
-0.09268498299231946
-0.4869843865169828
-0.022853674543470693
-0.1892453401695369
-0.9488369066053461
-0.6232710261002141
-0.017648856528296994
-0.4686157321086365
0.3105967782318619
-0.33948762161914514
-0.6430173803892202
0.0987172887916759
0.13165963773366152
0.20485931552912406
0.4119938950060346
0.15300007257220802
0.04929546319653099
-0.00635463381937882
0.039630556255929705
0.062160729806823925
0.16265119660216124
0.18028972363846738
0.3613796374864628
0.21571717680385738
-0.33943429236590944
0.1498275198703466
0.03308077985766623
0.19552247713278545
0.20402380400410536
0.13698853973058567
0.08479967162674315
-0.09250973844149978
-0.19841274119777608
0.4489669584258292
-0.03723675947644435
-0.28859886654218275
-0.1262329967944084
0.5382451725784068
-0.03593912778276344
0.07793721962634288
0.19776777385304226
-0.2276243691742713
-0.22013456814784224
0.10446294482006577
0.508858521940571
0.9563331337723707
-0.09265893728688995
-0.49710924695120623
-0.6967774909551765
-0.33823338402187075
0.5411307836170216
-0.8137546670606024
1.3120942249228755
0.5520838756726125
-1.889459507871151
-1.0612384089620752
0.16706703402889533
-0.1511695522089532
-3.1927747341383617
2.7184639807951663
0.7846689568920138
-0.19840586097229965
0.5874416280484757
0.5897145080697844
2.331335087814192
-0.13624558293784073
0.33971441867724833
0.20312302193171697
-0.2543954539690378
0.2665260519007103
0.03468706066922385
0.21378232764022947
-0.07034721699566444
-0.15883953829392541
-0.08808125764429979
0.17923000437437075
-0.11138044316721904
0.026360043782335037
0.07700160381672431
0.3782355703917262
-0.13156300631689463
-0.03611921594842744
-0.15701979633812593
0.13822360881169185
0.27485011777595386
3.1832998087621197E-4
3.550063486890228
-2.0592390235225086
-0.6826706907619137
0.8624488087667515
-0.5655957634014582
-0.34792796846754726
-3.0697856634614813
-0.48190385962818494
5.193872091677902
0.8541210125157949
0.1134359843173483
-0.2832580298536296
0.6849473673951102
1.7626991005183144
0.09605913969637735
0.2546747407564607
-0.005372183056478543
0.0792018229873711
-0.2868646197605007
-0.20571216005870224
0.09785227734187535
0.3524673464887887
0.25740530561285685
-0.19474605136204523
-0.022501905614791148
-0.1578078358502124
-0.12751196946913723
-0.13225984587416006
-0.13316330177770908
-0.8043498242269401
0.10981361324449715
-0.4541763586768597
-0.2690957564799295
0.2950351650920296
-0.8403304728359671
-0.11861026207426709
-0.34031703159043003
-0.04770127198503684
0.24457514867209276
0.3382979908087587
-4.118365734701567E-4
-0.17188112522932045
0.09110541679111298
0.21576209239217284
-0.0837130602533806
0.197431968533734
-0.19981660112517077
-0.22378744414738413
0.10087512308791817
-2.1774152270771183
-0.10791815099222986
0.09004946260316804
-1.4539895498827535
0.5141384964283174
-0.5379028262252045
-0.9964570147009318
0.32227150366537577
-5.112241882134995
-0.7846755667500122
0.3919050941885979
0.5172402064569849
-0.41024441607850143
-2.4614371720245463
0.2810883328882778
-0.2468588274096953
-0.10965016651698822
0.3093262376752495
0.054722907949647306
-0.16082821209304224
-0.1715516625432009
-0.141946000920301
-0.04303439327728783
0.1672963506962817
-0.003636903847558905
-0.3846016653368787
-0.1752824041308772
-0.008944015363050886
-0.06555972581207538
0.39762175600749317
0.00954202575974038
-0.19871278623709293
-0.03041587124094325
0.024873603947339486
0.16342766679267934
0.5681175824267074
-0.5152048801411164
-0.6814431076396799
0.3036625857679828
-0.8143894099034973
0.2502689743070679
-0.8037312435947405
-0.19220994647554795
0.42435357990658745
0.12836994395497067
-0.25259363561948217
0.2711502110710337
0.007821121113261015
0.1460611419016518
-0.24052876545797386
-0.052681707646451546
-0.12349625105364787
-0.17418926392761042
0.12597512736448044
0.052819978606995534
-0.4324047549396321
-0.1658080160650568
2.3513090694456036
0.5438182872098491
-1.2829276279438107
-0.915745069227308
-0.21464849509972814
-0.7214105115175334
0.2227706559963069
0.09683034777338279
-0.19625749160752826
0.065374224826155
0.022376627299227805
0.1414056160813958
0.1819981838449742
-1.0073863306754554
-0.4519414333808096
0.049305662682547116
-0.8646986202583347
0.6492878057857229
0.9690947166478985
-0.3973163396324099
-0.10854074743066465
0.3415856062875494
0.04579367124015706
-0.6239338011612958
-0.31628343851186985
0.10291181862348375
-0.2559619510128759
0.35202746958439546
-0.28945656668374964
-0.1628468418993287
-0.04657130319435532
-0.09852727848596474
0.24302541811654976
-0.13916784994053655
-0.19236479720273353
-0.34912963711700873
0.4768079750311997
0.05026696872532438
0.17660040844464994
0.0919961179252027
0.24292053235842562
-0.14859089936124706
-0.6263420174825762
0.43464048564874597
-0.08650706619479895
0.1205102396324751
-0.1548241879793466
-0.6092255587826414
1.3948105080909763
0.6184033171852625
0.0826277893166186
-0.6194759330337433
-0.086947603730782
-0.5985714225555859
-0.4052059669373447
-0.6418962883244094
-0.27598950322177723
0.04306178098235688
-1.2632419810076054
-0.35688830673011784
0.40818482145308127
0.6964062045276739
0.2908593279466292
-0.3146980080435735
0.2015707071896077
0.015576930654039756
0.1300994989028776
0.17769063800440865
0.16533078788133895
