1
40
6
0.5304272434054133
0.021100490559706267
0.2622624253086005
0.334210981229519
0.40034640239450636
-0.24925647079081298
-0.20665178364392725
0.12055292902855229
0.5469621730217072
0.1357490726433637
0.004020170138278262
-0.2750485866105594
0.39621459207614423
0.4041417055794675
0.5181847255625855
-0.18315065504524297
0.08066319678456353
0.43504170693067934
0.345174419640698
-0.11503542865389405
-0.2441694651405053
-0.20083435523318616
0.2892970944299716
0.36065418661770143
-0.3528913429077106
-0.26852282940373784
0.4543357354579478
-0.24864176028977586
0.05463778045208854
0.06388782462682518
-0.3490641493646232
-0.312148209206718
0.3819891934072087
0.09733016739929536
0.34038958396861746
0.14386565226290024
0.1959301182933072
0.46522348337650615
-0.3340057215233795
-0.25408902653226184
-0.7729078153939665
0.30605200245553876
0.37504620254300325
-0.18439890863283084
-0.2650652882595889
-0.20789949754505746
0.24616849880565828
-0.5413718077235579
0.3258124225069173
0.17072262863179372
-0.24046296501938835
0.4271223251407713
0.11079709368080712
0.23862023608094513
-0.09312620382596422
-0.4346822994882879
0.13023674913601083
-0.1264047982344527
-0.10326952172663223
-0.2532586910388193
-0.45364243409480487
-0.04332692726225064
0.1122533936421901
-0.2591816856252502
0.21032023841813993
0.09449995602700208
0.2311661848873
-0.34921891461670024
-0.2988772847587541
0.47676316968159993
0.4549644143534841
0.09173067070419579
0.4350187490845988
-0.19128455649026607
-0.07862846305185213
0.02663081945808937
0.3336526943072206
0.07574614325977544
-0.2660619125015786
-0.2260413250510738
-0.40833926871536985
0.10970763473909997
0.03157670116902155
0.3756440195301198
-0.4553806429911025
0.2692586367475195
-0.4641867261267873
0.43054436149468417
-0.48950535173287035
0.37710884330418026
0.14755310054992607
0.2358419253774608
0.4706243124743614
-0.2085350090193373
-0.1980740810223992
-0.4571988512155162
-0.2867262991871938
-0.2996366512823559
0.463828562523521
0.19759035667284447
-0.412231771089183
-0.47054308475424245
0.27655996500691465
-0.35415428637292673
0.4581561956283312
-0.24674679277495865
0.4596826031528195
-0.08654438717477074
-0.2975627976343717
0.46157755997317074
-0.30866912326540397
0.05276814486953648
0.24709739318742535
-0.021096919570093287
-0.2996005079967423
-0.062300909199293056
-0.45439883017239435
-0.4348983720437565
-0.3861032020310516
0.4995505682506816
-0.5060977469865083
0.2049874518583264
-0.17792819680179672
-0.16523976784067143
-0.1703350632767473
-0.016327125224383322
0.32479700351579266
0.277425175218009
-0.04261275471538029
-0.390468181306835
-0.36202761898238184
-0.09693298979004615
0.240057268380969
0.10606655668497036
0.10585099671411474
-0.21650598546497618
-0.024811865653507306
-0.33168132457549776
-0.4039376428981928
0.1727146860758977
-0.4254386283498346
-0.13395536444839837
-0.11815088858357145
-0.029037437289206325
-0.15697037173497067
-0.38625886669249276
0.016809906164178465
-0.1507984474894195
0.39880818758927666
-0.394168661176125
-0.06534678576244066
0.15728858457557646
0.04108377238857022
-0.2519484128688637
-0.18284864374589385
0.19307621813534614
-0.28951384921714923
0.173162321001352
0.19855704099222357
-0.41811232537481674
-0.39417842122817737
0.2457978503826448
-0.3502622660496826
0.3768171573822171
-0.3974306723563862
0.2446129725197794
-0.5630197105110915
-0.08120237191371991
0.07121697819067772
-0.2672170530656953
0.07673642251009978
0.2145891772541186
0.03660753887278721
-0.5274284556239835
0.41167737006714117
-0.09735956771081952
-0.05054283722894431
-0.4674043132279628
-0.43581822422701133
-0.2741035777874172
0.21169004982181977
0.1893276060067489
-0.026317300698736328
0.3256426581708969
0.15737806342389168
0.4104930851402006
-0.33594050862924213
0.3983320360233525
0.25907951469378554
-0.4522649773644631
0.3050460575686586
0.3902011167354838
-0.17386781371732418
-0.4197213420009488
-0.07198688257619681
-0.05952436333500679
-0.01739268797662118
0.367127445818071
-0.3694979994521827
0.41664347636895627
0.14915183972010243
-0.09278917830442505
-0.10672151163618365
0.24831292554219195
0.15010337800268023
-0.43614503829362233
-0.342609484586079
-0.16997892240461546
-0.2605651917593678
0.4535356593692237
0.1329379964823213
0.2743877152763246
0.28703998547214427
-0.4213477317057736
0.13427791162112218
-0.028936455695554527
-0.369554086281606
0.44808569476747223
-0.2618050328830411
0.43371247569860577
-0.23888840604659348
0.14167832566799288
-0.3983239429170763
0.4341783049348471
0.17135556055674117
-0.06418024702065982
-0.2093587882490155
0.2181598197820498
0.02400961269359939
-0.2691295364082866
0.28755677903423016
-0.4652961298048422
-0.1401834407149696
-0.1266620677976634
0.4893925911841944
0.032742790960905065
0.22780869728592176
-0.45435257525712136
0.43298372590863105
0.1529308391761267
-0.3307893983985413
0.3840146170319696
0.0917305124284494
-0.040350537703752534
0.4801072775509678
-0.13659860704815108
0.4718593898918676
0.40992846003775735
-0.041814540513833896
0.39379179921878016
-0.4836319460656089
0.3209716905665137
0.2325200553220441
-0.2019525347976202
0.3949133732660471
0.34491264978401
-0.2668938924396549
0.12666375698483343
0.3750987632965283
-0.23580797165347567
0.3234777249232018
0.4399478071487648
-0.16171279107454317
0.20225927754302686
0.1602762976696966
0.08620476975518897
-0.22584840676618215
-0.24870039486113993
-0.0820606639760826
0.2594923999340497
0.20277799811352953
0.11610655492927664
0.3440784618109302
-0.13550404531705704
0.40613989980213944
-0.3109745429739115
0.020137509142244783
0.173587794795508
-0.08097931305794469
0.18748895263047732
-0.23097088881172598
0.33796356093573565
0.3300146236120531
0.1048402336449461
-0.25554265960309064
0.2792596904183504
0.1461412176098372
0.09454248276720699
0.30081761224030124
0.3287611761341461
0.3213540755799198
-0.4635871014455773
0.3389339875198431
0.4142443297979988
-0.3765803997070641
0.2345942556250872
-0.1366766992898744
0.3772913035319559
0.06765256526907276
-0.4765755293321892
0.2414892830792007
-0.3204416367600397
0.051183508673431986
0.2616466972209583
-0.5458871016577431
-0.1474026122862505
0.28059633911586135
-0.039171955874441285
-0.014018794283915767
0.18484627512188243
-0.11696620852634411
0.2585967380408599
-0.12001306021853292
0.5570899788267919
0.0660840117814313
0.32845460387366193
0.36270946745092664
-0.15444009419313626
0.01316240421194242
0.4336909372914153
0.11052450861172428
