1
40
6
-0.24559157807389806
0.3632469175387589
0.11961081991128801
0.07197947953181008
0.20988583447096545
0.10096285246119872
-0.4112224800322933
0.009533236347621701
-0.30144418255664157
0.5005515085031917
0.1654164394137793
0.0883098925547402
-3.064007660345664E-4
-0.41209084756096026
-0.2272381341942424
0.3611633801169735
0.1091636138696571
-0.6508584069835798
0.005416275570487998
0.2061903658726743
0.5653373108236689
-0.29724228762723987
-0.1662562706258415
0.35217201436773216
0.20079942931322708
-0.11774307814194862
0.38370792554862404
0.28770348859105843
-0.0777401491661687
0.023256393845077206
0.29274755077965414
0.25719003091456505
-0.48556931995698743
-0.5235520239702581
-0.02482663269606417
-0.5772719899855834
-0.5267726114794823
0.4530880778623747
0.03479145938302365
0.5272447419629679
-0.6320614312339622
-0.032666793883958135
0.45366475485984975
-0.3822870411454534
0.45895310558611413
-0.24749683541587572
-0.2543191432608671
0.14532771230045477
-0.024079992594170718
-0.20595278057581698
0.3037506094035577
-0.5311440719121344
0.24360356268693034
0.38144543218860505
0.1398373935358991
0.4297982111932791
0.09934372104216581
-0.4160918685597543
-0.49274518652659843
-0.2545231944652899
-0.07315109898720518
-0.1414981652401414
0.14211612269880106
0.3439296456308088
0.4334835692866734
-0.4742350065001678
0.3970174886986315
0.20271739681222128
0.2361933866243792
-0.08927161342546971
0.4642780354533218
0.1539839783554679
-0.17210854374055318
-0.45446733475137835
0.25862678520195936
-0.10311066570672127
-0.18948903406364828
-0.004195732734509037
-0.336979649940613
0.09784781499820477
0.27692510107518714
0.352487427121804
-0.3565770898566445
0.17441709465017377
0.1566391225746012
0.28275668031450435
-0.017708334013058855
-0.17269825208702488
0.3875480293920646
0.20854273899449177
-0.05344922122761676
-0.4453552365686514
-0.17944229655168362
-0.4071169509034543
-0.2992855571225636
0.12918629492926748
-0.05595802984374789
-0.45249181141292316
0.1867347278770932
-0.16859217729095943
0.33974119900732924
0.43561183723511493
0.3015945429120634
-0.2748441076853558
-0.2956697373270869
0.5355537091078334
0.46980908427107193
0.3440213887166121
-0.1748478686953417
-0.49688848230575394
-0.3143131259827732
0.22187258367049512
0.27944395217021356
0.14780865038082114
-0.44143939514718705
0.3688500145105512
0.3040922218426691
0.07450219171060732
0.225925769251574
-0.04498416435521485
0.24688177859021168
0.21971843641279523
-0.1889937951206582
-0.29987045075531793
-0.07988001811649012
0.0947468128139736
-0.38801340585715316
-0.3430984058880732
-0.2890482546363274
-0.22020045792907103
-0.43800387563980586
-0.06718588109676565
0.1769010653219089
0.1841625334291927
0.017547816532141644
0.48297569822952024
-0.05284668569365119
-0.01898608275780577
-0.08729879631127457
0.09258378086097208
-0.4699577297860677
0.37812465476888896
0.3845318841698147
-0.07961512767944948
-0.3464631815079695
-0.09464614005877825
0.3548203262333715
0.3278595031922917
0.15890021506966195
0.29714343029231854
-0.23431255362052564
0.288454828514657
-0.5377840751655083
0.15305843309246586
-0.5055756387964715
0.16585287957639874
0.21471687282239485
0.20796232306332402
0.0404895026214885
-0.4835086346263431
-0.2428866229713896
-0.08547070399255532
-0.045661988398591764
-0.18888931320704042
-0.13689078146973438
-0.29270902891590744
0.7125560787916125
0.3753281492821051
-0.12426789746611755
0.010765204581906811
0.3929044426307404
0.08111350585228572
0.314343119655825
-0.25771860500134486
-0.27520538440054104
0.03948506852359117
-0.20216930148088608
0.25016662846768134
-0.16192960800473416
-0.20982080186214228
-0.0862309525098831
-0.20781007640778482
0.35720597719461716
0.22797426610003158
-0.24037749546919185
0.42742477364738846
-0.3676821808142907
-0.3235057282460256
0.009516993768179438
0.29556684073740397
-0.31229732819219164
0.3140262543651509
0.3027762146014418
0.39155300631329976
0.433944682029272
-0.30311633674247523
-0.45765966479811365
-0.05337910290107291
-0.3059691453775482
0.3114189794786443
-0.11270444539950482
-0.09917797907640132
0.38716371340744904
-0.419940748644939
0.4118185403993926
0.24067706747323714
-0.34326295300713144
0.4186723031151042
-0.2157798511405432
0.22774444106248018
-0.031431733703026835
0.4464792516627149
0.40445919853072854
-0.44815296271016036
-0.4601234312878716
-0.13641993085514775
-0.2580956586414664
0.08727532746725242
0.34106509138352264
0.46551285767026435
-0.08469129505217794
0.38583243843235554
-0.0630946309335853
0.25675033750241383
0.21370440183707348
-0.11386891453423885
0.2514436033311598
0.14331607445576217
-0.39189454794255546
-0.6220518110332868
-0.0622816717540269
0.5037130900498292
-0.46430210995256715
-0.29360124727834647
0.4288093647440683
-0.4926774506806545
0.11406478054941172
0.39207542620890573
0.3862809747772042
0.08853901131471596
0.08794092251134458
0.3086704416578075
-0.02482831647177458
-0.13852447251785496
0.19804679336850262
0.4299942367925697
-0.3635922898217394
0.08125602227518117
0.1087170955354903
0.1267681525298126
-0.43272327609691885
-0.14358571676742884
-0.3878104870388197
0.3380633418417767
0.21021968491758486
-0.2525846381003654
0.4497534926629769
-0.31840247982567005
-0.2614660007925171
-0.3140036276590835
0.020302686945407336
0.34614745665024005
0.41648676866492834
0.39464331128337976
-0.24006552722174834
0.3884445856859147
-0.3120278426060032
-0.4104143905221391
0.25378537327071393
0.4548145960850169
0.0956537998570869
0.37587128770185246
0.01087921276880742
0.0773339449399232
0.04435611648344066
0.13201727521211973
-0.09718385377254882
-0.08166899450378809
0.24559544288375115
-0.27049281875920467
0.2881137627069574
0.25269734368504154
0.21804137738280957
0.3076657893081919
0.460147183396446
-0.02185826864180386
-0.017442932327414198
-0.4425558341182
0.3531006084809129
0.14250329571800696
0.2702263246916062
0.11989759891564244
0.3290021476628482
-0.38542405441069705
0.28733243705988565
0.28955180134539443
-0.005329415448328364
-0.14188509171954516
-0.4788442161868188
0.28096339009648585
0.03577713271481454
-0.23637093545334886
-0.47144761440304717
0.21226733383061616
-0.43759178265934734
0.17372096948463017
-0.4375541746808705
-0.12718688416804283
-0.22082165140959162
-0.41460754358685986
-0.17903098977185047
-0.35043499325571603
-0.09786688342191956
0.2840932665061175
0.1534911327894027
-0.01674702073948383
-0.11387170751493167
-0.32523617254542936
-0.4293044470785371
-0.4324170246219364
-0.21377082484130525
