1
40
6
0.03709837317159712
0.14691987787321067
-0.02584998478871201
-0.004684291537614705
-0.011700031944718439
-0.019805797557996736
0.06917344563841964
0.1368923657015235
0.5171120796741592
0.41750350818225634
0.05778533460610385
0.05624154262634323
0.029190460650101124
-0.09454568529894583
-0.06736536665122173
-0.6080543183625499
0.07968551074083031
0.04365114895750247
0.1692115341223019
-0.3415220595743206
0.47287534086485156
0.022363467382052735
0.11643562285577429
0.32936228896927333
-0.023923249828359413
-0.0017601028950638576
-0.033996666373354745
1.078863347453391
-0.32012977866503434
0.018262672623449144
-0.3505470619960755
-0.2848727119854905
-0.35386267630797297
-0.13996862577616231
0.0011383667760803888
0.035569512931517125
0.10394142170752955
0.505470564539178
-0.021514210007503025
-0.036338334837203716
0.4969535793228809
0.07344006726260478
-0.15232689660476922
-0.1541721856465065
-0.16784974669819797
-8.201556481416408E-4
0.12473806323734826
-0.03774137799116264
0.004543268661809617
-1.1733817713252814
-0.16562642687522058
0.20150541615063047
0.09854398296682622
-0.2875731457797182
-0.9793564143897904
-0.16749699191323944
0.09313508628478544
0.16042065882282291
-0.04029518542479345
0.08922353063754637
-0.11851789479216797
0.08023011483336212
0.039301363375523334
-0.13779312061062585
-0.2547878507254074
0.058622800628191404
-0.03708965555964461
0.16310630998490536
0.012706315706503485
-0.10035082019200692
-0.08049059837025026
-0.009572352385726237
0.04051448877415384
-0.006614369693820616
0.05083371282262401
-0.01909403726627486
-0.02414249914493077
-0.16072100075537937
-0.21948851517115892
-0.05238937006928738
0.08279224209873232
-0.1020919295373616
-0.0011527982725091622
0.2585394553922641
0.006448024103026272
-0.16827294350001173
-0.09129697304102533
-0.10169799924941134
0.14718785177953603
0.09088073236612584
-0.042155795134218646
-0.8934810157129718
-0.0741007038981634
-0.3569565341765013
-0.06855168908576016
-0.008594645272272331
-0.5239780172339317
0.0383939730024412
1.3764979138139295
2.6335680239541244
-0.09656584535148974
0.0907696718138512
0.5065488552254053
0.8507242940259135
-0.03434352497674954
2.1209885626096465
-0.10236434399627514
0.41402454460730714
0.26374079075790957
-0.4069911999070872
-0.802527330500073
-0.11184160073201933
-0.45576960414407736
0.19759140179674345
-0.35543193306443954
0.03826727515527295
0.019386669066413537
-0.2812390841173551
0.05914837123422489
-0.08349847587073371
-0.177463128488134
-0.13261619904392133
-0.17791070745067655
0.15749950315687816
0.07107881400589011
0.15253499505501553
-0.4491023108240059
-0.09191798969412039
-0.12676935654219376
-0.032599793270140245
-0.07566763835253926
-0.32310116724673377
-0.3035355550216348
-0.031251390474337386
0.2316090564924718
0.28643488710967197
0.12285081851350002
0.07399308584430535
-0.07210135753212797
0.17724942901645616
0.08809002020626054
-0.021947175862450773
0.18259892786301166
0.10677297636473612
-0.23063871888693316
-0.0626248512027033
0.2656267491468994
3.836013728991196
0.28123358965945167
-1.8786376267642997
-0.6020548702333769
0.0983306249809984
0.4149549455740071
0.1819654763732335
-0.6706312724167521
-0.2466481431035622
0.010519488869777103
0.13865100483002726
-0.2376941266711218
-0.3998012842716219
0.07032763886949327
-0.213156177050208
-6.93272525771979E-4
-0.007907258347798691
-0.09864401333307424
0.17907969924809541
-0.14306223284574984
-0.31025357208880744
-0.7553168513445376
-1.0770124354919135
1.0229997725784947
0.6261896461947232
0.11391980273009795
0.3231338438804547
-0.2933992558552513
0.6218429162123681
0.10162059723098515
1.2846930709091726
0.8313944786596317
-0.5205768608462247
1.0407100279198125
-0.06373462258951386
-1.4765827944273313
-0.9014912561536806
0.49056539851309877
0.39183503333462266
-0.5604870340107032
-0.7807396395071993
0.13620234589169228
0.04134009361720199
-0.174625211424046
0.001585211771595214
-0.002932816322777575
0.061796935811566055
0.10098904251417223
-0.3036353868870525
0.3078870355621309
0.3191642177826729
1.1069859573424659
0.5588830972115127
1.4625744794474824
1.2471093745566186
0.4290193922724715
-1.366270905774271
1.7106519020300255
0.875151681129459
0.3847098897439267
-0.012428177403878913
-1.23314750732815
-0.029484750166745146
-0.27984084231380685
-0.2595421501947301
0.07737162842768201
0.05148684081285823
0.1248181800004195
-0.09115941656505093
0.12918913363228984
-0.3709458646844087
-0.0067805249175206675
0.043772222034971886
-0.021184773022509422
-0.06503908702001487
-0.333450304064321
0.01953052270260645
-0.21163751478280404
-0.054065933858962245
0.06270130429166527
0.09318465057878304
-0.1458442679592575
-0.1925581117505239
0.15270651437746122
3.2744104170275903
0.12842584574857924
-0.9799357709929448
-0.5243866821921626
0.4500512197767871
-0.28867826490672815
0.01646743460704973
0.6096679193895792
2.0363712800466662
-0.9176146990528324
1.281201221846622
0.2343751145434709
1.289605718005984
0.1485888774343314
-0.2444167944462103
0.1009982712906492
-0.09218649292178711
-0.09245741524746687
-0.05564796986280659
-0.26437664344117345
-0.30515375183224985
-4.618426831930862
-0.25099749009224276
0.10481339872798688
0.5083877579054523
-2.063981136183485
-2.4187750416792104
1.1282385797971248
0.941539660891972
-1.170068475563179
0.034005771481310565
-0.18615798273584055
0.22493475200564467
0.024987092149163913
-0.33487295047323634
1.0722162703796707
0.52053323583668
0.12162543837379282
-0.1476055619397882
0.6092002818358367
0.433522922138618
-0.43081157337427917
-0.27212303155623785
0.16228178767815934
0.3808711166533605
0.15025767020531655
-0.038319706580646165
-0.14618689316228162
0.20411013125569824
-0.22647866983711434
-0.13191500712129894
0.004192192086865029
0.057003021762054684
-0.21388441498468133
-0.2159207477466132
-0.5980966494665287
-0.34892528582577037
0.23098950759536824
0.20348358776422468
-0.41567493835976094
-0.5214125632651353
0.041905649185471024
0.26771456943745986
0.22763115527220992
-0.28747107835375985
-0.2789072306781056
-0.06863850930266198
0.04493549946503374
0.26816007732002245
-0.2626016169286518
-1.2177193608493173
-1.068787073562378
-0.1805722328302766
0.74156684126326
-0.0938757531744633
-1.2311891225230909
0.07856319011560947
-0.04293567338141521
-0.16057483325131058
0.023509229799213275
0.04900281417586003
-0.14510789418269
-0.01984388301831955
-0.03493703742606634
-0.02101307172765105
-0.28447551120798703
0.09775282762317423
0.04575240836285326
0.01407761825529913
0.08128987340455367
