1
40
6
0.003994839219785625
-0.4936987847961084
0.4566720383745528
-0.3084418930335869
-0.029061194632304842
-0.31522115978783444
0.26913388371362373
-0.21363710026141372
-0.07820672044157594
-0.31574791859270773
0.31032986913398686
0.03794292221122108
0.04375177830640346
-0.17789358176568712
-0.2982663149587347
-0.37940827862247284
-0.36072499153212056
-0.22738347912763246
0.126399426891174
0.4757042254283019
-0.6786254688376205
-0.2608353759662667
0.0982783784436551
-0.24988159144278382
0.21553790404520723
0.314638253213736
-0.0878419762495048
-0.13487687660864767
-0.2696191235013733
0.437052777393037
-0.217060125081548
-0.2884666848098449
0.04562677883750887
-0.3490188594657847
0.07313782890856894
0.13161366228603213
-0.3850001498207656
-0.3586129465660334
-0.0038237538672534943
-0.28858259139141595
-0.7163846151957276
0.2743247264450536
-0.07991944206493781
0.07716370334031009
-0.32727108151154005
0.4786039577912657
-0.10019960658853717
0.3651756176756172
-0.3157256875556437
0.3581696595939014
-0.11630859844538939
0.437778516470815
0.1191874470604574
-0.2547041070724824
0.15636777231793902
0.23572697088141242
0.17255365718237323
-0.4893110303169628
-0.5364259115489375
-0.24857301819496452
0.008505925649780918
-0.5703601808277197
-0.18569542864996263
-0.41019191729836274
-0.023411649783746574
-0.3627979885912747
-0.09350740430791425
-0.0898737507181751
0.2820473938418422
0.24388703636892184
0.32024108430313425
0.03324450360132716
0.2779325081354559
0.4385996289742796
0.134845506222929
0.08090424970608978
-0.4891230858418838
-0.05812151397723411
0.26112588986234714
-0.31790044050461497
-0.41301233594535486
-0.1394974628416604
0.59970601372745
-0.3079929984254698
0.2167849759292878
-0.20773328131629948
-0.32284729959474745
0.22452520959830113
-0.10013887199173634
-0.4686640279606399
0.3771616902688606
-0.4717339425117123
-0.07591887159136541
0.16282880655151055
0.2900409216881576
-0.27609473968280557
0.08455285344645705
0.35177698810927605
0.31028022335845307
-0.09473760367457541
-0.4814958632482291
0.30226349303688277
-0.19656545695535882
-0.02808225860380238
-0.4656405511674954
-0.09660857708149065
0.4689532491481603
0.14340881902925798
-0.21928497159768584
0.3958009738686491
-0.040700513380493464
0.017600222810060153
0.1908992037302914
-0.35022074909534384
-0.09994882773072802
0.4023572263356172
-0.4134372553004287
0.03364160362952075
0.19886787130910624
0.31710964277290027
-0.10249237205046716
0.1944580753308619
-0.2335260477896885
-0.025508185532032053
-0.27506824101879485
0.2386879363776472
-0.42470884068551507
-0.2759663961131552
-0.16515008533639694
-0.08131808136929304
-0.002676581801723552
-0.09606152104720932
0.4403922186968003
0.24296586576039264
0.14098643828780133
-0.21929820216891857
-0.08278714489797091
0.15175722377538414
-0.1902045293471947
-0.22960261822992453
0.5101574058679217
-0.43801599267756086
-0.16206336482351688
0.3312115600317614
-0.41469856319496606
0.2824278569960196
0.2581249734888358
-0.32722415001156213
-0.1770934526272863
0.18132797516819046
0.2164553079273802
0.38586196695096175
-0.04145309766655668
-0.2466967441153751
0.4210251608711436
-0.12317864146217257
-0.04329199537402934
0.017095138136054684
-0.29231064196384604
0.3707263348212834
0.276591081372323
-0.41148226356616124
-0.39381816389756075
-0.017004300756635574
0.26471503812395547
0.19232840029903928
0.5354356967252759
-0.11347979659183591
-0.4421563375008286
0.3470773499662166
0.09714255110257793
0.3987674123310741
-0.19042764824866157
-0.12007148301449587
-0.22829506219523346
0.3607763064161725
0.1892817060124968
-0.34928604653761264
-0.0706987260036745
-0.3268641812562067
-0.5304624521042501
-0.3375613833959887
-0.10302126183257863
-0.031961150989299934
0.21831889056046552
0.4230949168009574
-0.09720234640425043
0.6496192731169551
0.20501365439791064
-0.47795964195799834
-0.12852536520215915
0.08995521179874096
-0.1477967827856669
0.5176964770873989
0.019520916994040634
0.00771352963600444
-0.21737769402643012
0.18017248208496667
0.19011890461356173
-0.5034846195029905
-0.2896962385858476
0.15309867038301472
0.38264319089296783
-0.29365561810139285
-0.031693512083506285
0.4668554571777972
-0.1786537085945794
-0.03883357268524083
-0.10944449008374355
-0.24734467980938105
-0.06821515414034687
0.0541587768996567
0.41427703625915396
0.263114502515736
0.4905957425441577
-0.2636926532707057
-0.3221521183991687
0.16701476363029183
0.37002911423782464
-0.3905600460979768
0.04317312629414589
-0.09879449624812357
-0.5577880966813632
0.16882914826551262
0.3211193586238182
0.43550163522529034
-0.061911067409428866
0.19932668366532377
-0.01588881296126557
0.030223779166479454
0.19169795838231962
-0.46695269117924637
0.21358042165722335
-0.045544697437690795
0.5480369376510028
-0.39969225978530126
-0.3668468208629556
0.4311833562465767
0.2863839616537989
0.46592963894480954
0.09578505963908752
0.26810923323480157
0.3560329320625315
-0.096913907123171
-0.24031041565793884
-0.4990875945554352
-0.331884975587759
0.2537826031519639
-0.2649193849793147
-0.3371835037038162
-0.48538583985128236
0.004377408124880057
-0.2136619355655585
0.4522853095177906
-0.34775010820526603
-0.29465641115326674
0.21430621819611428
-0.1557201558348795
-0.15457688954733084
0.3516084619505566
-0.051852081342240564
-0.2233268645732034
0.29161096062582825
0.4098264753623392
-0.37495764884329497
0.012055968345362983
0.016803709580731595
0.016558133822951716
0.38138891779572726
0.009402085181059939
0.10813673165373507
-0.47829162593041874
-0.44732682960587855
-0.4045233572520986
-0.3710768080911265
0.19882100336651698
-0.1301144488008028
-0.29481151209006573
0.16758186847901546
-0.3265961470306861
-0.4419969583538817
0.026454036779920434
0.07531226597930997
0.3333797890713157
-0.2447857828012751
0.08379545496531418
0.1843651580998484
0.16882908864663143
-0.051426652876339
-0.3252205572421126
-0.2747121024612076
0.07116391039944836
-0.2547249669761726
-0.012623740171986997
-0.01253283611162111
0.4358425158680652
-0.11691922499337346
0.43484629843607214
0.17906093585590577
-0.08225288379996697
-0.2636046677152374
-0.15221977871372597
-0.13738564101266654
0.13834414544929055
-0.10541633852278143
-0.3614422375156995
0.3619570602576656
0.2025918486997034
-0.3285935823076303
0.33040774836811987
-0.27003368920222975
0.3585761235269395
-0.4047249704487391
0.47124968410591855
0.17722049684788302
0.39294157214027053
-0.1424836304527385
-0.1389137490355983
-0.2923087967999506
-0.3559832682423604
0.3315905205340058
