1
40
6
-0.0339169141380487
0.16173805027379287
0.5313403098813902
-0.09850285119511142
-0.19691677638051433
0.42219407909260304
0.21447127979159408
0.08848351674096386
-0.333144383362122
0.43280160415202046
-0.49470516185496244
-0.38683688026964774
0.17782119507976468
-0.06792991821944472
0.25142370540168363
-0.499495996263735
-0.3948938680073899
0.34510786180939007
-0.20245932957449914
0.42852086106125503
0.057572665183557935
-0.33748540645136194
0.4430987139169845
0.006545532032171299
0.2884211566279586
0.4033884719646845
-0.05435701411464323
-0.4421266916451901
-0.027952303441039498
-0.344955086889641
0.0959223887144453
0.08078383120018133
-0.09018557895511303
0.15028589458878738
-0.18941202270719873
0.42925425150663443
-0.6304291058648741
-0.026809105896569187
0.08877275793625775
0.026555579792350695
-0.6476801872141478
0.2427153347992345
0.23438326254898936
-0.3425649281071699
0.16456089146484765
-0.029772946979987964
0.2776548751018965
-0.3322281155108525
0.34108703572914484
-0.4743103936053143
0.3768821796654638
-0.29211095916336277
0.0993973864056054
-0.043411204933007916
-0.2147532616859663
-0.17825045571024367
-0.28252957551431807
0.20126747024062605
0.2915903156776304
0.3366716652280531
0.0976274822742618
-0.5642227889880453
-0.3229416409276037
0.058756934799701344
0.18425915770043608
-0.3474126418962069
-0.017452114303882025
0.013316036201160583
0.33185267521704076
0.3555315812004025
-0.20195456367584866
-0.14617772464464898
-0.4755927591727103
0.4190707745312967
0.45687358761791447
-0.40551111996381173
-0.13734984709929046
-0.14936534285696634
-0.419084295126381
-0.4400145753355814
-0.17233271915455645
0.09888894249252547
-0.3855162408223352
0.3122874015510295
0.19723734967558962
-0.1563088436301106
-0.33202531021317294
-0.21950504720007555
0.06752310391443764
0.0338721418211385
-0.47109401431289905
0.4923610192488882
-0.13266670434922698
-0.4568789577641286
-0.28153817413180715
-0.1770680792987152
0.13289270125135702
-0.31208205887665674
-0.0021986613346427378
-0.08641250747958946
-0.39311307455830036
-0.1454056656936683
-0.2831931788942268
0.11456540510577055
-0.07240587267432406
-0.3716994922576869
-0.13188328094269594
-0.13733258916309704
-0.37048476993013046
-0.32177663138052615
-0.02061110620797231
0.25531902385942384
0.43269278916315734
0.19872147340960852
0.07469510477197604
0.3887364859465319
0.03698090728500743
0.42902623790803196
0.20722231431966884
0.0559960369155363
0.04574991833891869
0.04187196259620699
0.1645501812569801
0.02335464499544807
0.36380364885631117
-0.414163224573919
-0.2886256195970509
0.08211880322508718
0.20864701937469976
-0.18131994389617465
-0.46781945549350307
0.18896429715549565
0.42228047302642013
0.16089314253014117
0.491775363585607
0.0765786412778111
-0.38106549787327054
-0.18486164880054184
-8.82863289694052E-4
-0.3053358978718218
0.351489114563687
-0.43264390528331503
-0.058730140686909134
0.15829871004394463
-0.18400816546057128
-0.24388346492350882
0.19034630653311052
0.1650394112655357
-0.5084386928004819
0.0036514590846467047
-0.4280061235629689
-0.4836210366303215
0.5061819193476826
0.036706225926685564
-0.29333075400840064
-0.3327399101004747
-0.41698935355884637
-0.1829500168784012
-0.44095507221059943
0.059112724550415295
-0.14823246189886302
0.2162860490244963
-0.349134710899276
-0.31013628378771807
0.2803169997577494
0.5143979551086605
-0.1730656158683145
-0.30049398405611044
-0.11172707525174677
0.018895991462915797
-0.24843529159625916
0.27829211045732216
0.42785973008610706
-0.018731489787499177
0.13641339298005456
0.13276182457207503
-0.3510067437379519
-0.4849413350329738
0.08931105035768792
0.01509581093056441
-0.4822172327564285
-0.3066869232991253
-0.3219454619352037
0.23831076383976502
0.0038575039436957266
0.2854170465643699
-0.45747649189961803
0.16764408324071683
0.33718552575468946
0.04989016700810806
-0.09408303244471958
-0.12832493417964144
0.2450141510037964
0.36273604402177584
-0.28105110931636584
0.3002964376873031
0.4905158961024339
-0.27630350251584584
-0.44816930561177964
0.3498896655412456
0.24801704015451165
-0.34317247012583174
-0.22613189557957847
0.17176173764886457
0.007565015474935535
-0.38161342981126023
0.20966173090055507
0.11753623400609516
-0.22618070944303115
0.4830432149424333
0.07108672240041398
-0.333131720480583
0.463446896679747
-0.1548610270243346
0.028082947790217107
0.20046935717267717
0.46845338922017915
0.43103355227797185
0.29337674492611826
-0.30329902479967374
-0.41359756292748834
-0.04295368910757708
-0.33708488664045755
-0.25276730261239655
-0.23670687171738597
-0.2938024152729208
-0.26582949195037764
-0.21525027963967433
0.09956160066842672
0.4047248447342971
0.22879995505379289
-0.10696831482514517
-0.07026520682081411
0.3500297508604947
0.013381197166231932
0.35614489326787124
0.4801815989913939
0.0638164137196523
-0.3223309472524034
-0.3003665212086876
0.2910892353070182
-0.16283286812454378
0.44509208083409063
0.486370484749766
-0.10392508156926193
-0.2749158758668083
0.2019080438900163
-0.06096061888622268
0.38464700393559925
0.34582379257424867
0.5224483330509936
0.4406592274674858
-0.06105845073323102
-0.24849489798193813
-0.10627847049061412
0.4343640744943162
0.08574293048599582
0.3580048463849043
0.22719105179227617
-0.21799210827273616
-0.1714927956405915
-0.4122225583665705
-0.049182704554494465
-0.3218693229058894
0.09581962450508703
0.5075409122870029
0.32303377900450714
-0.46411944509543795
-0.4385966184477835
-0.20928201159084855
0.018403441418843553
0.40683700721323246
0.23273576893454556
0.09089773733770076
-0.0462482045829472
0.08943208615248144
-0.18821689948768477
-0.09646124740859952
0.4226480308139971
-0.2503232780142223
0.2999911037468347
0.30963250920649044
0.05276998657001269
0.117866536165488
0.03780757827441909
-0.2689545372818902
0.5018065952840708
0.16727202240120373
0.4108125448376668
0.21140702372380185
-0.31693613223325073
0.18938070997135012
0.17613943313692104
0.2618889002284151
-0.1573038367694716
0.11541818185327472
0.5297897991586094
0.24786466385132377
0.3766145750469003
0.6977491086064876
-0.2810254406656161
0.02484938701919281
0.2394552589289526
-0.0968997403909457
0.411168211716147
0.08946014864207007
0.29751998134696345
-0.2959537159436078
-0.20903362730870084
0.04443607159760336
-0.47292034941484856
-0.029155271074542983
-0.013471153259782619
0.3842352983661532
-0.2907009572979636
-0.3417732311390476
-0.4687713493212199
-0.30472641834624475
0.16788016408616355
-0.017008863676022536
-0.20554086951064449
