1
40
6
0.1578604878611388
-0.10784322896494947
-0.24421147392879433
0.16425338507049655
-0.11631631399690649
-0.2311440477175922
0.2989646697545018
-0.17159891687195283
0.043247252797906394
-0.38234322808912624
0.33631059408322833
0.06777703790450183
-0.22693890018079632
-0.43021122192165195
-0.06184838747579631
-0.34909166812389186
-0.4189514510316964
0.23670400251924956
0.5726169704053624
0.2111507386659476
0.5541711309844582
-0.3827615293552784
0.3259667433669254
0.08560355875177587
0.512966612370334
-0.01178332256637718
0.2405949211259945
-0.3871280482095442
-0.23136397041053583
-0.11448373781440421
-0.2474609434690979
0.10090912040922478
0.08115185771859512
0.040146743383934126
-0.30328893723875466
0.17956123408280203
-0.17007687090534274
-0.4322075728497455
-0.12248834792520041
0.03117232468322947
-1.048217731722305
0.3916680676044912
0.36349539096479033
0.0611704757187263
0.40354019039911637
-0.1513623805059037
0.2584399893476241
-0.3250050301624819
0.10550711008097637
-0.4455499504279319
0.4507090463661954
-0.0670158258801613
-0.2695791252085805
0.15742671870122785
0.23131943082167786
0.3329104365591373
-0.4849249526291302
0.30411671804100576
0.41384486452833663
-0.1741329306494341
0.2950449422107624
-0.29369183448835723
-0.1551891665710998
-0.07706184706837986
-0.4186457187271019
-0.08615884340656986
0.005208212069501316
0.26316253227038017
-0.06434726187875765
0.3571280603765385
0.11454175554866035
0.17406185699320745
-0.44450671622355686
0.03465598239547212
0.2779004923661357
-0.21927353991123713
-0.26728331211140005
-0.4642955365199931
-0.24978113226395746
0.3020173300174225
0.5268491967712611
-0.39851284823415406
0.05131039090815361
-0.24754081424039803
0.4618650574456179
0.1422574482813355
-0.24451162524132428
0.354761614975212
0.021251435166901957
-0.5781540949570425
0.10765482810792437
0.4828217390892252
0.35058420711856975
0.16692578885702802
0.26374248366903374
-0.3368516211652917
-0.08209750422913965
0.4826610518470139
-0.1664693586762967
-0.1251565152790296
-0.3879072871595075
-0.01092197898962737
0.32233005165266904
0.4274290620702762
0.3544578391718391
0.460125983653234
0.27068597408072903
-0.09132041049893294
0.1938186047168164
0.3333307909846138
0.5035941037867605
-0.31280701926270876
-0.2274346357804509
0.07380491597545884
0.3379001598135827
-0.3912094774796019
-0.513782330875859
-0.3044576430131629
0.3763496754461907
0.3877768045101283
0.11937411068022766
0.22699570622403292
-0.3778304380472776
-0.4909786679482034
-0.4073711518555179
-0.27945555729587496
0.4591051014861115
0.36594526993919785
0.26844418494810496
-0.1455577264411438
-0.10085639377175669
0.5091413487238192
0.3112365339109766
-0.37587815637860494
0.0056729881441947815
0.0053501829244471085
-0.34802883499896875
-0.07974870546666575
0.6521954199662374
0.2552720032772984
0.38533052737306156
-0.48449886150862465
0.443566583544274
0.022340597741034675
0.3813330804584098
-0.12667560554359103
0.16382914711913976
-0.44449664887092005
-0.41848023849889254
-0.2986279764236453
0.39093050740662627
0.07056673503630256
-0.2364516017616874
-0.49052034471990635
0.39043463051717403
-0.20111523294781278
0.3070129578316903
-0.31818527994875134
0.4639956781407248
0.025170801404224983
0.4011497961622813
0.03358856444315891
0.009930138322802533
-0.4569482338689255
-0.29957527883422197
-0.49743509250637524
-0.24585561529390898
-0.03306359734950214
-0.13513067451033667
-0.33213905316537423
0.19080674269843
0.07335923623635118
-0.06639776221756066
-0.6042813482849408
-0.17333136870153582
0.1946479152218859
0.04311201925323796
-0.2926851481751751
0.3033700051666598
0.05305683120699701
-0.1652990439366966
0.3439434989326967
0.18070174732053865
-0.05622612203479696
-0.37604148450769115
-0.4507921649384585
0.411616381069021
-0.26986464401399424
-0.3681023731679911
0.3918869786129079
-0.408663848140083
-0.037961757571568326
-0.20384799029356374
0.23797253220172407
0.12786811278741517
0.0450161442303276
0.502126301647056
-0.40198310055528247
-0.3341983650395781
0.2516509911554513
-0.551390830297989
0.29498113402600296
-0.2505905117761699
-0.10457420928443478
0.22950821974449534
0.09591718852052813
0.0012904316136723001
0.3095231282804658
0.25053143681161216
-0.2576090140353193
0.021898268211708073
0.1961062029071594
-0.18715960940942825
-0.42347215460966553
-0.2797342810671395
-0.2472176764563526
-0.02770445233644305
-0.340928250624385
0.06978809634014764
0.13719173359573825
-0.4600652869873472
0.050104250215771105
-0.01078466701692787
0.48211275187753383
0.41488677483099595
0.4491066353186752
-0.25461279973396983
0.34393838150710304
0.3461469897617538
-0.06676465065208669
-0.18708655823056755
-0.4135007262332711
0.06243452348140352
0.03615347326924087
0.28994376270552064
-0.42687130954017877
-0.20122139617708973
0.05445976073277583
0.16783429448939277
-0.15142635177269717
0.3605632958713632
0.24085272782493963
0.1773775135859632
0.4517022184884913
0.041274946811135235
0.2035827819198811
0.2999038761522178
0.0858903722703017
-0.4705631150809889
0.03513289974194417
0.08526808054801169
-0.20328964755586662
0.12994490154096053
0.041363569825749416
-0.5033996466984482
-0.17455096374232162
-0.172955099884029
-0.23786095786270425
-0.19756822351855466
0.09559401088381561
-0.28221574752353007
-0.18108412701265625
-0.4038049681204265
-0.1394506335047749
-0.11191560658221299
-0.27367764999272787
0.09806166424172649
0.01323413525192699
0.3259937353638798
0.1162626636403061
-0.3005532639836022
-0.47088077037033804
-0.20994780302835123
0.031063358055109982
0.08209107228590794
0.20010854161650637
0.022126695377593278
-0.43090228868361474
-0.19701471542880775
0.17202602184228388
-0.04163828152690937
-0.3735506556974409
-0.27384833461590663
0.24635614532121242
-0.4591160188566343
0.47052530674609
0.20045299393835042
-0.0785216944924518
-0.11319127652775393
-0.04633982896469832
-0.13026700033276467
-0.28931319856351445
0.31993663477096285
-0.3799106198554953
0.12237787605822056
0.37393676384244123
0.18659879023542222
-0.2470134787732989
0.505044671048881
0.17994602914709248
-0.09000581417480592
-0.43977905112927457
0.1611190722614772
-0.07085575486141495
0.11419633182862331
-0.350624688285346
0.09080371731815061
0.22772443800763326
0.43673307349211693
0.3118344690902329
-0.06500623048356041
0.4751114849712078
-0.08024882672784292
-0.3097191579215866
0.04024756157280252
-0.08766869446825128
-0.3153182561236471
-0.31042921492505826
-0.35503336414378106
0.18672649446115158
0.20884460767244292
