1
40
6
-0.092859101931844
0.011793588728506528
0.7166584468050663
0.8197868887908968
-0.2550751265840777
-0.02636927567489391
-0.9000762351135323
-0.6009834498529475
-0.3987866470283553
-0.018563973757148165
-0.0306925950967318
-0.48428139563248673
-0.33812096442164463
0.052273919558755565
-0.07415053292117149
0.002636568833135381
0.5093937092954407
0.021780212603356476
0.03195215268558727
-0.04895898471922699
0.05830693071798143
-0.003402418528518249
0.1288279366432604
-0.08782880083595124
0.022830694261735597
0.32486062281485345
0.07588930495866088
-0.05521906624811481
-0.10948621082889501
-0.0861572931192445
0.5083310580125733
0.024063541598089117
0.6129493640506192
-0.04597396188248672
-0.4263267408203305
0.597001382587726
-0.03976575467423126
0.11439086316717768
-0.06848486296491958
0.05668586753790076
1.7415163628478134
0.06665378634943793
-0.1252044366812362
0.2515449603751899
-0.051454471374007105
-0.0291359919467453
0.37652821645453355
0.19270794719275783
0.026493774236818448
0.16429508297460393
0.20286321620506859
0.13590099454318766
0.35859874493866617
0.24772784332545988
0.485341394450022
0.4911923133149546
2.7015705564053443
1.7723840459178597
2.3820695698248473
-0.43535577236976336
-0.06264215822846009
1.5970658554171138
0.07638558044010278
3.8598774731475416
0.5457719409809438
-0.35953924997416303
-0.462730870240323
0.7353216092240232
0.16879859253125093
-0.2599713671168916
0.77357601309
-0.5768052214932032
-0.8920923284914867
0.2082528030326523
-0.05002403428842951
-0.15931326649625005
-0.10073974529527249
-0.2455162050834009
0.17521044188159077
-0.033776600925329116
-0.034636673019478016
0.1967890694553943
0.01944344912893651
-0.06456022723406932
3.121498899519947
-0.8876935747837341
-1.3594062436605325
-0.602679844076101
-0.16651004582729792
1.2830393197241772
0.7146997181877851
1.3406490534924898
2.6525319752150978
0.9416964074658625
0.004988107743669222
-0.08948950149393622
2.044932030033474
-0.05993229038340968
0.9740637958598488
-0.7776939361329939
-1.1483037728312528
0.41212652224605356
0.14135115215800353
0.13797410881952932
-0.2709972246173474
-0.04101343942478666
-0.017789385348491678
0.1600308073812211
0.16719168651114433
0.12415890480687851
0.16291057746591728
0.017450048664318953
0.32234629237498835
-0.04023520245564819
-0.1914722533663285
-0.013502314884669695
0.02247394226230124
-0.11133638079251981
-0.7677744445781004
1.2022526681508343
0.35378074936773646
0.7885187277284209
-0.45823005703780684
0.49357493826509896
0.675373870827052
1.2454696241007757
0.5417121305533122
1.7422235655500031
-0.11444340219181053
-0.35085675286324003
-0.7676790158583294
-0.5609999000820776
0.02540998533975014
-0.3179440031197212
0.1340103538348264
0.10242861005348335
0.04347157265872214
-0.1285351807797602
-0.19562745125906236
-0.15559786895467734
-0.2675735530349397
-0.04644674446298503
-0.033929606220790755
-0.1721941711918396
0.29695723558520776
0.06716244222899875
-0.125466961988401
-0.6595649822825524
0.22290232349598377
0.08806622812159214
-0.19316782618279146
0.19917356521745416
-0.020482394994304022
-1.1418141847290835
-1.3104326619288769
0.3322582985289989
-1.2370710577327737
0.42261702172039417
-0.11461270043531319
-0.82006014249069
0.11830836345210362
-0.10054741119055774
-0.07078171462828191
0.14623334032601018
-0.0663402739120504
-0.1078400492214284
0.07691246584067862
0.03625557569986884
-0.0432294056730987
0.19004499820174323
0.2701439985688864
0.12557567605506284
0.06756659964353802
0.4361610542344356
-0.07569948558323622
0.18671610508632125
-0.05803071477877063
-0.010963163971030209
0.031152241737702327
0.17403481585646383
0.19842278536231137
0.17900918402441243
-0.33107910313777705
-0.003705411194781122
0.07468597120719284
0.018179724034468586
-0.18320497663914712
-0.21350066900004505
0.020761945962243848
-0.03350941907453362
0.20061374672804122
0.04692204086411571
0.021740409499461016
0.0389962779944669
0.043100444048382223
0.15683533787489143
-0.5772068263531217
0.12421437991895957
0.14688288382808629
0.1871704537448337
-0.3641099659893482
-0.559812118629511
-0.16209894230646693
0.27584235177606187
0.00541926738819938
-0.029794392867852716
0.25692756902265557
0.341383485337686
0.2652911557288192
0.0634165616751782
-0.12138460016498623
0.2967319736869398
0.07498244110872314
-0.05476786036013199
-0.10139208004410623
-0.06944780838720875
0.028721602486714255
-0.6634280965633984
0.7526825738209063
0.48640423664031524
0.4923851517728262
0.6351199640837171
0.526575024281052
0.159412771526815
-0.24137325328118095
0.1978494341196556
0.13081341373710817
0.059403077906490916
-0.20914713461987183
-0.12316152982497094
0.14677012338699097
-0.3652145416374483
0.3895426863902472
0.09336379257303183
-0.12629544465325385
0.21081411729081018
0.0991045912128658
-0.10733139088492863
-0.10088373776102104
-0.10744345072501227
-0.08620003433257745
-0.061976309747608996
0.4434803439015414
0.2252853104389255
0.3348513768461873
0.3730974359225303
-0.4402433514853972
-0.22326379224517612
-0.08425318269434215
0.03832079981685901
-0.056871648008790965
0.16181144712159895
3.641746106697945
-0.3784480904478927
0.3707404628325056
-0.30047463685565257
-1.7088680428995113
-1.3161564263832404
-0.06883258199015757
-0.5595033515756059
0.23919025729872795
-0.039790043340607234
-0.04926378355613408
0.13634563990538837
-0.3138632010234448
-0.2517835512252138
3.5684555862696983
-2.1481719143241005
-0.5387927384257889
-0.31401778735667213
0.5118260994213185
0.17507038569227673
0.10370999615208226
0.5323411829371724
-0.17926913773362216
0.04841339632503116
-0.0530719681467862
-0.005158344230999226
0.3685736504256413
-0.24982574588137138
-0.09440905666224474
-0.8151021463216078
0.8416080725287646
0.5413039271564478
-0.4868904591608936
1.3176903974841716
0.25954299347445364
-1.6650294947731574
-0.3190002759022082
-1.7209658094005345
0.0693121694412635
0.7402839411854202
-1.3574005063967085
0.2299629461015427
0.09816560535944832
0.08807769007388884
-0.015071693839570605
-0.003882455279423389
0.14272518067720244
0.16097829090398322
0.3232053452478383
-0.5270585867663181
-0.02762851731532818
0.06609713379305127
0.10315073324921706
0.12488886344793867
0.20653460773898286
0.05702746969403933
0.4606277548158416
0.029213432656623822
-0.33634142406328893
-0.21510989658887203
0.17356524521028235
-0.002735592367110336
0.06525184102018831
-0.31589747001299506
0.15871300305513422
0.07856870427370345
-0.04864400868119023
-0.1866203551646902
-0.21004415236939175
