1
40
6
0.6306998357430657
0.06842953410703315
-0.09200674113707236
0.1336473581373141
-0.04269818398038532
0.061804304068498385
0.14838417160348483
0.08658214336240233
0.11094400909808559
0.1690772805026267
-0.26564399451396853
-0.2795936535798116
-0.11421199491773641
-0.03786682373734102
0.7299443375620568
-0.7138567310383971
-0.031447985056727225
-0.04741911979251078
0.003431456056778133
0.11747232237689224
-0.129499800047165
0.07838661580883388
-0.44907432260957225
-0.7283905833187125
0.015657275609295883
-0.006458281144692917
0.018440526227318937
-0.048133353804871035
-0.4905977097445402
-0.013459379631681779
0.008352638037142346
-0.38058146166917584
0.051410836903464714
0.3008642139864615
0.3710469522483008
0.3256618807060476
0.03528604191871571
-0.11949844276460961
0.4219410651584822
-0.7555387900599249
-0.3997634448683337
-0.04179535304754518
2.3793710827898154
1.8767026954979362
0.21925999681313044
0.046770531858946376
0.14654704756509418
0.40019500665477403
0.2019573997792961
-0.2470429877340559
0.181452594277131
0.11655466839712281
-0.42997520294567343
-0.1876733483968876
-0.1355604000020418
-0.07971861753786122
-0.34276478716061015
-0.23938015424949377
0.1712768072030478
0.09411877089944128
-0.012531787518238066
-0.13094202625942267
-0.10196022640786902
-0.0024508958344373138
0.36678644686168277
0.29329656469953613
-0.3626652720862459
-0.3076115520615915
0.20863578372572592
0.26398156941777756
0.27299643405174895
-0.3182846532767973
0.15380492310744573
0.23204625158854317
-0.003131434456181449
0.09675195120438808
0.097439629268345
-0.34212322488442976
0.11403367008393545
-0.09359567663944654
-0.1483685220110764
-0.3495985188942967
-0.6601737847996717
-0.5036714375277643
-0.3026449180739536
0.01867626202579935
0.351132255363882
-0.30113677037648456
-0.5645698675882721
-0.03317463434587605
-0.2184561863544467
-0.4095006628704791
0.304733192935551
-0.29924197025346794
-0.13609727586957077
0.03054624511556192
-0.36237996730778455
0.5838069388387817
-0.3857387083300239
0.07961916768669107
-0.29657723816513304
0.04138960264379768
-0.055537784289043726
-0.045234862345043765
0.43250932644935675
0.5731469269868417
0.18489953330537537
-0.7626727183818236
-0.5948921927793381
0.512312903381161
-0.1459193864032972
0.2717541374750156
0.8980817350114766
-0.1739179680411647
0.17321127732587766
-0.45599382159981083
0.806589677179049
0.399819195864724
-0.021573187877983582
0.8209635246498193
1.187233604100555
0.43725182676810653
0.23779513347588205
-0.41570386184427366
0.9375253230158578
-0.03789510756588248
0.18956517452022428
-0.06123695093754933
0.4000884405672552
0.23391461841344413
-0.17283879899406115
0.384185138991673
-0.12453724888387578
0.2927354862825114
-0.4468217895121642
-0.36371055424113047
0.018130083965060013
0.3160659139883668
-0.35404375706716384
0.07251808483111868
-1.540257238661039
1.3467319680414978
0.6640273487147377
0.42533757387674737
0.34627717116771806
-0.32358201037215417
0.20303481318841893
-2.5306176083741994
1.295813553865136
0.5405647803055156
0.34835333487302994
0.0890873932421053
0.4478865247053344
0.25367052128610723
0.09583951777017634
0.03679456207639183
-0.08606023727885204
0.1711338240026993
0.220963978260601
0.14949228634472828
-2.3674062060014117E-4
0.817902322109091
-0.05382050612017449
0.21213382010143947
-0.055169929609571906
0.38954420814545454
0.9293380691782513
-0.07969401612226802
-0.27008384274450303
0.14517728547574277
-0.03251980466640956
0.06296199710168685
-0.2825918655495088
-0.33382262173745175
0.4334299525466695
-0.5313356249493278
-0.16052635149784394
-0.03282853613157727
0.4491440777698225
-0.42364125847783823
-0.39927047845411373
-0.6664865351393126
0.5758914251152178
0.36180662394814167
0.167992845682437
-0.5081242228964519
-0.021418719385276258
-0.021392502320175914
0.11663844809617757
-0.19290761392068578
0.20651298583957556
-0.03250306752385577
-0.342959959679847
0.14443428941017467
0.049114669049872564
0.2089980784478543
-1.0817330006231192
0.36631578303866513
-0.9913811651135034
-0.0614074479968555
0.5891443916950388
0.8125958228049999
0.18057722126702058
3.5225320018343553
0.7008296315062283
-0.45110251346647623
-0.3995083870079154
0.47184142459993383
1.7668553360324148
0.17826911907096216
0.2832854739968423
0.041295173028838686
0.22474119506255114
-0.04298390984694126
-0.03641945088920298
0.33720729416879386
-0.008570695307243158
-0.4800735367875745
0.23085800462913045
-0.10014271716188437
-0.07020830886629306
0.10502375869816855
-0.06550298252167615
-0.010731122967220041
-0.10123726767157971
0.16889576879719692
-0.19512596558405512
0.08661561387398922
0.17649311995407171
0.07175191705000918
-0.16564863408635058
-0.15440914529723448
-0.3368106278371469
0.036222240794390306
-0.17245572949336724
0.20785912970951334
-0.1571878738450618
0.4517612710291748
1.4716148133404547
1.9097290667190532
0.06799886366410644
-0.08668691910493925
-0.20156572068564507
0.9054554079127183
-0.19600142324796435
0.427563435079891
-0.3749410988531751
-0.2974789659713642
-0.08086822260204936
0.3548849469501206
0.16205541403644605
-0.095119396257837
-0.2913710716721343
0.20427402374851591
0.16927128742890205
-0.2827077614312595
0.03777247940269327
0.3446481120777907
0.04093725360799562
0.05962785284514292
-0.6323963414933236
0.6314927363138652
-0.1035314612867795
-0.51353408742596
0.2879407767304638
-0.18853712985652876
0.38487932612577175
0.1794008737749016
0.006130196923927883
-0.24389845145824318
0.12152867564256101
0.4157322390842601
-0.9181654347131827
0.051434761839607344
-0.9875043443863224
0.20740294241228038
0.14194120931356052
0.6124656876477853
0.8230294989489473
0.6861926038751066
-1.2375353912618854
-0.08114413926263421
-0.1062035255520446
-0.04175199696136988
-0.30962965458613123
-0.2597265362709419
-0.9192096304864168
-0.5352797976515167
0.08550536981515527
-0.14488312339926712
-0.07718022742173734
-0.37193694902040375
-0.03122012623878102
0.0943834252079789
-0.2507056009980234
0.3238914254458612
0.30225423426380377
0.0697059982762583
0.1457584890225563
0.5768763255715103
-0.5507977490802206
-0.4460938399518675
-0.8849298715115762
-0.26978947318327884
0.02131687893668478
0.5074958959137614
-0.4311157044102191
0.9480999404355342
-0.32042334523754334
-0.07735686948745245
-0.17268335628855233
0.055775944930186935
0.3492533708000773
0.6957477683980212
-0.18283531074295128
-3.8229428499967084
-0.08745181145971824
-0.014232088657161404
0.4537773026557664
-0.9373729411955644
-1.4323994019550874
