1
40
6
0.015889502365694294
0.25632731188883073
0.07297536393168295
-0.13161883588267637
-0.18534080626664234
0.06789304131972693
0.3110011902714361
-0.1639984660422747
-0.21046592070998563
-0.12952514632263928
0.4833834567681783
-0.3365815299818994
-0.3834164858249357
0.2751447206729997
0.2643842114904129
-0.2927960888296471
0.10262758684840638
-0.5312431038598998
0.08221083486068788
0.6520067897932899
0.3562528201846279
-0.38507760975077937
0.05880837052643415
0.4431238583426915
-0.5115101517602536
0.15023368957153174
0.05468826195664584
-0.28657388110292614
0.18594227785426215
0.2520728928757051
0.36747596092461277
-0.24077174556894465
0.45377037641889595
-0.431151023170621
0.09096122968547474
-0.26967143769845425
0.1100966437090461
0.2123524533329839
-0.129742518187872
-0.20452516392577075
-0.705369530254701
0.395422602897738
-0.01321763086341219
0.35719039300759314
-0.2611293159432759
-0.03092556005508548
-0.39162245166267495
-0.2023201820082823
-0.4272056533076283
0.16283369831727063
0.27560534429458994
0.3239909635260113
-0.3275754587036591
-0.06574054064398578
-0.512912735391772
-0.5023707655072984
-0.3374285593316959
0.29135612086042106
-0.24972338533913285
-0.44515389714397774
-0.07386048658038291
0.04697149736446644
-0.059181499106855814
-0.18946935457770622
0.055468370925634156
0.49228359674320704
-0.3836484349632375
-0.07447237169249865
-0.012893472105597813
0.14785169642494309
0.16717531198265997
0.03827538691831009
0.3665726635591252
0.4558410782747076
-0.08437180192673213
-0.1518221784836922
0.47578518633327554
0.0377479419047993
-0.00496431287951503
-0.19346909799822143
0.4356698774725744
-0.0997852639219075
-0.46252701758414416
-0.4070803195968029
-0.19389634163665317
0.49283461074237356
-0.4892521124851763
-0.17985089832490833
0.0628423609421923
-0.40892184951513666
-0.09658020335637821
-0.18647830437966212
0.03916051687236542
-0.13225210040823973
0.15625842711431998
-0.061654208318949084
-0.1962250961401041
0.22505235082945818
0.45200183659406257
-0.012654992816932087
0.26043873733109724
0.15823204829941478
0.1821921452160424
-0.14118444456290655
0.4044900518835403
-0.16246703885214336
-0.44779997910192143
-0.23279503171793678
0.15954132891508507
-0.41756784821252924
-0.2923167045639961
-0.15199373140660724
0.4330395841742918
0.16695752843909425
0.14684543900156513
-0.09054084018709506
-0.11321177047497595
-0.49350422216001555
-0.37054996275070673
-9.86307945142572E-4
-0.356428945268192
0.2056836880023956
-0.3037029290439265
-0.26806459257622706
0.5914614560517164
0.06279237894852277
0.47883285531405184
0.47147867440115127
0.29895383430599043
0.23537969984743798
0.11179991910074366
0.5202862358776277
0.2550000194005173
0.2205223205605789
-0.4996746587194153
-0.38401321778091674
-0.1938167421414619
0.006205472154292093
-0.44394344265957614
0.08967271029706107
0.06086706449716875
-0.20576769601220687
-0.4210027894006461
-0.25659077919073886
-0.13848132047629866
0.3425372392267203
0.20289716587030077
-0.31499407565676574
-0.12120414346761499
0.035487695146047334
-0.2534162827586173
0.3326255173624553
-0.09900590848518072
-0.16757602583399342
-0.48210769905051176
-0.0570634222586883
-0.26525548039086744
0.22843921353599003
-0.2177123209821791
-0.3471564595337438
0.15624803488109232
0.04305094419015897
0.0777277137753645
0.18155675439536462
0.15463146743334208
-0.10820321240752775
0.42376858251082533
-0.4178432709498805
-0.021625474130536153
0.08129269033665326
0.11495541493602437
-0.10820920269782794
-0.1780820430180283
0.2410203419522087
0.37044323468894186
0.4096598883500001
-0.00924311360058875
0.3346098893604156
0.2849776553703679
-0.2615524573529832
-0.6728885946365535
-0.24406276957158693
-0.2559760910549164
-0.08433789668812326
0.3528940676349021
-0.29701235703549184
-0.4551451109101831
0.1558070492405821
0.2344731811290774
0.20623388853821067
-0.2333055387806605
0.10766061373431907
-0.04517913271532145
0.5211381682657351
-0.17694753215902678
-0.15388560080020922
0.15498850419262847
-0.07822273445749735
0.039304527522754616
0.377655879160373
0.21040761880731954
0.12418881394877825
-0.1555036795002406
-0.37261033903289137
-0.3435154789998991
0.08830325298246468
-0.32449408079140346
-0.348720629003549
-0.3858054601297638
-0.5410657287614008
-0.3194476426813733
0.5065435463057046
-0.026919845796772396
-0.33059513569512555
-0.3697631613366673
0.4456785672664286
-0.12372844392631566
0.2635416641368246
-0.20408437513104732
-0.24791094906240557
-0.28954209604362247
-0.38587628828829323
-0.21661166008766491
0.5011074661888169
0.013481539337941509
-0.004556616399585554
0.3913205677377919
0.2839035992951773
0.13126380246871266
-0.2625398855933506
-0.487231216545921
0.28568187733027683
-0.35955015009419766
0.158790695479844
-0.3154550715142321
0.29350114024651935
0.1541573810586447
0.488257815017458
0.3701457128958314
0.2707047521936048
-0.3842533632774874
0.04728725057785388
-0.29223009845272324
-0.3779641794334534
-0.26828907943012914
-0.4169398228717516
0.20079462426554967
0.4346320743076635
-0.28034507393558417
0.02748042265784793
-0.03974205239876806
-0.2470868926400655
0.10932071668414838
0.467407087318171
-0.1357577106707663
-0.2420338874865632
0.3913968433166017
-0.21520482347407732
-0.4133546474807477
-0.41916208670375193
0.3542341447571558
0.20597270198366918
0.41847075418779245
0.3863420998012642
-0.022930075405260326
0.0722007775726351
0.07129298633029013
0.15683943264007855
0.001237599937339794
-0.2519634823490096
0.17833371892608976
-0.08278238726476278
-0.17842235005656062
-0.1941612274386548
-0.40715086700701913
0.4841240819433897
0.4946048303297321
-0.3053996455941625
0.17967703494545736
0.13629019949859647
0.23908760626395442
0.28373481152036995
0.49469435979121695
-0.3909735174534888
0.43284724101255895
0.23128329278623608
-0.2543412021673285
0.16927797312649787
0.33111574762450324
0.42816079849620864
-0.14094000068356638
0.07060644519918031
-0.2355033529091315
0.2910044281003244
-0.031505231704175345
-0.17084884425902883
-0.22840923053305218
-0.060707639865304176
0.3402300123451295
-0.28133402991087414
0.07101374709314702
-0.41739376673367967
0.4296173056827367
0.37596860878492344
0.27864607973134664
0.34183615313080196
-0.15595811194617676
-0.3562075183485093
0.16203378995904413
0.3269412202343605
-0.24629696202494
-0.1333484488940357
0.09196680793978673
0.31974412340047237
0.1663873067247911
-0.3836754159435633
0.018468250546533675
0.3084700650051549
-0.34339714407588234
-0.29864879559962726
0.09852146049353804
