1
40
6
-0.4343365800886439
0.2500819135987614
0.08382772907322934
-0.1745937475335347
0.29619001789684296
-0.26865894750016667
-0.19166209800865147
0.23177211307328457
0.06523398577580179
-0.27503732396637676
-0.394447986473344
-0.5320427941325219
-0.5307994038341869
-0.20345941388857547
-0.10435898097524501
-0.1523326434482563
-0.3367547832970194
0.5914733083865856
-0.39876732682966926
-0.32583341411294653
-0.24277016732522
-0.19800222418707827
0.5808075966206633
-0.6029366092719269
0.291879130412999
-0.01870400416355142
-0.5252190348159518
0.07959435054701733
0.38381332715609745
0.15238600287578402
0.2924507177598806
-0.10080403147210043
0.3257128144165693
0.5542886744078793
0.2004184074601138
0.1779709410237687
-0.5831110236151636
-0.27088717642663407
-0.304864278330011
0.007118178782821441
-0.6919893371407417
-0.4652701102915661
0.19954323899976537
-0.016987852472512947
-0.003616042802702074
-0.38548801884012024
-0.384795112098746
0.12448445765516199
-0.31189123261132456
0.0849509149735627
-0.4808312926834248
-0.36138288985727574
0.32803787117290206
0.05375220067900916
-0.47252908079924044
0.46172156274444387
0.2168052217680179
-0.45820482681325675
0.14743825092505436
0.08510115023610768
0.15697249732897503
-0.06409296660923747
-0.46690945738318096
0.1723883115251365
0.08280688796379092
0.5017047589455702
0.2810740424685305
0.43819684381088797
0.4984133011594841
0.31872667122124165
-0.20392407054690387
0.41158466283305334
0.1585037751487989
0.2572023530588768
-0.3349212495352529
-0.11949375385780206
0.3113878109259803
-0.3315944592888542
-0.12771951488602964
-0.421441715457384
0.13303772180355064
0.4790279327964015
-0.2745690580380513
-0.4474298205988122
0.07120574884069468
-0.06882995331155257
0.19047034841027066
-0.241563906538102
-0.0042230361721167665
0.33346631829095474
0.06433385727966424
-0.20989493419465283
0.38341568346377436
-0.05099957658623333
0.28958653011137253
0.37188957171876136
-0.26249911267223236
0.014846678263952624
0.09318198781738184
0.4291530214732218
-0.4589695303966722
-0.1806548519061545
-0.05431081435721674
0.3262462623541829
-0.5233492492175345
0.14028967079591734
-0.36448676911472094
-0.376736750431019
-0.2515163720953665
0.025620923386100544
0.179173177798436
0.22600711729003697
-0.42999620953928
-0.35121501209439543
-0.08770911226284446
0.16686453742085477
-0.24912706389865386
0.19418174844824493
-0.1912459759822192
0.20463491685170337
0.0952160488037013
-0.02020056105642795
0.47370494750210657
-0.35395201241211655
0.2146823540474342
-0.3887775724143167
0.02053200546528361
0.046314975785466936
0.1495579221820541
0.5017675857633832
-0.14551022224816743
0.4949632519109885
-0.43330942906817443
-0.11785245475448033
0.2737306458284493
-0.024158770364891866
-0.3068000595004228
0.16057389555130497
0.47991929534322175
0.14208682336844877
-0.47269235057858877
-0.12485797154219676
0.41962458777114164
0.11564854217121712
-0.3171831380032889
-0.1028100340896298
-0.41926665922809747
-0.47332638069760075
0.045012378579496075
0.2802848014753435
0.20812812875735728
0.14286545197089404
0.3100858172956139
-0.16205142764327504
-0.27735512624648884
-0.1475002200514333
-0.12579547662695148
-0.4411705119791279
-0.37379477735938255
0.12898558156208853
0.2286223834853516
-0.08299319050478403
-0.49480592020389874
-0.3893794178482663
0.10578522860399833
-0.3477079030540347
-0.48914824885108293
-0.16637332981195743
-0.30842456132595786
0.26488714990082723
-0.22790114140667977
-0.25887968476515205
-0.35518779415860813
0.2841671345964554
0.34576276554368185
0.23334605934770505
0.0053741505874970825
-0.10593522935635119
0.4593783818005706
0.03484458888898117
0.15148202851193815
0.3147105387909371
0.3715807524387685
0.2218697396323448
0.49785999188935526
0.30732565057419636
-0.31474783061966055
-0.06596531563165814
0.21628139602023772
-0.38028394502775514
0.2821547367607256
0.10034638958000947
-0.15645993276120757
-0.31696549639663535
0.35881774671624106
-0.4340346994927376
0.4770211240976011
0.12973519181675477
-0.3305172436011248
-0.2585304569561111
0.12130692165373767
-0.25125884011751093
0.10276811116689047
-0.2394766363547981
0.3530310535710558
-0.16898973303369605
0.025079406389751584
0.4499752239969266
0.6188374992315355
0.3082338743166789
0.234196018626977
-0.43278108593596504
0.011661047003325696
0.07988902407973067
-0.11532508806390267
-0.4532860473446864
0.3410999569757977
-0.19234585417573472
0.17896926771558525
0.21993896403369578
-0.2525045523538735
-0.1986740071859614
-0.022307875582521484
-0.43186451989704566
0.30682546287710544
-0.4805685266319217
-0.21455081109732396
0.47545483886083556
0.09050311440582348
0.2557023443256869
0.11253751580072302
0.3474090893983349
0.30000799627476
-0.16574583533955828
0.23746796519030255
-0.22250743337134787
0.18969560689048412
-0.2352514668375183
-0.19182712345490957
-0.3093448815683495
-0.4168383490708545
-0.12780722229661856
-0.28968246822507054
-0.2598067878223755
0.5328548062620763
0.16465571177596128
0.2637656314255713
0.1724253847783161
-0.19938338481881857
-0.10487495181132576
0.382537587941533
-0.033136744721429405
0.3254053952281244
0.25366466529918386
-0.49964150408309715
-0.40252353185642925
-0.021139206161783088
-0.09445859587961047
0.16324832663608008
0.20095100675715488
0.19533494893144152
-0.4314116673075351
-0.3634845111360604
0.41692415983717424
0.22106710666277746
-0.17343626517443556
0.38087795118341394
0.12591755935302096
-0.39801611101136314
0.4256454964278229
-0.408705031403919
-0.43242637254252336
0.33930985844486655
-0.1984958794316272
0.07548366336756174
0.16993450661259077
-0.07707769619710694
-0.22119852151240382
-0.6453005968686331
-0.23392435037782916
0.4541101623396464
-0.0216350455485503
0.4486185875019325
0.1717279582118028
-0.2760954264309634
-0.3835629904518498
-0.21299718090412975
0.43885315316456547
0.29088221472663156
-0.49821237499389254
0.31324784755322777
0.27596471912197923
0.19661639443377302
-0.2926330117326419
-0.26738890393683484
-0.22554844467054638
0.09284885311238694
0.3316343968686948
-0.36063456734841953
0.45961594099597347
0.4509123634821736
-0.08585979398909706
-0.0966615270048042
-0.4786080278310891
0.18117906070389503
0.37128493644196164
0.1705904549160028
-0.08939273108207908
0.20852811374226993
-0.24885926029888708
0.22479039532896483
-0.4270901975522646
0.2540751595925549
0.5225819200956466
-0.1413010128676732
0.40774594457512775
-0.1453394136043259
0.15088623779867566
0.1502767800377602
-0.32392020788486064
0.12332880331514415
