1
40
6
-0.3257527564669101
0.40964648452385855
-0.43505074430955976
-0.4242996339006543
0.3769737696312313
-0.48799068061485223
0.2492664810095604
-0.2743608127344104
-0.010432606554479319
-0.3368720229593878
0.48451069315047435
0.15986304728416678
0.3067891420929736
-0.39867033714504535
-0.22617935750838605
0.20150835750222387
-0.5694242358076773
0.555001958274269
-0.33997998114681166
0.22249015967132119
0.650305899940604
-0.0761569750716218
-0.07200530131820618
-0.2486595252865545
0.17244958944494476
-0.18929867502534634
-0.1465276166327877
-0.027124780340415627
0.05177605801159177
0.04007115461703119
0.33883719682000535
0.315292387340257
-0.39909639777840206
0.13656644287025843
-0.19134254577256257
-0.35355787732203536
-0.0686538368247078
0.15833341212922175
0.3379201842185628
-0.5279415642499172
-0.39573461415911165
-0.10945876157009485
-0.2747597667361947
-0.04591541932888133
-0.391744561099354
0.011096659008771471
-0.007184436484090784
0.19222607187043889
0.2640318256240995
-0.19368311546795153
-0.23764707910006794
-0.4072722397858457
0.07144512141786585
-0.31403590993192665
-0.4367626020799611
0.379796199169264
0.1020416659278423
-0.1286065499157202
0.138171286403085
-0.33316941777841486
-0.3251580160538262
0.3582281435627153
-0.2247069144542896
-0.468931798070991
-0.14343096165551994
0.06575736032396681
-0.16170594699739807
0.4173641333012663
0.09942204854288306
0.21861044156745663
-0.43142255012065445
0.27118102181594467
0.23953311204214495
0.09115370507370944
-0.41924562399632437
-0.5305599742378163
-0.1933831408547189
-0.17035667039773514
0.09320767923020637
-0.39398255606864074
0.31864063280348043
0.25086793766129073
0.2143584860787188
0.03784068407717285
0.4800679988465661
-0.3230672638434845
-0.12398730306357875
0.22793572261294698
-0.012746022384593306
-0.005970244558254902
0.12299719301305442
-0.41639671012047086
0.4842860973801359
-0.3238587500523436
0.26338521072234744
-0.13037617379567024
0.21143898608702769
-0.033638105967630255
-0.19475464950546587
-0.4854981283673651
-0.09219670416285654
-0.3888717832682611
-0.4841934971102448
0.14606444424348392
-0.3698194068380877
0.4378475822616688
-0.3443478781684012
-0.33115997685880344
0.25223325575230765
0.4351985123136666
-0.28441459530680047
-0.27122532101675034
0.22684939916571964
-0.4021271397240653
-0.11913248933295956
-0.42953386230186463
0.16025828943255366
-0.6271281358177189
0.3198518253191094
-0.16597051848898478
-0.19231984443275638
0.04069174818477296
-0.036592049930703995
0.1127764356506887
-0.12837975073390956
-0.3802782213895633
0.1480095949934222
-0.21093424740548514
-0.3750655084650118
0.0566738257536281
0.1932926959725083
-0.06845999769102416
-0.4774748845394682
-0.11403555546067257
0.482789119441749
0.4776262012882526
0.3951101413267612
-0.3848531803761029
0.4353914796557601
-0.4464353624388774
0.20766807886490757
-0.00879001537027044
0.44824949526570534
-0.3285331739587226
0.4949010721277644
-0.08168794561921724
-0.20820774656671506
-0.1591866155684914
0.3715776177304776
0.17548029760787506
0.339561766552515
0.21485659896694112
-0.3944935089325874
0.28041051546523665
0.09137652599279975
0.20580892345064353
0.15397497844503022
0.11295924817494607
0.18306934761237467
0.4886618816486395
-0.019458964882909224
0.2278458420747379
0.3839254812285425
0.010607172988793845
-0.011562124737297784
-0.3536638933834102
-0.41773329365873807
-0.15584256948281539
0.1570122963651272
0.2844160061318072
0.3235282633723209
0.452341014740445
-0.28920601043327904
-0.07292044905494299
-0.23336495034185678
-0.4698436295930662
-0.1140706710805328
0.10565169081649854
0.03743363410589038
-0.4261478262204888
-0.43321443287176187
0.09902247618589531
-0.03611492148247096
0.23636659839826848
-0.1842904397741157
-0.06263111574623027
0.37962570150300246
-0.6615638842504412
-0.029270060125192527
-0.1811075315631913
-0.46084129893693127
-0.5020419081443481
-0.11272281601475545
-0.37119610392014873
0.0021734238332863686
-0.07656752376069462
0.1353548125277227
0.3783926886321953
0.26155481464496055
-0.004683025452659079
0.10492976689958755
-0.1174233186587147
-0.4636052050734013
0.3673430861203432
0.41538945341930755
0.06852886137684311
-0.1821542221606984
0.12806967168873265
0.18760263862759252
0.5088643324293666
0.04306334158944844
-0.1073087493027069
-0.21852748193148872
0.25101485301804627
0.11873918195121783
0.22004645011756804
0.20855898743397616
-0.0022747552764969168
-0.0014585250162199338
0.2144564105622452
-0.22902662608110566
0.20882179030534265
0.3962247593341984
0.35509473318769885
-0.14050279333938684
0.06516876501707017
0.2444363303682806
0.03739572176308787
-0.13317402909369905
0.3871952681364394
-0.15015933396259884
-0.44960929205612427
0.44446434925049144
-0.34030741322950325
0.36321438859320254
-0.4518473222679488
0.13684088466661465
0.22132260676661605
-0.22521324739028575
-0.48802438593894776
-0.2360839215970408
0.48789327999790727
-0.2737304026853753
-0.015309152411638454
-0.41740002911784724
-0.08657724746993363
0.08113786436764656
-0.13004572072788875
-0.4931451785888311
-0.2092644759339241
-0.1323787307941398
0.4629145683089562
-0.3961876114096828
0.3767369735879385
0.3413847281493077
-0.4035303451860883
0.22962248421965908
0.06576169424134659
-0.19390307784477692
0.13227618815431136
0.2526405559528565
-0.37982148936566934
-0.2777312497070366
-0.39374394193244855
-0.17218780789100946
-0.15380970603817193
-0.12185057219160436
-0.24382101617582225
-0.18723989692300794
0.0952720552062949
-0.3308833347971304
0.6019049692264563
-0.43194058142726266
0.47374050425268144
0.47560822984655804
-0.2461073008955709
0.07501574930852024
-0.005481556510854829
0.01881350553309092
0.27800918887756393
-0.32886190392626874
0.2906941533974857
0.18807978408631745
-0.4249897573706954
-0.3602140516556457
0.21276603919889314
-0.029673850865459855
0.0484843575732186
0.25780388646146984
0.43468912881328114
0.44673118634129994
0.06045107782227372
-0.07808920313627324
0.2295603411313975
-0.29938504403157246
0.24674216714702768
-0.2692824628573733
0.34582471548487626
-0.13202371454499243
-0.05320009243376654
0.3862883909199675
-0.21857686252603278
0.3138210984345382
0.48630111422104677
-0.4863454004673065
-0.46706451535405985
-0.09481500306817015
-0.23899042407199017
0.413181666412401
0.23033213818038653
0.33734790257242336
0.2250065535196945
0.4767426010083188
-0.45441835083332605
0.3072312286653211
-0.33046700293896636
-0.03674698036591176
0.2520152675697503
-0.3058915695123663
0.10052788878984635
0.3671909706857537
