1
40
6
-0.06056932003602233
-0.329364174709164
-0.248747010717433
-0.08680091972742104
-0.04369009724268231
0.12280089067464743
0.5550962764776841
-0.4844971714903471
0.17353825365573966
-0.2990355388551729
0.4934175156256133
-0.07513972295610893
-0.3553341683464607
0.26476000564679164
0.2473739217732946
0.19793588194821304
-0.2965554993526603
-0.25581909973348826
-0.4056990915992224
0.11616736039921002
-0.44049035485052096
-0.03154682975451925
-0.21371002093330085
0.024675733471879336
-0.16785104320382568
0.465097295372284
0.3388568858748468
0.5099464614255601
-0.2489853890039411
-0.26130900011736174
-0.5305038478236369
-0.09244036368410337
-0.1711198380816641
-0.22358360520317633
-0.48110071199746235
-0.1713880972964935
0.3513506054244709
0.3659937908912677
-0.06445798989520365
-0.4498810650445075
-0.8947468841938039
0.11672251280098056
-0.4072955357591276
0.3838576684229305
0.4823490719636802
-0.12427654495780958
-0.14709392230480348
-0.2431230010672111
0.0278352609981597
0.09892948512809784
0.4160974823890781
0.3610898818377493
-0.4297755264421626
0.1978254198246847
0.3851161322497654
-0.5102115321353243
-0.19264877527657948
0.26327886911625525
-0.4284924331023333
0.2209244089419498
-0.3556257532869446
0.02604847012212944
-0.021339209922873817
-0.3963192688063852
-0.23179471473995905
-0.2633290484769285
0.2804226401317186
0.4189541241177844
0.39709694018290637
-0.04792627820250901
0.1599671847765424
-0.2811183081040862
0.48275655189103567
-0.2945129492094152
0.27357239097638447
-0.19334632939747498
-0.049086795749496544
0.4336533395243564
0.227850656278985
0.05143385528850587
0.36870032263901587
0.03350191670734818
0.07251175096622467
0.3170853807739884
0.332407472466276
-0.13622648096890766
0.13386697832462754
-0.17740638327029457
-0.21166792934777556
-0.4104655966023467
0.2789806642486074
-0.3750848508123222
0.007542154878857235
-0.23658471182202506
0.3836852600942207
-0.29002295919511734
0.5365913723715864
0.306373182838393
0.2551420602616808
0.009293399203187572
0.09276809471502485
-0.32225545069392125
0.055465919617737926
-0.2098607589021549
0.30986650054761594
-0.1838370392761877
-0.2880555276585503
0.2678727363007215
0.09370524966535361
0.27932201350944247
-0.07281520192377208
-0.005235820520899543
-0.04251704867411017
-0.2901016125103499
-0.21580637420992577
-0.4178366630864326
-0.07749032680720254
-0.0761664168067233
-0.4910576805177181
0.009997221312847639
-0.49172261111332316
0.01989335907228168
0.13566934339572356
0.04378206394280392
-0.22198412903392586
0.3942328927599183
-0.38911872718399304
-0.2456668384756971
-0.027473383910145935
-0.06622895746668166
0.08846213585322651
0.5319186220267775
-0.25761089307621626
0.30816729117770153
0.40235221883453215
-0.2012260399435982
0.32681136839487046
-0.283571689856895
-0.10633478648011763
-0.2770905509306292
-0.48971918743038245
0.18575247497949982
-0.21942367191974368
-0.23679674341167173
-0.2695995864720438
0.0678220218277316
-0.01516515119690893
-0.21635757592359886
0.14076301734701782
-0.2214595262871402
-0.25030376819988354
0.13609798329125333
0.3172605944076901
0.021548607156535157
-0.377983252487873
-0.338255005385682
0.15472267544602905
-0.03247210047430945
-0.45340672081020367
0.4163948539494001
-0.08704229044531153
-0.22743483309063742
-0.371701826269996
0.1196822807876785
-0.046052208695239426
-0.4223919926583296
-0.05318252889639937
0.11016882659346364
0.4125652632596867
0.2598042080738866
0.2915909063528653
0.006337670951457812
-0.31628785745297544
0.31427795701165356
-0.4371755965315727
-0.23082879064774897
-0.2024019537693247
0.008899724759265776
0.22665859765898433
-0.2692369069282901
0.23465653344650014
0.1460745457484026
-0.4485999953443473
-0.30165535825338646
-0.3275373489965417
-0.04109060611642333
0.14799226805332075
0.05398252658842154
-0.031815745754429865
-0.3296790183221018
0.42011701085574404
-0.2328872840782398
-0.33917181203412344
0.4736649617447735
-0.1800064999219034
-0.15249939520645778
-0.4476306169201687
0.03294587670841829
0.09165223646624364
0.44784683120610647
-0.2653563659552085
0.24578336707238113
-0.33433788644633516
-0.4817252941568586
-0.4099754496215423
-0.38711166559715093
0.059728384553866525
-0.4622323638154915
0.15817838549037166
0.22882798906153062
0.4552000961593657
0.05666450631683725
-0.025744110252813385
0.32989898743325385
-0.0620001151614287
0.3484059168879693
0.02442913483961796
-0.26765166290277337
0.2779448180423942
0.45163708696189847
-0.4030184199426337
0.14581377560865091
-0.08075183682951478
-0.21854949742458776
-0.4577369918942789
-0.06082936151473549
-0.24418418928706848
0.4012088451192193
0.3213369486979175
0.045433392550051
0.2924293158268638
-0.06377715548118153
-0.12196472334344591
-0.2195803776845471
0.1071307047860674
0.03204483941955957
-0.2929566536910764
-0.03440658728230417
0.22111773890503475
0.2189116081150885
0.23063192502755378
-0.1770248652644218
0.030607270613443427
-0.08031503363029373
-0.4317756084087934
0.21388230759583485
0.4042783376105114
0.13762653175385103
0.465760158659123
-0.1134028032202479
-0.40423084169458845
-0.35736829563105177
-0.4777842969104793
0.15275271120937062
0.38501541142014617
-0.1220743073263518
0.2865605803640785
0.37512320199462085
0.11383888277147501
0.11038104322549849
-0.47438036559320396
0.16689498704168404
-0.08478678385990282
-0.4816884354865835
-0.11886943141878223
-0.33479755561551816
-0.24992684497498818
-0.15798741265730815
-0.4502538488060732
0.036618861599191255
-0.3474394678058703
-0.33700889713902676
0.23161636929467863
0.03178287000749557
0.3660527668907942
0.17731663200186362
0.3139582681015628
0.037281752926156944
-0.29779166897624054
0.23190482321400088
0.09476276991986964
-0.41247697712031245
0.28837004891851153
0.3537732686931405
0.04329738868564286
0.4472649051317203
0.21800339080993597
0.28063612293394186
-0.19166117098329696
0.29545694389337773
0.3196327924746875
-0.015892851725339944
0.2126542538565526
-0.13674458167397563
0.202104381332037
-0.22878284301137516
-0.1474900474014497
0.12505223949513306
-0.5052772878288284
-0.43844566832039905
-0.2197592956957306
-0.0466702649312789
0.33317732394909394
0.3969861248637745
0.10903270564908445
-0.11199910090301514
-0.047257153271913994
-0.2897609146801423
0.05368625633282124
-0.07232952780959506
0.04514007788527505
-0.3713866422194525
0.42564470494134765
-0.40289825092728637
-0.3759621822922857
0.4094655527303301
0.20896521998556902
0.009510955064819387
-0.3549436569484013
0.21045595076277046
0.09958412487871537
