1
40
6
-0.08001963838219976
-0.21206896050531673
0.3419858934837879
-0.506150214976488
0.2608149727186839
-0.33812224630303206
-0.46252142039409483
-0.01170931246350297
0.28837486471534757
-0.09739810640078106
-0.32292096614537796
0.3417213762859599
0.20378567648472964
-0.08135991858619807
-0.13991765499148373
-0.2209155270938006
0.14141542804028445
-0.3339872744172979
-0.4692440012825638
-0.5225640582797408
0.2807630967343975
-0.177538509551058
-0.2694958764567343
0.0019081340492450526
-0.11406542602433302
0.05989175772667178
-0.2732763530928538
0.2372068195222757
0.1720963621366361
-0.16085276780228963
-0.23884218521003772
0.027761783105821138
-0.4170881762801597
-0.5717679287102866
-0.47337180576250815
0.21646354787878985
-0.2898475554745404
-0.5603904041179942
0.18056012471944008
-0.2614153371021416
-0.8320920457403224
0.4479643741835446
0.4998189137925916
0.08381288476978861
0.37013990574955125
0.2786300523249154
0.18808640481083255
0.39289390617902126
0.3375852128614282
-0.13033791704016306
-0.0034655386552779107
0.38076824127768255
0.0390468173545808
0.25260892350432734
-0.2196661543878829
0.47819791368468073
0.25105534808338986
0.1814450104399282
0.3652633793977513
-0.31359135034865876
0.07509881620149478
-0.14257792982632822
-0.1081952056477663
-0.26611445641789006
-0.009934963800340998
0.3059153879086174
-0.1235137538584842
0.45133469595917103
0.4843471575263902
0.24785603089405686
-0.01575303415975222
0.2952019956426217
-0.39124861781473086
0.28232709521444815
0.4792051655468042
-0.28302684436771364
-0.0517210359407744
0.29507760508300446
-0.5423100856087548
0.013825930424008074
-0.35036016794480934
-0.21187576854022888
0.0595371648909699
0.3915757288334373
0.23248499945980394
0.06633974910484798
0.2423814165769613
0.22555689328114548
-0.3085122570786399
0.5871148112007767
0.3150504080539845
0.44604034746208104
0.39737692590894635
-0.15793927878197558
-0.208653712673214
-0.23924451334598834
0.07453643166127664
0.030157754149746654
-0.042710112620217094
0.4500953748244216
0.17768126733143727
0.03938246388507056
0.17596913736183603
0.06059309783302282
0.055048873646034086
-0.3124017361236809
0.240815055326267
-0.4410137362500945
-0.2155088118411038
0.2060120323731393
0.16921355407964858
-0.09909841113460778
0.24214287126211184
-0.2733458324673286
0.04293577421109942
0.04497856011933794
0.10127168377612189
0.024350440290304854
0.4854501414839068
0.06321861575248598
-0.4405080823969657
-0.31181145047414666
0.13421097501803278
0.40870229549300935
-0.38523604264622463
0.2349935761365413
0.418281288260818
-0.41069749862833155
-0.2175675227773439
0.3673220105696211
0.4667341970512934
-0.45063780329062564
0.03610580190839988
0.19108385950347812
-0.31835203783528826
0.23039953276029243
0.3428630718304983
0.28977834466251184
0.2439889905879293
-0.12228744472919825
-0.003942022461903265
-0.16004126141223113
0.27304193100150964
0.15351883434340716
0.05920713054271557
-0.3455196192050711
0.27753886421111057
0.43912071462320695
-0.038465023840601985
0.19153263040849683
-0.43496897816077884
0.17626253713535397
0.3873855349580123
-0.4754781966600044
0.2771036969422156
0.30746526413758807
0.24746635095377284
0.3913696227107069
-0.3295776259059096
-0.4708420555585944
-0.3367736619054117
-0.21270491277884906
-0.10573279285339725
-0.4309318615681708
0.16479575755761297
-0.02892703190985675
0.021338790369984418
-0.33261083010129233
0.3792571799119882
0.1584147587576618
0.31415074667403875
0.21337849265423767
-0.11564474408698194
0.3343438081356172
-0.47375810306128746
-0.28030313509984955
-0.08519236877638106
0.007584757915376982
-0.20555352283446648
0.353380517563079
0.44864541480657116
-0.3206395407690771
0.3770781681480401
0.18145510188370342
-0.41404982422545694
0.27964291302877226
-0.2306695489897378
-0.40897885591564925
-0.010186206654512187
0.3846056403055355
-0.3167963251977082
-0.04760464701808719
-0.374017342593365
-0.3492353140229705
-0.23495299291682312
0.2823532810959402
0.3191371766591186
-0.4252831020169111
-0.08572117928836226
-0.1967916077662085
-0.09249541136834223
0.28587534573706913
-0.2727053639947754
-0.2374424844867063
-0.276190002304511
-0.21933737186374938
-0.4042554230955691
0.36624009166327653
0.23374621893131486
-0.013115034644309236
0.46613220140327416
-0.0475220875377247
0.12579161703622888
-0.12654161693169547
0.2961254091459606
-0.16428157459719883
0.44130087615009755
-0.18854148305453225
-0.2239245409103679
0.03905976588276854
-0.49457565892703664
-0.31838452372514153
0.015499672956139934
0.20870962550659064
-0.052876600895232335
0.07569601845688614
-0.20341930886046167
0.13707444597990487
0.07043483531008306
0.24564356543396335
0.40555571151410763
0.199389864566523
0.15984265297500944
-0.4792601003502152
0.2926314268001445
-0.40978999761236334
0.34379438045180155
-0.3772299893702014
0.14622886621869544
0.05460330950947095
0.015889721220261086
-0.20031256443621093
-0.40063212801658216
0.2753778405914463
0.3671811928315093
-0.3931922395225686
-0.4545367069713555
-0.35937320049028637
0.09587228191482722
-0.20972007892195776
0.2004131163573681
-4.955216475184171E-4
-0.5060209429990822
-0.2024338092407967
0.4238495609016452
-0.38251419707843376
0.3751653673584202
-0.31938211945843303
0.26383170868124967
0.10525980130219033
-0.3696521758273211
0.020666085781430157
-0.27144001080131697
-0.4749530079148243
0.2472759958706561
0.42004536175328605
0.16213283735487077
0.3932046552549769
-0.417228258207271
0.5287731966912482
-0.2160106671879082
0.22101751036416833
0.05420894425780345
0.03974923263584897
0.10635315352308011
-0.1779055079010805
0.5412751835851681
-0.059631760124370645
0.12509994884276004
-0.3019070435242128
-0.22667112994318098
-0.09480433106781384
0.48064792515486526
0.5372230066753989
0.08199444934398345
0.20736117909482665
0.16208039070036623
0.354637459773581
-0.13312748135517902
-0.4673427531768967
-0.20159751523497846
0.47028345542567507
-0.05849879051657699
0.4070125766953247
-0.07361070605996724
0.0058322625305568645
-0.014814488632562866
0.26725672691172236
0.1664853718128783
0.03182741630408313
-0.03745589133282444
-0.16057306006838132
0.26960567096080473
-0.2218161169533969
0.09167812319742277
0.31225037309927056
0.5062440641329014
0.30566307726478953
0.05487801446986737
-0.27246859909399757
-0.12763230231130382
0.15884321990112224
0.10680071390948354
0.3572309418290115
0.4629923719574841
0.44498076664312436
0.4120555416502752
0.298516603317482
0.3068711911246557
0.21222501206067737
-0.2103413177620469
