1
40
6
-0.28984294166064056
-0.35675084641951316
-0.07715620696659747
-0.7410081975017657
-0.010788690437890824
-0.03427113754381308
0.29534483568576353
0.3217129703308519
-0.6335368360679382
0.04175420364705781
-0.6123124452942205
-0.04177112720784752
0.08296934050984905
0.8015682171461083
0.024276842094322616
-0.36416277510627765
-0.5144852190818446
0.051354801183283345
-0.07449120229898168
0.09845329450599803
-0.7888112048108258
-0.526910192277689
0.11621432353378065
-0.3365404245617192
0.017795131120989023
-0.06543929528234202
-0.6772984040892259
0.018575063642954113
0.3058217892788855
-0.541775084198929
0.01783709963976039
0.7444379079702931
0.07705123533035367
-0.07201700963498879
0.05831147391947515
0.013243537415117416
0.024001841688776802
0.6287612570499729
0.07691463636881833
0.05127235393158391
0.5597951733486297
1.0806868716982043
1.2204317411789742
0.49443645225713695
-1.2149171981573337
-1.4318542799776441
-1.4300396846353411
-0.6585490401569056
1.2806876026268386
3.44115662948395
-0.2928109464962763
1.167795128638027
0.1733855493315021
-0.5423061499885009
1.8738415858319504
-0.1358176999477373
-0.1234800285965787
0.046459838764078575
-0.15133345879349602
0.011515153680944181
-0.009873971221472284
-0.059198229373971345
-2.7236899188200057
-1.2627313595127352
0.5494745369733308
-0.04240131026397578
0.8238909994781571
-1.2851297047175545
-2.587743806560216
0.025138537086927933
-0.22833775649031346
0.04378528702236895
-0.06064669242484935
0.04153312851362689
-6.829611985282885E-4
-0.18176816679728725
-0.07526540886297962
0.1739583846213138
-0.02144501626517846
-0.05690197294329857
-0.03604894050851943
0.002155966763284981
0.12206412889086153
0.36406416878596487
-0.3020727106370611
-0.04119868031873671
0.5279169533839025
-0.21823937205314337
-0.05167733727632337
-0.1600316449862916
-0.10619710856316528
0.8120847805759752
1.3811796480306002
-2.2543901413702674
0.5971379327787331
0.12376363002527992
-0.33648596151755833
0.3528799893672809
5.762886205386518
0.08405575759892246
-1.1276985324427584
-0.428252458340943
-0.7991883381608882
1.1254159118711509
0.08551141481182066
-0.24122953074907075
0.04580584840917638
0.06260054426126525
0.030557151795679846
0.01981241272376146
-0.14571735969832428
0.5679046774389964
-5.690611768297156
-0.8340826425954291
-1.1310060100421517
0.5168412293820692
-1.5716229029149047
-2.2423259384623755
-0.14521986141596552
-0.06251063712118014
0.033769199221214075
-0.02622542283053397
-0.03682189116338601
-0.024641983166781085
0.02079635108758116
0.15809692375559525
0.11702932333322438
-0.007805371904021461
0.13069128496175922
0.020811266472943936
0.05092585572459804
0.09918623582232913
0.47493535236519613
5.807080737751445
0.07862321143123592
-0.44001365256327424
-0.463799008368673
-0.13500730806108785
0.1796692933507969
0.09614324825306358
-0.023532788992977983
0.013381922884496357
-8.577126751748414E-4
0.04406012188368185
0.03035161118389876
-0.028501917909989984
0.5217406442463854
-0.16394708698074376
-1.1066023652452779
0.8954621793467531
0.7873675289397973
-0.5443905228733577
-0.8007453083167785
0.3888310738195257
-0.29511409448331205
0.6650946097311962
-1.072992853454911
-0.5747639276265717
1.797498269709931
0.7600201942754412
0.0396176876285056
0.07137634347597585
-0.024326195907308265
0.12870071489087503
-0.01007946809136116
0.027959009854893295
0.10190341562806621
-0.0841901431579234
-0.10129235179180224
0.03274601410665998
-0.17835741822761475
0.037077554011042985
-0.005675958344392241
-0.08967889636641435
0.18338592503668144
-0.10661186452066014
-0.024821227479999045
0.17522953814230646
0.010719348896011305
0.025202632337901612
-0.0853258387311876
-1.4891094298018361
3.854336267432201
0.6698194152970586
0.8136073947777742
-0.6413499419961144
0.9793455476735772
2.333862415015112
0.7348842799713183
2.9738616395665827
0.06662350514397514
-0.9185849157401061
-1.6112713503916958
0.19176649654999223
3.08064816552802
0.13804258958612514
0.04150919935962077
0.012345894114621728
0.23511325698078006
0.0048395651433475375
0.08321605493472475
0.14058172089738372
1.0498604003187446
-0.5263255654609109
1.2552482203439532
0.019461288912935706
0.11840824968147336
-0.31981983989077195
-0.42183752362954396
-0.07341720116459215
-0.005826161358753928
0.038814226063935794
0.10180029713782304
-0.03186282812801833
-0.001952926320386563
0.1123429658676627
-0.09567058804792969
-0.09172223434951597
0.04178434484357721
-0.1405334238339348
0.024569273838484628
-0.010134319391570293
-0.05540553642398623
0.659666398074378
-2.6428981690574327
-0.005900788041301842
-0.6756024249599842
0.8760136925290878
-0.6312705224859646
-2.6770145793756193
-0.0031492729891425455
-0.20552970947642832
0.005605100151366599
0.06184738267425321
-0.0188250474896234
0.01331922930052733
-0.11467980769992504
1.6287130595339756
-6.059171809769579E-4
0.023878641202017215
-0.5461702862768665
-0.9171584661856604
0.4764851664790005
-1.0847128081419033
2.3129146442632713
1.7929516191259343
-0.36929993761202967
0.640742812737088
-0.6889139646642944
1.9774558786830718
2.0516384228991655
0.02876206641000862
0.16389551633596447
-0.012086507613551345
0.04228258333317525
-0.023910912962967924
-0.025846589025410496
0.09334352899533357
-0.32969348690243616
0.9048620052359074
4.666708647548224
0.8619862478889467
1.1365814872856503
-0.38697738738650667
0.8003061982956263
0.11336708964456146
0.1602341873593789
0.01009112432757668
0.14783427968012905
-0.001225251678968639
0.033805450648501364
0.16088451140183505
-0.10643050843670245
-0.129685958394342
-0.015742834270667822
-0.13212971336466253
-0.002768972439888014
-0.041698528636918815
-0.14627561489659646
0.08185534315927982
0.3053253614341763
-0.0072248864135518905
0.12294440204414889
-0.008854095806151594
0.020102398047414562
0.25180440303684914
-0.03041148454328758
-0.15080357934072156
0.0018365286414919362
0.06650761713698028
-0.007192653224111254
0.00870978017394381
-0.05370070861105215
0.056410929657964806
-0.1808958264316083
0.05159589273548504
0.025599981608498447
0.04228608191225482
0.019416882706301184
-0.09270700238072654
0.29498202517778593
-0.5573457162214916
-5.109436846443086
-0.5969905853305809
-1.1199721104907796
0.7560596745768992
-1.5122865662933227
0.06438393312643598
0.011139103788815352
-0.006902166263507173
0.18350788564174114
-0.06502896497898744
0.033128656413818285
0.07096137990035695
0.19469849814119874
0.37326134010677425
-0.012242319442605872
4.4015223421327277E-4
0.02129697295428749
0.009700459903754255
0.17276410519482455
