1
40
6
0.9781248937213477
-0.045111020123102356
0.16855962130700336
0.05481423880412254
-0.005054602911255388
0.4490640730777093
1.1852470068004096E-4
9.492705925606664E-4
-0.10381148399536852
0.25021849495413145
0.6743538539827642
0.3827838930630645
-0.04253225872833095
0.4314600429614323
-0.06019008883708566
0.02225538774184666
0.04789728927063498
0.3628751243407863
0.0455858878488245
0.06860033737849967
0.46649216945342564
0.036485091934397744
0.16090146056840712
0.2761770422213086
0.04270104545462691
-0.03426717927116085
-0.031493696994431886
-0.02683013746455552
-0.027539976291950173
0.540257521791441
0.4949931771386163
-0.06712795945531681
0.23396796925173105
-0.016868119214065714
0.0058338667406935
-0.030462195312669645
0.4712446046324686
0.3688277207872479
0.03506594771922541
0.07449630036040959
0.6810923099217122
0.0017816707936756365
4.661560736789094
-0.24489144837009308
-1.6315880874966526
-0.6478220678160159
0.2997714643494038
-0.5037789907708737
0.011159397826347317
0.15274245384768934
-0.01529935511487763
-0.0669797538512049
0.07183068929542735
0.10258242121628353
0.17534561733225842
0.23240495456396193
-1.0501105592010553
0.2624976040572535
0.06467797934456436
0.3274248500235291
0.17220884239128373
-0.23114290883811348
0.17913172998502777
-0.4392051677504077
-0.018236541877724957
0.0597693469823257
0.10902459798436256
0.09264012430276079
-0.13991704980997277
-0.07083023462637675
0.030687281400269877
-0.1376028125059758
0.004129317752597549
0.10608758654977579
0.09302621175851658
0.09547813576415082
-0.5551324494989328
-3.312011217025869
-1.3802649087461827
0.6804100973535019
0.918008149012868
-0.9109515327826585
-2.1431428875342218
-0.14911303177711954
0.11261701829355354
0.05646942261654789
0.004063114028082618
-0.07808563040909568
-0.06645344738862483
0.006398752452475889
0.07502806966177941
-0.1584166637584105
-0.07961879000464087
0.013703613284525207
0.1494026740753162
0.14348576520543369
0.06738014687333418
-0.3265230735572634
0.7389599486255709
-0.1376154422655382
-0.00419121527307968
-0.25167365501648176
-0.3038338146560764
0.08293972258646262
0.4812189388966998
0.41115276349444263
-0.41181122838598044
-0.8962668936796012
-0.7171091466832572
0.4048356911580117
-0.3156316449104331
-0.0072618635875509666
-6.075364555476497
-0.03966526511230584
2.823747669172561
0.653345197465375
0.02910464727336415
0.16380693321545328
0.04384487171609993
1.825438317603521
0.1487077047926136
0.4746425282807256
0.1397540672584061
-1.4641045115704496
-0.8283125123305972
-0.08293853652446763
0.19288198422526398
0.01852673877068925
-0.04072842873216635
0.125640367605128
0.11369795842309476
0.28805075679925257
-0.11200455181186758
5.760552013930982
0.23727920716169854
-0.3743790148812144
-0.7605264392223646
2.1260176851516044
2.290406476196634
-0.06950026366781563
0.145048584561957
0.15682019239687459
-0.11834296376731791
0.026151090184249895
0.06725871291103265
0.13949713664490887
0.09496399371389024
3.4950286079012566E-4
-0.23704823954680868
0.06507523560205755
0.008033042913782224
-0.027648818014572658
-0.05796327745278518
-0.0701417553039746
-0.36299825068439173
0.013743076695062733
-0.021447352966498388
0.043304060124558064
0.03484730134428152
-0.22914184346509084
1.1433863818126455
-0.39001213805562723
-0.3120621103156783
0.5769755149391483
-1.1296444013329323
-0.6047340068888214
-1.2250513787796076
-0.1151811012820211
-0.09509885724672014
-0.13733753148799543
0.04608054455222712
-0.016032339752514287
0.0036212391152917966
-0.09933752158996832
-0.20014849010836389
-0.0942343586686314
0.03091753667019337
0.2666133010972459
0.012525977950019225
-0.0960226365198097
0.12186947753953531
-0.6057695243840383
1.8201877719592827
1.5379368382432232
-0.11267211774435759
0.1620557494793043
0.6206251026194807
0.740875744601712
-0.1697910491338674
-0.0731635777468448
-0.1698698997690506
0.09475957863535255
0.17075329835503958
0.14169433168520795
0.14571014970461185
0.6010176420228165
-0.42981416456398175
-0.02140031806387241
-0.277117514477626
0.4302619516790565
0.3701463855940479
0.16169505959488892
-0.1405348516715129
-0.22971131202642484
0.1345060458767835
0.35657790775431414
0.5214268046841526
0.7491433056074206
0.7598266733954739
-0.2629040318467362
0.02103275979083196
0.15786358642959597
0.43036732579775283
0.12526304114866796
-0.18886636772262028
0.29816613065706865
-0.09405387844445179
0.11440949592926972
0.007155473671933215
-0.05895150643380434
0.0708409776262924
0.04723795000080655
0.10081107048437854
0.11946696295263624
0.06804749441087887
-0.058552055983026215
0.013108749843125945
0.1244355405783919
0.09025943452707617
0.18422372770109072
-0.02166319437113783
0.04922931895680858
0.07037842466020156
-0.046945682613958366
0.03473773522058262
0.038730888670247855
0.0723238882474481
0.007324535245539273
0.2208904373471057
0.0983170618619202
-0.019078497413751158
-0.09406152482118076
-0.09245172936776731
0.06285232476894081
1.9651529088253359
-2.023021281818878
-0.7570383963180523
0.23802577722682552
0.13110751761923542
-0.9512361498518127
-1.4118484099705508
0.44472870243895896
-1.8075593947180582
1.4040769082149107
1.0918302234148136
0.7966570196254856
-0.253854787122338
-0.8381211167524399
0.10173846770051365
0.290660547212392
0.16937110322377666
-0.025757855709222434
-0.04519895759718158
-0.04568308973031857
0.22388944006047562
-1.2982390268269646
1.5739884535475341
-1.79353242654872
-0.6226911200158493
-0.42118259726325397
0.329959051430668
-0.06208200268930799
-0.08092740237729606
0.2255774423239024
-0.04861928768627466
-0.009986244962434004
-0.06247465054445235
-0.07935929859217294
0.026094705400106735
-0.019779882682921558
-0.25529212796095047
-0.04248045804564305
-0.12593211629510992
0.05866263700070228
0.1345843296447302
-0.18913755127625562
0.09253026450608118
-0.07529058524408057
-0.0855977725309704
-0.10935594623384703
0.13651976934896387
0.15736408176043004
0.005372815817943439
-2.789446505443042
1.1376695944619573
0.09799336692363077
-0.5100809450500795
0.25815784764534583
0.555235248284499
2.0052138869498837
0.301277773234296
-1.5423666265622618
-0.027342994225738333
-0.6300717071043271
-0.2559737049481902
0.7154351690711728
-0.9509003577890714
0.06306607271476027
-0.19219993842469218
0.017434575535094535
0.060280507498939755
-0.0015706919480939702
-0.020412652327771123
-0.09443410073242645
-0.1809176398172024
-0.2257151096755903
-0.13989629714785493
0.043535085541156274
-0.008706275064823677
-0.03839024560556771
-0.24262335468359403
