1
40
6
1.4806693088667668
0.012256461697187615
-0.11858966158561175
0.2296367703345492
-0.01767105739142388
-0.07723735543866693
0.2880228141356415
-0.10832781246705071
-0.035339895702844515
-0.04593694614067161
0.002451990217704755
-1.3795926716297364
-0.12358220331144729
0.3398594738407706
-0.05417233602709535
-0.07155786449870716
-1.4335026984421229
0.12407941763168966
-0.6342458980257347
0.18498094660051184
-0.05325093234993339
0.011696916792499758
-0.602065947365181
1.451913641339377
-0.09200500298346224
-0.08026541368861505
0.07259314733152282
-0.5444235211640839
0.03153739971818247
-0.04480280022186605
-0.0015642687570840464
0.22729605501024042
0.061823437491181944
0.04539519250353087
0.058138813282594674
-0.6421606746266638
0.08949987287241044
0.298046006021894
0.7465341286575878
-0.0040724431052990735
-1.421335109711955
0.03893072579302368
-3.364114642323628
0.19778433419922067
0.2251776349736595
0.5413410506495537
-0.06437228180188952
1.7905872788340047
-0.22094858038857304
-0.19131999572777028
-0.03325558809824676
-0.026187703170117118
0.08017709217670968
0.36211117259777637
-0.1797581496782779
-0.04198329591531774
-0.3324159447352129
-0.09304998318047096
0.201260820074285
-0.16533921491095116
-0.03618786771300701
0.28926909391833583
-0.190318243360403
0.22629030198956807
0.050340628385388775
-0.333273951034781
-0.08350269653440685
0.47606678333383523
-0.09645737109362512
0.1531623717196584
0.16035095696635804
0.019456187668771413
0.03857308313436156
0.1427146752014137
-0.15412829009151632
0.11907641170843589
0.02738643005472171
-0.3802217987986476
0.028339132446690885
0.36679350411033096
0.11037164718327024
0.2796148883962687
0.310543396502295
-0.2674157392746059
0.5014907991330899
0.022084340681238185
-0.09964786614939358
-0.43568531277492173
0.3172018828668654
-0.17801362926331277
0.1729978047642666
0.11538347163729304
0.2789456302266014
0.004445011310209501
0.30986231592500585
-0.32731289355910986
0.20945573578283883
-0.1495114503649059
-0.09249882556195892
0.04722912532660578
0.19879266800885678
0.11533007511246514
0.014676815944052608
0.019248791642123612
0.39048493259476286
0.035959993421698616
0.08342000529878785
-0.1438893497125016
0.37304623836693696
0.12223893810348771
-0.20730736798606544
-0.15129549569645187
0.3094527657515466
0.21573263392996436
-0.20221640777755856
0.10612678076364238
-0.05345979906473702
0.061393074782293465
0.12421691646632807
1.537377774165052
-0.16219176802613328
-1.955130676467244
-1.546919676679787
0.1048531080622129
0.2315872409379499
0.0863928530498039
-0.49268747087792614
0.03666869747892428
0.1853519320363875
0.14488869550029473
0.17056164435184337
0.22773301318888328
0.3709855050974781
0.183773969221984
-0.06692740839534883
-0.37053738277734366
-0.5577224096407628
0.2823106152210114
-0.9825654892403353
0.03782543021495689
-0.13055920728380635
0.08788301068475263
0.24302723685885344
0.23117480803892945
0.08680674904290125
0.3677952229069163
-0.07742856502182822
-0.1035117340962503
0.1564116983222825
-0.21303331954480415
-0.3317478477941965
-0.16619221103377263
-0.8263810798342626
-0.05368689934877557
-2.8830811775408542
-0.017074386542444468
1.9550316065993467
2.2123203970314673
-0.09316678350933845
2.1521322977050423
0.29534861502372134
0.5300977275965224
0.004254298921955776
0.185523608573278
0.2572847762530772
-0.14112842396499378
0.18865396079553873
0.5139212277093241
1.0728719793968602
-0.49873050107872313
0.8147356311704184
1.1351247193377285
0.09222125138086135
-0.3652956820980915
-0.479027274312596
-0.2472584090488367
-0.4667834641521718
-0.12184576729011343
0.466790261173673
0.021032034260216995
0.12839912592277172
0.13754019058326664
0.1684668535788244
0.10425509647278428
0.25445390320476485
-0.1276708417486065
-0.3755279138717758
0.009353619442915606
0.2532614976864796
0.060538473859784406
0.038846001112855424
-0.3535433640885656
0.08882267334851504
0.11294680618451057
0.12009142572715863
1.1895523697474777
-0.23046316647228335
0.7297568091206303
0.44928059787629404
-0.2765211358543751
0.376507065355761
0.10212626205844194
-0.005350216402950672
3.829401306926511
0.13027373800279712
-1.6563891762164393
-1.3402741662179884
0.3311010516529888
0.13932632094371436
-0.06326719455342136
0.10187847052343725
0.14908800106332035
-0.32348965494153537
0.24537646033537472
-0.1827497829310529
0.03558012990233106
0.02203602413677018
-0.2608061561368178
-0.1717834799445855
-0.12155102570506164
-0.007958663460199147
-0.03226179575635896
0.05512251598850027
-0.3877371378727769
-0.22205253839435452
-0.2838118299852872
0.05722918452848211
0.26507459251139426
0.10841706417225512
0.2748656089725416
0.11299164205984548
0.572176054524539
-1.406061825713468
-0.2803431038469107
-0.10275722125340325
-0.1794372866391009
0.38002831307260343
-0.051354265725759636
0.18479956008184426
-0.11229465987230564
0.04911263405059955
-0.2578265036465374
-0.23724285456378189
-0.08830711720669054
0.40557758418437695
-0.07288658585318775
0.16925341131076502
-0.31153625658357886
0.526734159527084
0.24290683794275253
-0.021293800189818086
0.027134969735330562
-0.06272276440404913
0.012733134777224039
0.37122400809423106
0.1617900297041595
0.22345407733776346
0.40455003275570967
-0.10102820930724915
0.48555006469488915
0.06086995707835874
0.24877732665264563
-0.08678106835928337
-0.0010547942775265202
0.3389300026371141
-0.35912666220381173
-0.061284978641848675
-0.24231373457707606
-0.15638406814204867
0.07622046808932996
0.014494477426819563
-0.03226545733852808
-0.017597918037992016
0.27368184557568614
0.3034835084510853
0.028376224673749596
0.13597485468856893
0.046541293271992454
0.056945477596013955
-0.3582216228128263
-0.25557743560981905
-0.015908983185422602
-0.053050332668844256
-0.09877865155813341
0.3846691866540393
0.22899149566550658
-0.6217733763018143
1.9751292874130573
0.7849175501209584
-0.4579478483856269
-0.8526194546561645
0.9520319932207609
-1.1122699589017246
-0.23217013274983697
-0.0304407377471075
0.08650051865150025
0.29934863104213694
-0.31673098728051596
0.24064824719595304
0.13319096514783524
-0.2592842383491734
0.5808871419324243
0.0367628989272197
0.18183211108092903
-0.18763014734553277
0.19236855895673807
0.2799504020724617
2.213854108445544
1.4402126027071749
-0.951328310526463
-0.4007121512830181
0.33629300354009756
-0.22924682335353477
0.28868299281293297
-0.2879824917700735
-0.3624034784321585
-0.43413252732838614
-0.09380617921868492
0.28770222189344014
-0.17450237658826143
0.1119764108815728
