1
40
6
0.005653508424667023
0.042416928446002415
-0.022151611299555552
0.32306452856175316
-0.12341962641744879
0.10897761814870983
0.0774347840251637
-0.1245882172896241
-0.18261866177934258
-0.7180473954490805
0.052775750640019055
0.2462705935776489
-0.18346142622988576
-1.48251914079882
0.3110743099416115
-0.2230614204128763
0.5007185426196531
-0.16418310527076274
0.13810797093582652
-0.15807549424295392
-0.05417296472383672
-0.030052870026983956
0.025885575958738086
-0.27473257570960957
-0.2062440346626019
-0.03179201220076579
-0.0292652090926002
-0.058044701375538535
-0.07242208149243752
0.27899856925069305
-0.04409360720911048
-0.11459586594874191
0.23823328291697907
0.07420662756302718
-1.5299331533752751
-0.026697996393925963
-1.4576264724333186
-0.017892684868282157
0.3769997384624938
-0.34608039668865614
-1.3735142272781897
0.27969307118085196
-0.22522169836710734
0.11482826564802381
-0.23557430473465263
-0.19359744517296895
0.05718103240576633
-0.6930898124531641
-0.16710841240364951
0.1319837809379606
0.01951732753732631
-0.09604979565580389
0.31257454046898797
-0.31447590881415105
-0.24959538236376808
-0.1250988521536951
-0.2501781752000565
0.5694656991875666
-0.025974580666902333
-0.21042854549198942
0.21883727208341305
-0.24517401432039257
0.1177325804269648
0.2381205267676435
9.81174333944583E-4
0.31426062258076143
0.14905866272353083
-0.2248529392928581
-0.3399643524369498
-0.2243499415215413
0.27572554549871026
0.009483600683014641
-0.08881232761226027
-0.4479900506573036
-0.5189510699053113
-0.29179469136454267
-0.04800957610951688
-0.250947511061477
0.19722914918207285
0.0265387351054561
-0.001481297641130181
0.2573815066302256
-0.5398551005589493
0.3514787106661579
-0.08227694889355125
0.4588424185487383
0.3155627000405931
-0.06654254121883253
-0.1215642189194723
-0.11488959827977886
0.02334418109722787
0.34575063707657094
0.346638586105804
-0.08726447496429873
-0.14627090285760175
-0.16815892201596938
0.03580056760229769
0.36469027809565546
0.0065851727179666525
0.05360239837004544
-0.20026108351880398
-0.2969628408810677
-0.054824274364621596
-0.16230047231857497
-0.22196523629978285
0.07395673665558652
0.32362484731992547
-1.100727082876757
0.4760617170295601
-0.003189462345692866
-0.5068338533584693
0.06640517384741
-0.39288585889950245
-0.34629391810130955
-0.08943831239519266
0.23246360046321574
0.3803373508393183
-0.10147513481587324
-0.06467381470809892
0.27739821158394495
0.1009233051968757
0.40856530388658724
-0.04738459215832778
0.039006257808851856
0.08044693568453468
-0.10726690270688101
0.05604259998449554
0.5590660663628649
-0.14604890948034085
-0.02589951773277389
0.12831399476209973
0.26432899394711223
0.018416684671972584
-2.238766305939901
-0.13126313147262014
2.324437042461479
1.046307157302583
-0.06931733376905604
1.414694773651417
0.24112568707817458
-0.058875387033900814
0.4461410451231185
0.7071739227711242
0.1763402422957014
-0.1386909998798618
0.09752480874672946
-0.04196743991886139
0.36806260043011474
0.22673517219188202
-0.16560934116715811
-0.43966574005701714
0.011074436274500197
-0.18289717220056512
-0.15145286469971528
0.29106537006787725
-0.3649760547162685
0.4522233417005198
0.1713651538240014
-0.3485618648785726
-0.41091979278462915
-0.23145151526419358
0.45009303948478635
-0.07612765895218414
0.43926205459827666
0.5615927024319461
-0.23609850246986322
0.873021078236326
-0.029173931193516002
0.058192153885375415
-0.078299973216797
0.35736615607175876
0.05133873938026364
-0.13206968771639216
0.33081961995139453
-0.0995963662732315
0.2753833949032471
-0.31267073617392294
-0.29748518110620836
-0.05805955162977625
-0.21089438279080178
-0.018801489430005338
-0.22295727707903673
-0.25918406840292835
-0.33336247434668376
-0.2926200730011811
0.011233800940220785
0.06445960243392912
-0.38324228384389586
-0.13298350439848686
-0.31421613117412767
0.3657856875524834
-0.07343544651793314
-0.22493847612366555
0.051184308328521284
-0.558591041505306
-0.19435652481912874
0.14518215866090126
-0.015517532963063546
0.15469786804174573
-0.3505204409043651
0.0996424073771267
0.13660385281472923
-0.16707864681660103
0.14664909239888005
0.026251459647754185
-0.22412435610835957
-0.5433191973530681
-0.13456921117639126
-0.04339783404624959
-0.15601177505399977
0.07299281044369263
0.2532289597124733
-0.29732090722237814
-0.38632097124949893
0.24629092943759107
-0.08290654936168396
0.10395301105897391
-0.25246311712210046
0.36415524668360577
-0.10717612315446108
-0.16539454649095023
-0.38504246680016435
-0.7374003531551855
0.45981620221825426
-0.4735522113136775
-0.28562543924616596
-0.012352614048717946
0.23400681425679618
0.42991831734515573
0.2506343026134327
0.14962458107769322
-0.1467183051666452
0.0855794269955161
-0.05181721193253539
0.037285246091725045
-0.01544083282731727
-0.008626660810003808
0.3168645787231254
-0.285779583845919
0.5968527295603623
0.017266189120701606
-0.05888550150063421
0.27958738382131426
0.04162288908133557
-0.10581754671651636
-0.30342015031797953
-0.24279471641046024
0.044340940547056285
-0.16884825133750134
0.6783680540972346
-0.3869872513079502
-0.10138415051526503
0.49813467305913484
0.30151563119093683
0.4341602717751105
0.28820525819329396
-0.08456649537743995
0.6439647048348335
0.347712533039477
-0.29442065975899223
-0.00786600612103242
-0.08989130698083916
-0.05749746121372208
0.014093292167997165
-0.0164301427393729
-0.13847753999508453
-0.18477066321180843
-0.33691061943901707
0.4301396713438057
-0.15372028423588216
-0.0439426372275749
-0.11660093520405065
-0.35245591189472514
-0.2287177714072458
-0.2662542016394778
-0.040002284235023854
0.12880775685618284
-0.06429585429231287
-0.17362685991430374
-0.38214153558999076
-2.3751622646713337
0.08930635091694608
0.8289429944064054
-0.22844445111245343
-0.2188663793700701
-1.1582487848024354
-0.17521834728936528
-0.2436860448630963
-0.24285250578355508
-0.047978095583281984
0.04937033946688584
-0.09805193314035986
-0.11074549021692195
0.039623184485968126
2.6341452188023564
-0.07704363225708674
-0.09276327007065874
0.16288610010149196
0.08172168301437006
-0.5333576660185465
-0.07787527288334671
0.19387134259340894
-0.0956936445196615
-0.04790433254933228
0.2831289959310001
-0.2522528109603437
0.08442765763392303
-0.07384274590127184
-0.008716207742611493
0.29582285215029924
0.4074772632520586
0.4318925479255931
-0.16510348263152821
-0.20351875803252234
0.050235493632450036
0.07476866158915067
-0.15689808534704683
-0.6992482565874921
0.08792339444240832
0.18094894720627416
-0.08972927242276109
