1
40
6
-0.4156035422058186
0.2517704721214753
0.09524565539125142
-0.1737662126501514
0.2737256223525865
-0.2833768293875559
-0.17604133255740115
0.20240595963088423
0.07475298145010287
-0.24903166860220843
-0.3873856743428642
-0.5274662206907892
-0.5255829123083582
-0.1964808311510303
-0.11821826462154304
-0.16372137946392526
-0.3224311354651069
0.5977296892880857
-0.39419240767226577
-0.32344632381025756
-0.2506706946285296
-0.20009215010713113
0.5886300224895833
-0.6058125680684787
0.2969620169456698
-0.025982648153822497
-0.5032362316227753
0.08588069513059322
0.3921101482116452
0.16191674480586912
0.3036884770290039
-0.08945260343923697
0.32167262521025125
0.5307181851978225
0.19591636493687573
0.18294240386375477
-0.5712585961954081
-0.26737672481893743
-0.2773074468605772
0.02442912867442782
-0.6284163781624721
-0.4658673547228818
0.19093845131717516
-0.006413984574260445
8.017389613437689E-4
-0.3801024299369394
-0.3812705570387945
0.11320198741468117
-0.3122313518967868
0.0910377563474387
-0.4883090041207844
-0.36505770571628365
0.32391426631595815
0.05044821349244401
-0.46498441581175903
0.4614938039692253
0.21884448801854295
-0.46082483560718845
0.1463069358831885
0.08368347429591426
0.15593581929504818
-0.06148169763018335
-0.4665766561457926
0.1685210061010325
0.08768658640830915
0.5037537410948385
0.28378812781135554
0.44027465488091033
0.49347276463235334
0.31885833721993306
-0.19798181290334652
0.40379083188757253
0.15567885194721803
0.2533392682114183
-0.33814211471824657
-0.11177818872947728
0.31142376860731996
-0.33736134838236015
-0.12027954310938091
-0.41756680140453545
0.13698440944675822
0.4815830401402818
-0.2820639485648906
-0.44750883715600187
0.06707583685530241
-0.06350269308976196
0.19281257208166014
-0.23888559972746948
-0.002186942787927726
0.3281287585474846
0.06406332753216602
-0.20634366549450886
0.378905850740647
-0.05298019887170764
0.287678228273567
0.3709419258564025
-0.2576035035928449
0.014837904702023461
0.0949735217464394
0.42713534900630545
-0.4598424958694025
-0.18189706823720284
-0.055289501144613215
0.3284395349467271
-0.5238238343848088
0.13545010830220053
-0.3581943704646752
-0.37495670951873644
-0.24864306504912953
0.02767350185226833
0.172772886154065
0.2266438800948677
-0.4393976211938883
-0.3392403051207696
-0.08279793117838062
0.1732508301847681
-0.24430938137113337
0.1822553987237013
-0.19096706356475016
0.19222862493149329
0.11151194087119469
-0.013660913380803377
0.48317705876593264
-0.34751194205332875
0.1988476244870048
-0.3883304728971186
0.00835651564488886
0.06248440368375837
0.15596891273624092
0.5112569280010507
-0.13926772860368028
0.4793213045064382
-0.43326909049246254
-0.12267101774954889
0.27980940152774875
-0.02166239626125427
-0.3036396826707667
0.16318045190741137
0.4739166904043947
0.1421089430489556
-0.47518318096998574
-0.12166808584096583
0.4207708827769019
0.11749915672895483
-0.31565841010627604
-0.10601488697408766
-0.41889922441526134
-0.4769568637312038
0.049272885946763656
0.28209216542973164
0.21051397099675132
0.14458080436399057
0.3054093801987708
-0.16193094202784963
-0.2844263316225542
-0.13872634365347494
-0.12255041534099707
-0.4366592188435358
-0.3706538264785912
0.11997301488366872
0.2275163876898838
-0.06974984684306919
-0.5125688919079232
-0.3962981861848269
0.09716695288508102
-0.35456934615044383
-0.47220301903764933
-0.1662321380589961
-0.3181778511801563
0.27637047505798584
-0.22292989757466533
-0.2522704446659754
-0.3502123068319651
0.27214550713524804
0.3460338182737465
0.2257159887675753
0.015201432280346426
-0.10206978863928004
0.4651249664769609
0.038968048649900666
0.14172414219091137
0.31482320147381226
0.3659393934298734
0.22910777276868446
0.500807904030433
0.31096770003520124
-0.31193332301942905
-0.07299517766241274
0.21654439967747025
-0.38521961159509194
0.2882238787532807
0.10296522756432437
-0.15303833872057268
-0.314367904968668
0.3527093717779583
-0.43393843159152595
0.4904576210525991
0.11287909722929143
-0.33730818520139993
-0.26765108879954413
0.1144257381982948
-0.2340083604391328
0.10344821431809013
-0.2535530741276977
0.3715377676505033
-0.16192016845460394
0.03468619027678391
0.4581314323076315
0.6012973321474165
0.30773393546559097
0.2412668493182557
-0.44184883684985415
0.007980730548099418
0.07512431317490444
-0.11894485166395621
-0.4444023056546115
0.3411277100888931
-0.1928635111298789
0.17964427241408507
0.2201980576404867
-0.25212058966438033
-0.19839550010298637
-0.02296934994968589
-0.4321382466397048
0.2964721852393065
-0.46642280080806453
-0.20982110826101155
0.4842123396144581
0.09627872964806963
0.24221037612796562
0.11250449838925132
0.3494897094723178
0.2975151431317567
-0.16683078653873065
0.23590721699318773
-0.22361001272121375
0.1923261651583656
-0.23549015795645947
-0.18324434217772703
-0.3205447675185882
-0.42111915726172766
-0.1333008513264306
-0.2937932235075189
-0.24876729699197853
0.5324155182128738
0.1684327283675668
0.2593623687410029
0.17010991132072395
-0.20180375105594478
-0.10679480099154443
0.3872489406764058
-0.03313746622361312
0.33246610908340524
0.24575697416211403
-0.5030786961506251
-0.40725728814188494
-0.02479814286802926
-0.08555368778013571
0.1633470801053272
0.19873906779172132
0.19801438093968937
-0.4302918511953082
-0.36198024768917325
0.4183087381792316
0.21832247592500884
-0.17383272747658787
0.3883513025796774
0.11610402832394903
-0.40234303228739426
0.4204310693251734
-0.41283957000871807
-0.4229708902024022
0.3397734418872425
-0.18751814622190308
0.0606313705471374
0.16501324952678006
-0.08555318339668404
-0.2278435030546995
-0.630964568700344
-0.2342323523970914
0.45884257831690695
-0.02763380760605003
0.44621584245887486
0.16862555795342865
-0.2785894157489646
-0.37778049461025165
-0.21310126217833944
0.44285114104388307
0.2855299793006284
-0.5002831816555606
0.30990425142450234
0.2734341004363361
0.20176802528931717
-0.2923783096574814
-0.2807732134551505
-0.2081027328189516
0.09998724751556368
0.3412827135022517
-0.3540033441531527
0.44248104659174287
0.4513099470184175
-0.09188801914243691
-0.08867836847127741
-0.475407438920988
0.18556001311981826
0.37469961285633685
0.16291878171595325
-0.08905790525447389
0.2030761596502399
-0.2415064839857779
0.22833038622530086
-0.42392885261414753
0.2569805638224152
0.5153308814176419
-0.14132887018793666
0.4080697796379619
-0.1457867852103222
0.15073263779068527
0.15004934695728298
-0.3240480036714566
0.12375611394388453
