1
40
6
-0.505403824570166
-0.28844197470609356
-0.22899039053851492
-0.13807491050988635
-0.22907895349214355
0.09886554115975177
0.5631515668250452
-0.34873197363866676
0.21146465753442387
-0.3378943582677492
-0.360339097620865
-0.24395160577145078
0.08343458695572199
0.1679116729943855
-0.22142845235177414
0.3700014719570796
-0.008450649225701925
-0.10293949054558992
0.29187622893020904
-0.3896383868453848
0.6696106284024463
0.2946816228202177
0.32898591129688415
0.31314214477993635
-0.05134577934874041
0.2809423168141624
0.3332656383980561
0.25836520433258875
0.05745001521301256
-0.08263957374246005
-0.2604192366637126
-0.4520772392276678
0.3012282686313311
-0.224425418662206
0.1822090241930648
-0.14580480573673824
0.14784920210188132
0.4628310638025035
0.4564976503895605
-0.21341324318438448
-1.0619465550312588
0.02116713097011585
-0.5197547886089755
-0.28577838613020806
-0.3768672435544536
0.27372962695184155
0.018210270085303914
0.2636579053150296
0.1743613367412497
-0.31596074439303723
-0.4046427573850256
0.20877774176705483
0.29285660927031176
-0.20645264996819077
0.1574518266799376
-0.3510400161571629
-0.44187156797208105
0.06502363623069278
-0.3614773174608995
0.243087859916042
-0.021628373906502265
-0.23542889748898596
0.05889860006188094
-0.46679995615320147
-0.08415091028125404
-0.12427324499819731
0.32648284423461116
-0.1868921615535112
-0.029506734180330042
0.17996876820504704
0.40642913780898887
0.01881476623203341
0.017071853995557065
0.40800534861194127
-0.02100454384688146
0.4323788310653716
-0.34204050611420833
0.16059569561799086
-0.17714629654680009
-0.10425935133073232
-0.18878943379861887
-0.21208510039827014
0.20220961249518504
-0.15006820169180157
0.5014951149674427
-0.16334538234834012
-0.16166085595709515
0.3437357230196821
0.11261267471575984
-0.4278093040328077
0.09769062976899091
0.4104557129014355
0.07021642744692701
-0.4167784110249727
0.3331327279602625
-0.3903152062183412
-0.11046375384779256
0.24030149346570853
-0.012323596280453089
-0.17394011191389788
0.062698255641777
-0.41213614989979747
0.20588565532555297
-0.44472057227707035
-0.1380467925382077
-0.043963290053722966
0.19333621345526916
-0.4099337635197189
-0.43984264874488926
0.06965184721252861
-0.11191709067320285
0.1459167457262506
-0.5213280342381932
-0.395745472094494
0.1965282325775984
0.1659856777529074
-0.10687802473075245
0.1633648010790662
-0.021325461293328688
-0.46055444036377596
-0.13637805117192975
0.3686446822035805
0.48228835367525197
-0.23178394286155501
0.43640978008371856
0.25644219565376186
-0.4053485239842134
0.16651775352552614
-0.3739894312269657
-0.34073031386702596
-0.07687849368842756
0.1818060674923181
0.16410978352866284
0.29484861860346895
-0.15074264023954428
-0.25057541957649976
-0.036741016481242894
0.49194486635214496
-0.3610734965266541
-0.4927029379597485
0.21580759506804767
-0.09223565785117724
-0.3508866131484384
0.361767327863385
0.0054956632999815964
-0.1333516235052709
-0.05352359496859455
0.03570429498761847
-0.22995285936971438
0.24274081111166035
-0.3996845273786318
0.10596211453546263
0.17076820906008733
0.14356901227486182
-0.14080691684258087
0.07329575054391937
0.010578696522658228
0.15805126818236254
0.03661943536215354
0.32944346174997097
-0.23004019357550276
-0.13968193905693083
-0.10058970454293516
0.4450889869224338
-0.4366593647642095
-0.040170961444934636
-0.15635633939274868
-0.2872243087763506
0.2405953663913932
-0.44375205420298836
-0.4647273568341098
-0.2538163881200738
-0.15948181451027474
-0.17045065848075544
-0.5286014556618163
0.11024534160034899
-0.26259594527655833
0.27270406002938835
0.03341138986006601
0.19011308035803293
-0.07599268697645362
0.44633925229670635
-0.09546154619741126
-0.07301455327689349
-0.4928702218622901
0.08901824545121244
-0.426015032568304
-0.39815171307446673
0.004397508322586521
0.2583421106741931
-0.4489666462876209
0.13492573949632813
-0.4403030241580274
-0.3577637177295019
-0.4681105358370836
-0.26831774480797627
0.4083701734742844
-0.09562301751973945
-0.14395525731412168
-0.14662240279391148
-0.2182845762169705
-0.30511166888685
0.3714730640176921
-0.33548669305077944
0.05568026948038217
0.3344497929753905
0.18485260910631707
0.1561227056355814
-0.12590209499499586
0.013096033727848119
0.048496602393472525
-0.1051312331295413
-0.4551687487264948
-0.32811705801813457
-0.06499078319551796
0.028444063622886318
-0.4288410366772797
-0.026877279903203277
-0.4011705046211388
-0.20580117094942774
0.3044373996297333
0.236098353065463
-0.4599503339948778
0.45992288658414476
-0.41797728859930233
-0.15833663691555375
0.19351395258967105
0.49432850764206965
-0.1272203542773721
0.2266700262759158
-0.0905613347428714
0.07475267483250961
-0.36062990301710934
0.10681735682244557
0.20815991796682445
0.26270400500084407
-0.5554597791703282
-0.13824344007355624
0.059259097328458674
-0.2571653528351013
-0.47833327115427077
0.41038047016755314
0.36604532665975825
0.06721107552576298
-0.33715587791294516
-0.26564256777819045
0.3929176940256864
-0.4920966795862243
0.40590255508379675
-0.45575504623529867
-0.04854440205848793
0.1960135224039685
0.19002765566080698
0.3711386648378997
-0.23598628733410507
0.3915244401780386
0.42328975083872805
-0.039873337325001014
-0.4347415221269738
0.26286915576212605
-0.354541774901921
-0.24860161350049353
-0.01684061446610004
0.4780379185623886
0.22359681822006716
-0.07347202070289244
-0.4611584803174745
0.3076591518928855
-0.4631144801282924
-0.3878918724877673
0.3225875421728055
-0.1002505890080691
0.050134705724909134
-0.16243920461640587
-0.01620885739999662
0.4189931900976757
-0.0568514542217537
0.4445467541166775
0.16792743616372915
-0.042307261316946225
0.2928414736016658
0.3225873203837501
-0.1448329373772139
0.044497173519687225
0.05081956845337752
0.18745051783874167
-0.2078862339608529
-0.34246943322391965
-0.307878508068707
0.02122352263600479
0.3878420173594347
0.2332388879129353
-0.020987263709514734
0.15369931666167722
0.17651154404429517
-0.4110839380612289
-0.4287441379330577
-0.3335162549560492
0.12677521443273454
-0.04530631404901161
-0.10974978501023772
0.2161201389846875
-0.4535911579262429
-0.13831780418503314
0.4979010305089905
0.3296013050014332
-0.15912468178224384
-0.026981711423978337
0.3103691424601466
0.47292690394515535
-0.3296965955828666
-0.058459454847050396
-0.29767808238196314
-0.533629671043843
0.3221252434720572
0.3744477369309508
0.44502257212616103
0.39539685063925134
-0.25836988045020004
0.33347483936017847
0.16383811160403083
