1
40
6
-0.22624155774076757
0.36145425643513057
0.13429352506521997
0.08309026426873788
0.21621399468739325
0.0930171882299154
-0.406818547298712
0.0037761661467304894
-0.30869630021938976
0.4878507564146841
0.17747407120210587
0.07646312572178612
-8.691609866649175E-4
-0.4163173148700678
-0.2558451680194761
0.34449731602823136
0.07293691739822092
-0.6249058929032564
-0.011534933572151665
0.205576718968992
0.560308698538278
-0.2694498761903871
-0.17811677148901983
0.32355566833697047
0.1814924314215132
-0.13260802842736252
0.37002690380961484
0.3172169048842061
-0.07329331047002009
0.02890062359296044
0.2618086223765926
0.23448495356141155
-0.4719435577573954
-0.5152133698631798
-0.027507823262183595
-0.5884940134370396
-0.5162420215185948
0.4421218816744787
0.05067082614316758
0.526683324068663
-0.5533714619919716
-0.032962057519382824
0.4484882943282103
-0.37744588145289565
0.4624876596538173
-0.24903358864040404
-0.25519232082970006
0.1380306626403708
-0.022727726725594935
-0.19748035451634657
0.2945772752455063
-0.5354074078846504
0.24459742425366193
0.3812789998769903
0.15139673336558265
0.4302190074092535
0.10255508499902581
-0.41881237374320784
-0.4937672038116511
-0.25400066031533985
-0.07288357828937057
-0.13715818215017594
0.1426078744661945
0.3458287642626211
0.4313069423365829
-0.4748318610738683
0.3966048200344085
0.20243694255413677
0.23878518099705157
-0.08804602746143486
0.47040698941927905
0.1485562068203874
-0.17477069198382378
-0.4541605551918911
0.2575616405193275
-0.0950512790105669
-0.18911250241575533
-0.0011938317545524995
-0.33925954774315964
0.09644227365783255
0.2768343953228341
0.35230268412204807
-0.3528062498547361
0.17224417855015722
0.14514314118027022
0.2938860327865943
-0.012904273010883888
-0.17321951888709133
0.3890220468946394
0.19342264379945187
-0.053410799942005406
-0.44511080805733555
-0.17970003503785417
-0.4072455359050063
-0.29926918665266405
0.12919361475822977
-0.05563865377597313
-0.45354634891209955
0.17762203955118527
-0.16222844699814248
0.34335596614654595
0.4351510041055987
0.3019506135928209
-0.2860613891614084
-0.2938524393953234
0.5497751725829041
0.4573822471332608
0.3374465518185749
-0.17567006862808146
-0.49874279176307634
-0.29595398946232737
0.22278589784098263
0.28373014507384636
0.14318112051423595
-0.4429221015468703
0.36842553060502026
0.30365038659724775
0.08035583898555118
0.22637029067442735
-0.04276898528572716
0.24480080254907752
0.21876457220777315
-0.1890067352730951
-0.30009009712052
-0.07693558092001333
0.0947411600049311
-0.3880200124394763
-0.3431026649531402
-0.28903989973181815
-0.2201822424830594
-0.4380013780817212
-0.06718646568980582
0.1751369839635335
0.17278555180539099
0.028382752937264298
0.4880509164123755
-0.05342770922989378
-0.01843586107579673
-0.1023924807319793
0.0911453259703852
-0.4754263277912272
0.38352887260318197
0.3857446307573779
-0.07965679325597592
-0.3456762408813656
-0.10233924334001686
0.35643145086736466
0.33713220808369065
0.15009828962715654
0.2937771206221147
-0.23463051032024645
0.28861249357582025
-0.5255511996675124
0.15339531015856286
-0.5035980155012556
0.1643641026173046
0.2138187991028046
0.20812926771438173
0.04043630597556989
-0.4808020677548537
-0.24534226748874852
-0.10259378902261485
-0.03233635039864475
-0.18253699437572554
-0.13732690634948413
-0.29303743818110906
0.6906589464422969
0.37530276551860775
-0.12437469681714725
0.010859042367291566
0.3928663034617953
0.08111021308705395
0.314375421171487
-0.2578809325869372
-0.27428679179582405
0.045273240073269126
-0.20764688553980631
0.24769896624266657
-0.1617879296856161
-0.21012207109945816
-0.07856529545372207
-0.20546375239973302
0.37181512080917256
0.21280722090121176
-0.24662015800002457
0.42723373352635385
-0.3680002311745236
-0.3040185387600662
0.008331375433826697
0.2882431266601275
-0.30547983235576837
0.31765443014669087
0.3029620651271904
0.3926073870717929
0.4241295523763772
-0.30360274882016125
-0.46210828168897417
-0.049326441111178
-0.30330216672861704
0.31076041500409846
-0.11254376275457258
-0.10524530952125392
0.3884186491759244
-0.41296214270353576
0.4052094407619663
0.23866604818362114
-0.3440973035239602
0.41994432889560285
-0.20582364543451645
0.228854120784536
-0.026798644793643172
0.44209039044011633
0.4024857364230571
-0.44860599806375895
-0.4608961945184138
-0.1301676476303754
-0.25851752266689826
0.08417485511715654
0.34380742386365876
0.4664548695598346
-0.0850203095470419
0.38552944573058673
-0.06728843841351341
0.2591652014575953
0.2237949268574825
-0.12408364377963912
0.24795409648905695
0.14400651918258325
-0.3940991268363658
-0.6091167689668046
-0.06148533695539496
0.5093367623771324
-0.46973848895017095
-0.2948111331301047
0.4282601908441685
-0.4909819403417357
0.12239147125963236
0.39174327185688984
0.38412086794992484
0.09058493695913955
0.0888421019165507
0.30863391814857877
-0.02472898173765583
-0.14135997349103474
0.1981647848214929
0.4307775468635371
-0.3642975598924094
0.08096847222328889
0.10873503880526837
0.12670492445407253
-0.431714501770855
-0.14311389193374277
-0.38223752997476557
0.3333552504170274
0.2082050459507602
-0.2527796203776942
0.45157985438807335
-0.3104034646283615
-0.2611664450298525
-0.3074818241727286
0.01656067969763628
0.34319361529140907
0.41710470224279417
0.39519394951542597
-0.23169202502840117
0.3865903251002248
-0.3263521589930758
-0.3985622281947893
0.26065507694956475
0.45576728205120065
0.09788866205019499
0.35719678218536605
0.008655515401968477
0.06221755624600007
0.05805156567307263
0.13899734260078073
-0.09788237812523681
-0.08111250005183365
0.2255577498025393
-0.2705886614659251
0.28744716270282383
0.25330354511297865
0.21826243441774407
0.307564047369651
0.46014453910412884
-0.022743526232409234
-0.019436608326214227
-0.4578363812179546
0.36649977962551483
0.1486053858407052
0.2682732099187769
0.11925610214706667
0.30822451830416303
-0.38761066047489795
0.2718656895126236
0.30213014735756155
0.00203693296626758
-0.1402811467732361
-0.4777229536407059
0.2609740831870356
0.03842163051579405
-0.2248120122067558
-0.4840405470092695
0.20804594530604026
-0.4406521778619632
0.17294626492628246
-0.4220218820880966
-0.1270338535641993
-0.21969289914926132
-0.41559345788959384
-0.1793620362103547
-0.350237014579671
-0.09784020208505792
0.2856046234535275
0.15541612380506914
-0.002237669345085459
-0.12549348126131618
-0.33089797264576937
-0.42846378160358684
-0.43284614787900205
-0.19480900262104373
