1
40
6
-0.47560117046781586
-0.2174460966775897
-0.6256313145000266
-0.11546491868614887
-0.3862501958348187
-0.05501228858545504
0.4989888035969489
-0.0709132459934545
0.06692730261292451
0.5611265329960348
0.01833097965094953
-0.05772593878168581
-0.2893137348510329
-0.2782618470913617
-0.4358465411976613
0.24255859962624132
0.0476264483496669
0.41154185405303284
-0.0837092514435461
0.11766970297004233
0.26931157860094107
0.36932243416028293
0.16205665976601344
-0.19730645215195355
0.4470626770372932
-0.17276388802299575
0.25073720120049137
0.02003560323605994
0.11140402822309012
-0.05034696849723797
-0.1419832716864112
0.4556047435636407
0.3928047880563507
-0.2850507491729847
-0.0013671190767932384
0.09574659491986806
0.1388452299410498
0.0032709563795671084
-0.30402589643554695
-0.25603017263763694
-0.7598300172591891
0.24318366416535864
0.04722300945013506
-0.29667569992234877
-0.24855776929259668
-0.2400466588385244
0.45466849344628063
0.33830690751699066
-0.40779971088246125
0.43408212535712015
-0.15954389849194
0.08464353909633572
0.40754521035085306
0.45335375343343476
-0.11951615324084562
-0.4945582042014676
-0.3270963261189415
0.45622132361847323
-0.322317410031956
0.16620805291493906
-0.07022748937508479
0.1286422719679192
-0.4684056276004488
0.31066548151442497
0.33493541808224514
-0.18162815498590776
0.21749463883145123
-0.13405919495451235
0.14249931869811974
0.33664111014882636
0.4181625922850733
-0.33203160544578253
0.2725053325891263
-0.17719839580542274
0.0912868803069883
0.34852752813951704
-0.04669021062037717
0.2864763018109021
-0.003492344141097217
0.3826284918200535
-0.40684156314939385
0.07972239013230671
-0.35337449108385005
-0.34439246753710034
0.27114242922495024
-0.1325909726646934
-0.020408554220023183
-0.009785026046913958
0.470177248174359
-0.49502898059074174
-0.4604642184593091
0.47227595332157857
-0.2344280311926518
-0.3445471342252615
0.0692499174569699
-0.4074809243477428
0.1686724399035952
-0.25846114150559063
0.197393809867961
0.175620657994026
0.19901139134446652
-0.272147115334627
0.39824130065576124
0.08394222679343923
-0.19560788540257182
-0.22267844637284642
-0.18101929220244495
0.2921174346333639
0.002964411886876657
0.4514737098166513
-0.529807233341437
-0.03578646176397362
0.3209872893263061
0.38322153847365
0.3895794962873239
0.4459045102267329
0.27600985563304503
-0.32985660287640034
0.28550159156964583
-0.4148315944846214
-0.12129852536886772
-0.41392356014313236
0.18463585297974636
-0.24868934282607186
0.2921115487071211
-0.019693076782489556
-0.15375002515636593
0.40822807365835767
-0.3040399514478887
-0.2894892326331011
0.4266977931651347
-0.3634061905630129
-0.12794844475066128
-0.206332573054503
-0.3548460706021015
0.39582383171689733
0.17053661137334575
-0.18641001476268176
-0.19554849608436553
-0.45066368586272276
-0.22628558067844837
0.4869115231430807
0.06909395051439314
-0.17223945163765667
0.03996114888611231
0.23525343425673328
-0.008271535993754402
0.28864715502681304
-0.2071729146273185
-0.3437562848353385
-0.35185381248554726
-0.1352456244902954
-0.4250357490456767
0.060461495793570574
-0.36079007395877327
0.31556771531655636
-0.04292963470784282
-0.39836396762187576
0.4221830339967864
-0.22463091487463377
-0.12476883938362184
-0.37946967700710965
0.05997833347889681
-0.422102723489932
-0.06598996677354417
0.3313335761825938
-0.10832492470061589
0.34055950441949395
0.39511267617101636
0.052442115909563686
-0.36842571222434334
0.21761211375803616
-0.22338438402005947
0.07118021332426845
0.2123219425960767
0.4793138174057947
-0.19265872014182145
0.15444731509394496
-0.13819516957937045
-0.2689789682056329
0.18518188264596158
-0.12205569841779909
-0.4739816384691429
0.15226391652971002
-0.28880126231899667
-0.26686858613291525
-0.32536260164708414
-0.238687256202606
-0.2967080821827471
-0.17335920620459885
-0.42011696667890297
-0.36098000189869406
0.1957300838834044
0.1613287105505622
0.14802263346758784
0.3907523316060769
-0.08386712009757238
-0.07146600794659377
0.3249805735657952
0.2947232537061623
-0.0064150836567920845
-0.10422881959188135
0.31558171266894997
-0.3295093838682284
-0.0061825409058700745
0.18560344327562778
0.4756669729490186
0.35608453358635134
-0.3761185280400405
-0.23576066926679093
-0.44605004433560325
0.38724636999451684
-0.10248407373100915
-0.4026821471732403
-0.10194032961291523
-0.47877626943130713
-0.04774435622441856
-0.21052162600474486
0.4383490362700296
0.2580954278801199
-0.3654480738914761
-0.3461560118133803
-0.28566847466704093
-0.38415354149005815
-0.2479196925351781
0.27760747922711926
-0.33807627881770325
-0.4741498986789324
-0.19808361544927391
-0.2918635977772455
-0.02503464197320672
0.3462358523787897
0.2591623167162925
0.1763283983644148
-0.30494106810517135
-0.111026424276128
-0.17028363004197383
0.1127625240760972
-0.198068274902509
0.38920312431806914
0.30797478993285216
0.359683780786514
-0.3824392257617293
0.09101960173678396
-0.4102470103497967
0.19025213824963355
-0.056557527496333304
-0.23996692114077706
0.016303776963441693
-0.1534849753813646
0.041485827122007844
0.4347573223780648
-0.2693975052415665
-0.32275461391171706
0.2642013872790441
-0.3467905987763602
-0.13552341054471054
0.45201746784867025
0.34706923091804903
0.11186565927542287
0.23457608314503425
0.04490117266643131
-0.12340195069890164
-0.06192191519807721
-0.472076076577831
0.3229833551782621
0.14867703220128753
0.3165783063817091
-0.006327628183762746
-0.0159898715225138
-0.25388804269096965
-0.3121115893237642
-0.05475141717702989
0.17183887894753377
-0.24392283406768162
-0.021307236184405515
-0.1050808139068568
0.27008468709237077
0.25888570328932387
-0.3944772996059179
0.45442926345111717
-0.21052616148231584
-0.28570725032490535
0.47492628762452677
0.3847719335721754
-0.46062049968467417
-0.011358621093952888
0.35818220315422006
-0.25760552656165686
0.36118639156129834
0.4415345878032577
-0.035244869349949776
0.3423726295057685
-0.32784241826791527
-0.17865690915645036
-0.515459586226413
0.2970928760774237
0.4544565720181578
-0.13696057046496105
0.16587992734670556
0.2595945657505731
0.18359579136868923
0.1050606657705368
-0.17109266974236936
0.015090340723286218
0.08093240074222643
-0.2900606862192861
-0.03447933363930631
-0.2673433404856572
-0.22399002095823137
-0.19604831822858643
-0.15816503701064671
0.08183288883626712
-0.4091912170148105
0.4213320535853702
-0.41377196055470516
0.3661992071604207
-0.3819166295790844
-0.1914198093433944
-0.3779213360085078
-0.08865243806810202
