1
40
6
0.375336784712395
0.13883126865656256
-0.08888305710225664
0.36586632468294783
-0.11447779311264704
0.3242614488483363
0.1823557779096533
0.4081628673068735
-0.20918745424485963
-0.3905654462964762
0.17450555204539406
-0.04976849096527104
-0.21150632452985768
0.30901728975332854
0.4034955472033628
-0.3497730341372958
-0.4722014712426232
0.5391696935475776
-0.13393423086671635
0.10209371669673199
0.4812748117637746
-0.46232723909385104
-0.08640531134137401
0.2012809428408932
0.010158852082499835
0.022889552341461065
0.30786859962992913
-0.29660957366785123
-0.18078369357789598
0.40583777638175045
-0.11317925694108509
0.028980525423919486
0.4233117123676191
0.22329198338748205
0.505747599017401
0.10250720402020905
-0.2520565699748456
0.0016046540568329104
-0.11251223500134894
0.15344728923278134
-0.9376102290275674
0.314129114792207
0.27090251850885966
0.27041811864808074
0.3402811451989003
0.4362620656744886
-0.31802008266296566
-0.00319248025370628
0.39754969416151015
0.07419338919863457
0.24169620724079152
-0.044401476189392525
0.20505691244052293
0.11760220481493756
0.4488870980718962
-0.32923376926749
-0.4925191785828321
0.46405741844997883
-0.37623370560298913
-0.3781542337137736
-0.17328392560080683
-0.2099365150338563
0.06647010647828681
-0.4402064891919729
-0.24279111146495905
0.23878471579787697
0.36529856664553384
0.3985507043352787
-0.11884484086823106
0.45342657793631636
0.15494367211866703
0.02798147862962099
-0.3475773287501386
-0.019878967935594124
-0.4086394977491633
0.462743669725185
0.12789565881953066
-0.21744792163764623
0.12235872956985305
0.30777084318448994
0.32401866354511355
-0.46061704743354237
0.3519145494991588
0.008875682942101991
0.3889636294703926
-0.1952139879389893
0.13550619990311552
0.40310734433482504
0.3461219206874424
0.08724200635236916
-0.43642546184036357
0.46282165393624247
0.2659404019065501
-0.4234076277078723
-0.4287586257732393
0.4305939513070517
-0.2544160598135144
0.14730189280740086
-0.3340926336842926
0.4715129780573887
-0.3997869933209236
0.3542330741013642
0.0494854324279078
-0.13484134606961953
0.3202951808305865
-0.10301459005099284
0.22947333483043522
0.4817113444345444
0.5005321798130707
-0.2534231156380607
0.41098907546074676
0.13642310439612138
-0.15329164833914688
0.02056677382509043
-0.09288158018046223
-0.14055770940019244
0.37087103558761075
-0.21119266318143173
-0.14966472910234704
0.09230733935825798
-0.17460077451154155
-0.44125280011787105
-0.1635822005490146
-0.4675574608369927
-0.19761708142306483
-0.20300511411943198
0.11756976056821897
0.37456912316139646
-0.11017067928994194
-0.3438511597474673
-0.36734068515831586
-0.12719193317258037
0.05357301541322107
0.29382244568683524
0.3149136800819389
-0.0646965463101672
-0.18390284727097653
-0.2111572069001933
-0.29018248114729644
0.23121377563522913
-0.2489407769373842
-0.2964566661109488
-0.10403092516618158
-0.2087526397382908
0.1986244255925036
-0.2285008579281573
0.03978513472755679
-0.20712184975957496
-0.4598635441738996
0.34087359471894707
-0.25536113212086214
0.03166324564564124
0.4099108133127009
-0.16568169896121815
0.0013554521769927445
0.01091023695293601
0.4008888336320208
0.18564836387689032
0.4059265297696493
0.16169413589178344
-0.2564041053543889
-0.4151029578198184
-0.427707824834268
-0.2896623285894119
0.2617611890216158
-0.23789704633499348
0.013389384192905288
0.3571584543406434
0.43589788066625595
-0.2640855484573294
-0.13245646580630388
-0.4652788480701746
-0.3205013866290896
0.1388231799501965
0.4660020348654368
0.25959552595002516
0.4356299946511765
-0.25938985876429105
0.25355082548072444
0.4264196047762402
-0.3328791432789005
-0.23292666911421994
-0.1804391390716573
0.25745520078012807
0.2673223668899354
-0.10496699022724751
0.07729977899144716
-0.46883469315369775
0.17672417371558857
0.1380031797569162
0.04635337902350206
-0.16449837265365516
0.010580827331626838
0.41357881472480523
0.13784606714544664
0.10768934087743857
-0.429401952387789
0.018333550096710016
0.29990981339597605
0.38941779013786104
-0.22424013283926575
-0.05117406170887972
0.15177661359907804
0.3596433600319862
0.32501851732179743
0.48531826862595534
-0.3794139354963478
0.2519187518931391
-0.44065821743036415
-0.4236394841512756
-0.42997732690069734
-0.1013331336282919
0.046896913939548104
0.45694615705041186
0.05137176106014405
0.3258823212542343
-0.30296915265862473
-0.250536807602727
-0.14076959099716183
0.37334108225576795
0.05889317875123131
0.14736611549508177
-0.4393438436770607
-0.36828179549863904
-0.4695945406922008
0.3943731360681153
0.1672261962363375
0.3803689714781383
-0.22576994299706493
-0.10888945688795401
0.29682367005796007
-0.2868501389571391
0.16483266637490282
-0.2945495108096933
0.2666845034216844
-0.054301622390968765
0.23738156638115407
-0.37403914526943677
-0.16394261509678135
-0.4921853281418861
0.36194690730368506
-0.14262365610553887
0.003926593637850228
0.45269189962790496
0.396051288121614
0.4018655047205548
-0.05782936603587234
-0.41283608557149915
-0.4119956251678321
0.1373450534727028
-0.47963639563259475
0.17164231902426944
-0.419060445533377
-0.005408160411335225
0.06836578702077514
-0.12290344128379203
-0.4849151294474162
0.06088112264115788
-0.06637610085314469
0.2229055494225265
0.28560994922842514
0.10050499132371973
0.34973228426678005
0.137717704564015
0.19524357080027563
-0.26725520132195374
-0.1117878267856714
-0.42316889243123146
0.3319285383737554
-0.3474807106945784
0.09914440798736644
0.17078090202519172
0.2584955085089431
-0.3691168622724794
-0.493520121554152
0.4567251034597652
-0.358213354375149
0.060073969967367795
0.27640909640054756
0.04765645561241299
-0.37150826575064727
0.18156166649381947
0.01618387203259999
0.26309510260770524
-0.44363283065470804
-0.026454010604440838
0.42895406975240186
0.06571092745963693
-0.1753616517128277
-0.21383918991416453
0.09888441460560309
-0.4950628668052442
0.13954404142230697
-0.0821540262190582
-0.07244756167034257
0.1595743210445733
0.15354238360264608
-0.35972100792784417
-0.04292475761964215
-0.3852445949311453
0.03642503189192533
0.11701965139673344
-0.2740189810808139
-0.467827643006747
-0.0016173933224295008
0.3392010805057484
-0.09145646741324655
-0.026198489967102362
0.09173559393576457
-0.3058774252430777
-0.43321620198979605
0.4561725050745199
0.09415938401070131
0.07555893469348429
0.4438876833823447
0.39814146197592115
0.1464670455653649
-0.24387886810351808
-0.32999414983867303
0.24804191868689554
0.18791612992918205
