1
40
6
0.10015552041771904
0.008025657256252306
0.0551238203368558
-0.416258762341951
0.03568063396151265
0.08566655201325653
-0.025085122872910225
-0.16118716271662784
-0.024371081730812143
0.28743624322312133
0.40016095178475264
-0.1743560926009858
0.24012358795396177
-0.5243856291368161
-0.18230170103720192
-0.021554979038405402
0.22599904897232942
-0.10575862067053822
-0.07820838821460788
-0.2969746414281686
-0.19682843064433211
-0.14071340596013646
0.29452655053457427
-0.5504290919467265
-0.17093277325110634
0.22248973487762613
0.5999249755599836
0.23870771000022312
0.0024380087613597896
-0.04603865599268813
0.3272562260469065
0.3020518514590416
-0.2574124873980695
-0.21274583783097922
-0.08414547951908373
0.46945666699652927
0.5938908236051574
0.24210373814292646
-0.10921033429828529
0.22515576818148886
-0.5054611112874212
0.05109850952413174
-0.05130463041488363
-0.4360513423273381
0.27994510607085543
-0.4735379522691596
0.5156625599891378
0.06638487658616987
0.1882892270684842
0.2135670374739739
-0.008674105513836192
-0.11677548647964225
0.4262041139674877
-0.3178861605250824
0.35515081951173505
-0.45822083109562567
0.06930411761912832
-0.449666358685772
-0.36038515746585476
0.29335923371072586
-0.5004012583323592
-0.2566918650098275
-0.40264680741183595
-0.07457177655837853
0.0914142373363486
-0.13510937080274385
0.3079962033276695
0.23574131341856758
0.5315604645809178
-0.3225711179028802
0.20207735361356655
-0.012679971003582558
-0.05167088450448746
-0.15997960301388864
-0.18922950449594975
0.3345124644111123
-0.038393322231541654
0.3577799179447269
-0.18967282509543987
-0.25332071627474095
-0.4346141797864176
-0.24704465896466946
0.37144926425468167
0.1209556856504502
0.3179040465905924
0.19124647003153686
-0.3860571651771667
-0.007641980311257358
0.0035679008401669084
0.3131864017982693
0.27110080389798824
-0.24790450424076874
0.46799058430362633
0.028019861165596356
0.2869149641524386
-0.36940433932327066
0.368363956098392
-0.04527710070291303
0.2527248866170884
-0.1837298343157604
0.1841845881236648
-0.11724636171187337
0.1511367584937117
-0.3636471956971194
-0.3906252353692997
0.4486153722127331
-0.09485813488381631
0.01053304663289882
0.31252825660481076
0.4140501851449278
0.19678785063223683
-0.4398590674133791
-0.07997982699840318
0.37204805738398095
-0.08797499786337942
0.07509111197282381
-0.37475004298059555
-0.07548158543717977
-0.08883315127234909
-0.11573430555725504
-0.1320186816753675
-0.4334694643004599
-0.3207141729467938
0.08784266248673461
-0.03394667902450272
0.33461417072185623
0.4594308738556344
-0.04707731629640926
0.24040768821601
0.028736206736915054
0.3241115201252499
-0.4015989535749351
-0.202364702196294
0.4605264829100074
-0.17222459500301068
0.1985455217387062
-0.005418230061555364
-0.19272312575232892
0.485484726168142
0.34985040233126596
-0.3849698501069717
-0.22840828262155063
0.16135716743964246
0.06930977099794101
0.4255184804981136
0.2980235849404918
0.0764263923644896
-0.27262370053442375
-0.12155818871947094
-0.04893494024317098
-0.4354304527297704
-0.4099438220673463
-0.22464211957137517
0.2342598386363238
0.30303566477187593
-0.19195974945690833
-0.2850672678896603
-0.1401552612262515
0.5122347761995839
0.25898280797443657
-0.33380210490651896
-0.3416642591477719
-0.46029025317422134
-0.3264723653803447
-0.25858918072956516
-0.42962551868357884
0.3247091979823556
0.4729410844608328
-0.40841726992987254
-0.33555848142069056
-0.47921396244487696
-0.3813628172980479
-0.08190446116855413
0.17476396210679168
0.19782491693018683
0.20087879431357772
0.060811842681526285
0.0405816675901801
-0.19279794485796062
-0.18007714377222497
0.5147143522889251
0.3336338953450406
0.012961662430008257
0.05686653017862881
0.07947803511627792
0.45788589780277245
-0.09027772790647454
-0.06760416955468465
-0.0028924112121207807
-0.3118834013217412
-0.3794414846754494
-0.06979180173120056
0.3164636592928811
0.431509133409055
0.02804825647527141
-0.3352249362441116
0.18554362007704225
0.45576188282748853
-0.36071403903899385
0.44749942140247945
-0.34870905350916054
0.21041652400810298
-0.34287570332799133
0.018485200633876108
-0.1650018954125285
-0.3447982396123325
0.43365064675439846
0.005355625485712599
0.5558237557487151
-0.2722105052142728
0.36665527767988676
0.08834405110888154
-0.3388132656351227
0.1286414280446028
-0.005665185977095628
-0.16562302989552422
-0.1353373265531915
-0.44087942810094966
0.09743383838540097
-0.47823514378010934
-0.04934916521508473
0.14075290934531634
-0.4150914495642285
0.2622612913190053
-0.3095555425287437
-0.005947224995782826
-0.09510578847154645
0.4310124429251085
0.28336472514589095
-0.44635734986631764
-0.134042331028051
0.04480595118991768
-0.3588508818837548
-0.07149941813316223
-0.20499199409262805
-0.1633289995372781
0.14188943075142188
0.3396700602096591
0.001628313350541409
-0.01889117518422685
0.18261085252612633
-0.24231707401401828
-0.36160096023551236
0.0857338132214532
0.48217613935789777
0.08952908093064896
-0.3323254528867859
0.40750731779956284
0.03608932957300994
-0.1571611008697286
0.2058495166359784
0.4798095857685855
-0.35398421294041477
-0.33484661575146446
0.009478054176839801
-0.02155155166217951
0.008803088608237081
-0.1968338148360393
0.16741618597857508
-0.16035859637795485
0.09025303009149195
-0.00378286679533107
0.32197983339367303
-0.06725779323523297
0.14413742087430614
0.27053655701790297
0.5073244409141804
0.16427678890438396
-0.31508629799686433
0.23299140242941457
0.42950146370534675
0.516546579188346
-0.3611895169080724
0.3853926685229
0.00409644467400371
0.42580385131276915
9.271041928072003E-4
-0.337163811738514
0.11943855652133932
-0.2812074849559547
0.4616904235093487
-0.3638093388916779
0.4338468310351494
-0.17406546167060763
0.3903603802476735
-0.3484587331998267
-0.14592056977731838
0.23497442568049995
-0.31777849958501886
0.252494414323041
0.39611241954316984
-0.4164424893283022
-0.5424822189556755
-0.28971066687152214
-0.30078428897806564
-0.08703981744154518
-0.2165752029312854
-0.2321589626186967
-0.02144313823819669
-0.3202898654806665
-0.4701033472311765
0.3736505825499958
-0.2394003904768546
0.4542438780657537
-0.36694572200358444
-0.09238410226390763
-0.38532144889409564
-0.0999951635659753
-0.26266192979377245
0.38357807942671757
-0.3302281973907932
-0.01565410463903178
0.3010662198901258
-0.2810711652452723
-0.2505289163868743
-0.07310837681817965
-0.0939696745529223
0.2620870423065904
-0.3625449575364634
-0.04072570876324778
-0.10273231251673781
