1
40
6
0.03915744303949243
0.03528857166876831
0.06318799972293669
0.27829395917909616
-0.06272033417029177
0.13594236997562056
0.08539491200760967
-0.10088868033105125
-0.16867314751537993
-0.6810843189223251
0.021418167161762633
0.22376933611279426
-0.1299284441475785
-1.5979843293049614
0.2824227015485549
-0.17741721647835906
0.44454608113126265
-0.24925362175349883
0.10996106703341432
-0.1667449627477124
-0.03080447288242806
0.05212834210358217
0.05317358928697759
-0.20519285934050108
-0.1336234019974052
0.0383957033071676
-0.0893493796521001
-0.054277179755982945
-0.03576554160537001
0.28551533436091986
-0.0953455612006185
-0.11518354235626935
0.2289866865108135
0.0911926901301202
-1.5089642165807382
-0.014048552403254842
-1.6446792911626091
-0.050914432215311965
0.3515429126387073
-0.34563945721518874
-1.3812668939851578
0.2783449138289654
-0.22656943473169602
0.11662496561050047
-0.23580331326799725
-0.19490180078191147
0.05728358635662051
-0.6936258301175435
-0.17071264954381107
0.1290236592901335
0.02293735571239654
-0.09876762356350646
0.3083868791069979
-0.3161708896676439
-0.24965458641658148
-0.12601585509495605
-0.250934128377419
0.5711393584317578
-0.025672442992599003
-0.2115542855852746
0.21927742895689833
-0.24574477048710489
0.09373227051160288
0.21744225995121727
0.02467164568926598
0.29800090415539154
0.12283679074663437
-0.23419310094105575
-0.3425179981457728
-0.21813813428997508
0.28171916226063204
0.003509730507045366
-0.08337514294584873
-0.4409443262452012
-0.516939392966764
-0.2915706433865678
-0.05541896368880318
-0.2571744690487294
0.20494009318105638
0.020779468376302998
-0.012231498902112212
0.2538352879333055
-0.539572361620623
0.345610431788831
-0.0875891961993274
0.46515498174437375
0.31159949296652556
-0.07314209201719521
-0.12327685303412303
-0.1154386631164442
0.032281913477932654
0.3537260747109163
0.33817952710557914
-0.08084523988229962
-0.13630673436825885
-0.16549322994118787
0.03686647183636635
0.37961336446093413
0.017978242031314994
0.04003325132476629
-0.1890599015052769
-0.2795649314000558
-0.04906090667435419
-0.16222719974494326
-0.168726046616985
0.10892812566169054
0.2758163554104652
-1.063630989337292
0.5452794228168837
0.028391119311982255
-0.5234307257416204
0.0636133461932757
-0.3954001584996459
-0.3439849707218325
-0.09142824270676454
0.22977958579537647
0.3795751478270335
-0.101831535951574
-0.08403153256421715
0.2614745411767147
0.11955355185207542
0.39491041234227503
-0.07001688062323352
0.030964509670349447
0.08031750347680225
-0.09439906617391045
0.0668201306360216
0.5474537111527492
-0.13694508429989768
-0.012018211061285373
0.13300762555321202
0.26520265711070773
0.033777635258799454
-2.204798473717049
-0.17052600657729086
2.3569802222196925
1.1176213038346725
-0.07865999601127538
1.435804313032645
0.22143883701904812
-0.0769208592708609
0.46862468110382777
0.6908425416847291
0.15041811383566306
-0.14707696976386325
0.0968801371505613
-0.026209004737534947
0.38219794871890406
0.21175190451483555
-0.15347939406721597
-0.4209529689969391
0.01677433600409761
-0.18171842520676015
-0.19076904099750366
0.2620092420722795
-0.3319028939708649
0.4299194194585609
0.13240386644010804
-0.3624812952055907
-0.41480183320408587
-0.21623273779049232
0.46066289236900226
-0.09206212114961573
0.44936482953550255
0.5785181228820686
-0.22855904372047695
0.8698752954954535
-0.03962372440632651
0.04990256109995135
-0.06875332371189745
0.35003413575231146
0.03864699385476126
-0.13715755910159805
0.331357235857946
-0.08855695301632108
0.2855345981079487
-0.3246576900513778
-0.288373833497387
-0.04276773159210877
-0.20628262656705415
-0.018434169246286252
-0.2197977132350146
-0.25662512016636996
-0.3364198987560709
-0.29000328996668123
0.015065847843925683
0.06633080159539263
-0.3836648105302156
-0.13332223295409443
-0.314586704057315
0.3668749923444706
-0.0725320850842253
-0.2251473876071754
0.05206597286955833
-0.5593836950553589
-0.19722497192310312
0.14269333112931168
-0.012335152112062993
0.15291021372427993
-0.3544191959781085
0.09879928620798765
0.13633169004714765
-0.1504270466804583
0.1631532003716981
0.009645318586801165
-0.21201980416778582
-0.5234855943972706
-0.12897716029248077
-0.04053027282730421
-0.14221140743421243
0.08486441092987691
0.24054308775155758
-0.2876675331622413
-0.37102671486371736
0.25257756349978683
-0.08215442722620109
0.10396613097000293
-0.25276929339780885
0.36480086196227735
-0.10590880328930402
-0.16532408313698735
-0.38414693447461623
-0.738273693880448
0.4639073039971505
-0.4688844401193847
-0.2904906034491812
-0.010167320456117205
0.23946190194601516
0.43041765158342044
0.25186098544465163
0.15439955440257264
-0.14278865769123075
0.08095754518464462
-0.048311119627055484
0.04299278714757463
-0.013596962553393556
-0.008499598796661238
0.3214757222270863
-0.2820741938684856
0.5927594297202835
0.020951332880705224
-0.052546812043751535
0.28212151059024465
0.0413552030855173
-0.1240104258546045
-0.3196645279731758
-0.224555710805987
0.03175389405352725
-0.1899565669183313
0.6699615512740053
-0.38826900404506937
-0.09597444845098806
0.5024490294636351
0.2953898681819266
0.4372059046427569
0.29435555048272666
-0.08305287294121394
0.644108453444852
0.3574718446058438
-0.2863103736351531
-0.01730522334622386
-0.08304127467617423
-0.04624315645658426
0.01757266814175699
-0.015965204330588824
-0.15721665555276287
-0.1991718180767298
-0.3187462818056885
0.4159872266721432
-0.1743772446600693
-0.050209439039997125
-0.11635853561490477
-0.35945960639576385
-0.23427731050500827
-0.2593072706467975
-0.04504615940913245
0.12028168466134116
-0.06648633437221234
-0.17401053719035525
-0.3737444409258694
-2.376912233887307
0.0608753629169521
0.903571127625056
-0.16188274794055726
-0.2056049841555973
-1.1959123564365322
-0.1738539323223723
-0.2425268758091986
-0.24431122318428547
-0.04669550198521606
0.05106491178609246
-0.09722576262544547
-0.11095119136326385
0.11719265811901955
2.65915692220437
-0.16539889575568228
0.034152291299385115
0.3283382789639727
0.14560751195622337
-0.6106929510990495
-0.07551798861733872
0.19594318119833803
-0.09850283695479803
-0.04671492198971684
0.2858071019171192
-0.25187571822933974
0.08484549253175129
-0.09824862570986127
-0.028961727587953363
0.32114889317888873
0.38643890363057976
0.39787292217311476
-0.1768142712503523
-0.20450776074307228
0.07661267204544245
0.0950602212317465
-0.18295473740589752
-0.677755907907845
0.12084426622889916
0.1919877496718372
-0.09220428368638162
