1
40
6
-0.5062607568136248
-0.2898543292750188
-0.2114151084967083
-0.12524825680622728
-0.2470214771393918
0.082224129548871
0.5655539574644889
-0.35238149550950587
0.22037676305875364
-0.33666518823248404
-0.35831519564102626
-0.24406254683076292
0.08612394900660103
0.17032904361994783
-0.2232931330999223
0.3569300231781253
-0.012505780010726972
-0.10053509433238891
0.2800882127617114
-0.39457093168800733
0.6830760079246926
0.2914318120300332
0.3247476491304077
0.3301261948612155
-0.06050460273322745
0.2910055407465217
0.3399740543534057
0.2714667291923128
0.05224499625349289
-0.0695269068297077
-0.25289009894505277
-0.47238462720802415
0.3142777065197413
-0.2244980841692035
0.1750365196757565
-0.13831117066840956
0.1340965543075434
0.4602203780474073
0.4729298456300364
-0.21822938497582345
-1.1301569893654684
0.019372538668491642
-0.5082353342221491
-0.29499319514716865
-0.37916730212614014
0.2688932056049209
0.017184047803686223
0.27956621170379387
0.17334949129120458
-0.3092941218036697
-0.4099324436055841
0.20753612502515437
0.2897194766255182
-0.2070738646970563
0.16671339664512408
-0.3520596869040075
-0.43738598483934993
0.06154315929153073
-0.36353458653616266
0.2413626211866072
-0.022032763092292053
-0.2289318954004008
0.05848413342878331
-0.4638465350333019
-0.08651664669031754
-0.12492255642928263
0.32540345160352213
-0.1872990897571841
-0.02534073343849873
0.1790304966083402
0.4113681184740106
0.014846021787398725
0.016076467912388877
0.40462645767821853
-0.02132969659698479
0.43951633406334817
-0.34192685649818577
0.15865654396013756
-0.17576035765868647
-0.10410364497272385
-0.1881349668397114
-0.21213122227023487
0.199470622317452
-0.14832611879119925
0.48800852075663353
-0.15284392314340872
-0.15986241275011878
0.3493944753523971
0.11376799477154914
-0.44573710459180926
0.0968391820457599
0.41836100786565306
0.06429217903412837
-0.41795036798727137
0.32878305678427167
-0.3910038748722403
-0.09943295516305023
0.24106593746179372
-0.0172748857420895
-0.16999668453275918
0.06340123323191545
-0.4095300493192332
0.2062214883672182
-0.45160841671813734
-0.13913765341436865
-0.03628131861204818
0.18752106360322165
-0.4112541362715438
-0.4433479270061965
0.06917410953885753
-0.10152311999739438
0.1448498017200316
-0.5127702079127643
-0.4025857481429008
0.19505667358403742
0.16212671503787868
-0.10794735310987012
0.17519686420105504
-0.02207124607698981
-0.45491327089367
-0.14067981190896067
0.3676170006701396
0.47961074482719285
-0.2324321817369962
0.4442546286223987
0.2566791933485692
-0.40752342918479945
0.16814614874350356
-0.373649609748736
-0.33980852589871274
-0.0766289516800162
0.17901535031996568
0.1646989301604491
0.2909705517572276
-0.14766369476714955
-0.24993754648559735
-0.03511335937667926
0.4922552477013497
-0.3663844952968884
-0.493466708990438
0.22070645118324947
-0.09603091793090304
-0.3518173431460689
0.3595466343860337
0.00498096789091536
-0.1264462477732179
-0.05223885100643856
0.02778337347772686
-0.2238111095043648
0.24449266205992756
-0.3967354327401832
0.10663082430275847
0.15956208300916822
0.1435389244054135
-0.14054988818416858
0.07309798292552178
0.01053807707379086
0.1579307882780586
0.0366008253731288
0.329796666900769
-0.23036805789826856
-0.1374424408100493
-0.10241519613887584
0.4447635076709489
-0.43791078174763404
-0.04041363592865965
-0.15319110942931585
-0.2871220144487579
0.2348104346569311
-0.43975088365733916
-0.464613011852244
-0.2516159045105382
-0.15954007263110942
-0.1787907396118911
-0.5291856166883352
0.12014873908497399
-0.2701236763972
0.2708401005775447
0.028939283973506858
0.18871651844394347
-0.062694603952233
0.44743337316358983
-0.11083842189913072
-0.06058188532822855
-0.48888665804094783
0.09577934684374564
-0.4231852155201368
-0.41966653799357906
0.005141146127773513
0.2522203090337573
-0.4440751888063492
0.13582365659436527
-0.4376979006781775
-0.35749949862007974
-0.47676413918576976
-0.26758671150262775
0.40074455417316623
-0.09001602235855564
-0.14301929115956777
-0.1435631195589486
-0.21784167253229675
-0.3156718351444439
0.37143731982177114
-0.34233303174474045
0.060405124509469735
0.33474613566950906
0.1875166591214745
0.15624970365168442
-0.1355410833281463
0.013063997753001424
0.04978019948553928
-0.1060203464981444
-0.4553140260775876
-0.3286510710939195
-0.06511513537347002
0.030177939171418335
-0.42809466356662856
-0.033524821920024206
-0.39579553671551865
-0.2036411687650765
0.30725695418979415
0.23680108785062653
-0.46892359798629046
0.4605544966186291
-0.42523428376014927
-0.15279723057816014
0.194558772512124
0.49748400806025417
-0.1267227235279001
0.21641716387931167
-0.09019595157165446
0.068207910590261
-0.3555210795889044
0.10796302372995321
0.21077944522535164
0.2632056397728379
-0.5639429791131211
-0.1380544738979816
0.05814596800659691
-0.2562488793711782
-0.47817137642808594
0.4109192250854711
0.3661626983939352
0.06562406191363823
-0.33763380209320865
-0.26413075906415867
0.3916973430843489
-0.4925726282094641
0.4054462243337037
-0.45596424674829106
-0.04641511610178058
0.19532713060334322
0.19525003724012968
0.3669260075172952
-0.23673960933523197
0.3893706178435925
0.4232706469561723
-0.03238767948982328
-0.4353861023440518
0.2719834775429649
-0.36152718077312357
-0.2486437044359018
-0.02071111373663252
0.4762240208428762
0.23668828137799264
-0.07183934013120066
-0.46722007535846305
0.3123157222274351
-0.4613879571189817
-0.38482037824733123
0.32216062080947816
-0.10862273562981693
0.049638547141155995
-0.15724265565733705
-0.020057850701799534
0.41815791024992227
-0.05913247626324117
0.4440879381352404
0.17510724306252415
-0.041791217745219045
0.2885437364939974
0.32608942512072353
-0.14419105586868694
0.046479192075669896
0.051365200995550815
0.181536713923544
-0.20813841205987857
-0.3389588861356546
-0.31055478491777716
0.020341771963726538
0.3863398909608614
0.23284222937490853
-0.016221449822128326
0.15393009386973466
0.17338492690598456
-0.40893485188387363
-0.4285225545181854
-0.3323544624907587
0.12718688362315414
-0.04961329124263351
-0.10857583447643972
0.20550324213658838
-0.4451312805379718
-0.1366754787378898
0.5029834196562014
0.33056345671390197
-0.17339307646475685
-0.025027419535368623
0.299810240909048
0.48076410939585984
-0.3272093250390901
-0.053807593296178534
-0.2962273227941443
-0.5482262802918704
0.32126769759280244
0.37882955385525235
0.44120120547237207
0.3943248117890628
-0.2600873946774725
0.3329328053053455
0.17015606451904222
