1
40
6
0.1255131977239567
0.07289383291015863
0.26403816646715683
0.11235447396170088
-0.4641042894347531
0.4250531807474357
-0.13000664246883079
0.5305117567818719
-0.0779317618220209
0.40088256259308663
0.44920433194522297
0.2564824208625021
0.22482730508450102
-0.20947725723643204
-0.13643519544370458
-0.06258671387380414
-0.0490974375018579
0.1302890852240168
-0.5914619370168276
-0.06198909860286008
-0.49840930753808727
-0.04606764709407366
0.02126359055500561
0.6588341379139921
0.47436137320797417
-0.018616789047805338
-0.026122775464248633
-0.4072132487931018
-0.09285604009754078
-0.2623377946647327
-0.20745940531639237
0.24877493965455338
-0.11753890576601542
0.2289705646585799
-0.05860742823999096
-0.2734932118275187
-0.3956969727529387
-0.026513253069438386
0.07423835619350816
0.2047179569966953
-0.6412142069081417
0.4745595506955563
0.263023964568639
0.19496773133511702
-0.2904829976143764
-0.2062807674994099
0.18589332497505667
-0.31440994702333336
0.29927044959109045
-0.2537385930056939
-0.23604408115185452
0.02765700978328005
0.44207513892260447
-0.38614278010036646
0.2711064400114831
-0.5019702104106927
0.1524178598185059
0.46420561035531843
0.28562404280748693
-0.35862004115138174
0.13645864026202117
0.3250088689198141
-0.03135579559808436
0.20089149494701075
-0.020741062717496653
-0.0715393358584011
0.44649426843646556
0.44295020757518505
-0.28535709946583376
-0.42486814725735994
-0.40886808039613937
0.3509029429459558
-0.13359249561041123
0.22858941012937484
-0.4461025945648792
0.592074349418237
0.0802095274083106
0.41338332116472565
0.4256739136463071
-0.4107480911117623
-0.05069074996019958
0.1579984708792677
-0.42574881482736765
0.18926570349076585
0.33438916481956976
-0.12962688858417032
-0.18168909561480234
0.4206347941891055
-0.25651158259453066
0.005912433999203271
-0.23963773413519018
0.03389775681234973
0.16231892628452008
0.3141587069181526
-0.44177801802713007
0.003053084090053602
-0.42278658938493363
-0.17804120808242369
-0.390817572326667
-0.041272814869563454
-0.2228020129894421
0.30609818754214485
-0.08255959948305086
0.2967594885346326
0.0823474558319826
-0.169974222398217
-0.27132834235492836
-0.04539248869557855
0.176905345316498
-0.08038383789834867
-0.17754505147831856
-0.22926763600565536
0.4473800962567834
-0.3800535664839366
-0.39797792037960983
0.007249115689468258
0.2778155860501785
-0.4667965972599757
0.09317549050745567
0.08217627425277142
-0.18414195808947686
-0.048868863639769555
-0.37033900771736344
0.27416783797098704
0.07321810316735569
0.296467185987128
-0.15388597792353292
-0.11626623811235265
-0.25307678611453344
0.12095025373939766
0.08660379978840226
-0.3676216159850896
-0.13333604481027816
0.3644738972604491
-0.19310473170811054
0.12934488590633164
-0.1409618704771508
0.0831874389201199
0.09628176773293397
0.18727615256957
0.14581002645659435
-0.024687093192996237
0.028094031279876905
-0.1606661414724787
-0.24863259744811164
-0.16644569957984623
0.22412655636312284
0.19810210156802438
-0.3291988095509456
-0.31489264605842965
0.26087993444154944
0.03898273787190976
0.12318652132606306
0.2897371024724692
-0.3150332472488882
-0.4762263167611367
-0.20264101774448787
0.45124206723842397
0.37517347043113913
-0.20025033113922844
-0.1187311531239623
-0.2970108333948751
-0.5018526546771644
-0.13675474634474216
0.12766279907062225
0.07998449254478443
-0.012275932033642363
-0.19884348101642083
0.36183322096488557
-0.4513650859788924
-0.40034457878574026
-0.10800138063795144
0.2850655700122124
0.4917954601345125
0.3431956106964251
-0.47637460218112393
-0.14219389945785446
-0.4223433763281396
0.1167891778625595
0.40935753734956654
0.06627099477590138
-0.28184639731331385
-0.08889566913244266
0.10977381356150624
0.1035557724638887
0.09623075503676742
0.43437938770349865
0.486007827351868
0.3710781977619117
-0.3365832563034929
0.41917426947026304
-0.31201047106219665
0.1889904003782901
-0.2180913316695843
0.28171891166113044
-0.1289338527849136
-0.2828476472834675
-0.4058058348075107
0.30178769523926946
0.2575282369473748
-0.23563112470033992
-0.039813280185528016
-0.4603651194455256
0.4041095369731123
-0.2732739250416653
-0.07928889462473397
0.4973105782203172
-0.14666246900939858
-0.6224096807422412
-0.2454153690427346
-0.503157402718253
0.29132432513709416
-0.3242060859222139
0.47511352562399495
-0.27617040596755055
0.23585778979235816
-0.29305955009025986
-0.1208278544334507
-0.007353411871101295
0.29277080799546523
-0.221153022330823
-0.029968380101695648
0.13733040020766574
-0.268936538543766
-0.4340786201049501
-0.026821693588507313
-0.45402600682236
0.27059125029936315
0.27908641743800294
-0.4475515572135986
-0.17357859080789634
0.5209374755055807
-0.2577718607151826
0.20094817110777066
0.4537141214030504
-0.10425020346144652
-0.08896143766609131
0.3030564551604637
-0.35620129924307514
-0.013822606730689798
-0.4126411279764652
-0.030857268931211726
-0.3152913458646917
-0.41699418380301545
-0.21098587722436485
0.13594356724515338
0.0023261578662092087
-0.056632080431338536
0.33315345620589265
0.06651206684177548
0.20092858436380953
0.33022243634237886
-0.41945307341244686
0.13969996291715164
-0.28512252133420407
0.03261841838288632
0.21820781975170958
0.17052942548178118
-0.16692337230739757
-0.3229490794560192
-0.2933308452565824
-0.029021545567235605
0.3933373383972953
-0.3387742914153109
-0.12510359598558496
0.447693481509793
-0.24132864621569533
-0.22108797732661792
-0.23478254487707462
-0.01072434225822296
-0.20939539237190144
0.36037904200164855
-0.16003951098676913
0.07761070735570458
0.3089603328384071
0.4013149695497216
0.3495335144967153
-0.3853872844109388
-0.45590411196475555
0.23718736454658385
-0.30716499792600815
0.4243323655820635
-0.28582579983186235
0.14164149937804932
0.21267316687933444
-0.20949696187604572
0.12512857921431775
0.2060949165495555
-0.2744271565097431
-0.057444968106174235
-0.16180198969215845
-0.12433852895888436
-0.142969643794652
-0.34748785258310894
0.4705655055791486
0.36038547381087954
-0.0613363491002137
0.15699283131861305
-0.3743357802930148
-0.3462283802602574
-0.418054190159546
-0.02861866279931767
-0.3135588774125968
-0.08684738964932642
0.2823783577562174
-0.12669126216432194
-0.46792148545987394
0.37787657003383407
0.4003461497473359
-0.435151390386028
-0.390369858807038
-0.17997895668247982
-0.44422094796122474
-0.34984611889277056
0.35655885916663665
0.04399887517498347
-0.3667142424034898
-0.23745995869841785
-0.23742608692758646
0.008765407984335956
0.389936251341589
