1
40
6
0.009607888198908617
-0.4867476938112398
0.44730145276680794
-0.3077648451322727
-0.022539285764941446
-0.30002127148023117
0.256856263134209
-0.22084719018879945
-0.07623193577119915
-0.31773496959050307
0.31036315086394906
0.0376531029509356
0.03617822798600368
-0.1770048295688611
-0.2858446909757545
-0.38409106855117764
-0.3446517741992152
-0.2161942008507401
0.11068106838146854
0.46289231191150015
-0.666043694458667
-0.2627800108924465
0.0998234934431391
-0.2554015989164503
0.20686815577382714
0.2980357943727158
-0.08432875102479397
-0.1566325407134307
-0.2680815528976103
0.4165174873205096
-0.22361877071377154
-0.292843810168754
0.03224984673843972
-0.35218513575845667
0.06343155039248398
0.1299931923792113
-0.3912103190352394
-0.35269003619227535
-0.001665489010064087
-0.27116211943149565
-0.6539171578986771
0.2743410788611199
-0.07983154735350452
0.07711359617590176
-0.32725286586919744
0.47855861533548943
-0.10016063078681399
0.36534955611641295
-0.3175588557700373
0.3503996310956247
-0.11477503791644937
0.4389250741721601
0.12183094823349254
-0.2584635997885789
0.14247279363928278
0.23717918359271956
0.17978473954634855
-0.4912913592198466
-0.5365332926483973
-0.2513500573823663
0.01148548156981004
-0.557450501515026
-0.1867610016470574
-0.4156406213990154
-0.02191287580774563
-0.36290969745526813
-0.09153972029114996
-0.09194308998056477
0.27289301636648977
0.243802120254871
0.3198058044491381
0.03335236805590265
0.27792476726795
0.4387879534552504
0.13467408758814914
0.08015799203731708
-0.4904664785649284
-0.06368366139062083
0.2634099934330171
-0.31808196763267366
-0.41127029364795104
-0.1409743958736237
0.5911011830855665
-0.3074403994247306
0.2210144619672747
-0.2088753589027467
-0.32328233797819406
0.22321233181025288
-0.09830168844746816
-0.46119424874285436
0.3762277969819579
-0.47518016020834997
-0.07498332654641131
0.16271238103633834
0.29129367861131483
-0.27688382722957794
0.07828229076697321
0.3515451004796206
0.3090921915229743
-0.09450100039824062
-0.48158961769710196
0.30293517642964257
-0.19709984228586555
-0.030257501512963945
-0.4665169973596762
-0.10145381034089708
0.47002987468039464
0.1430788369985382
-0.217019985896722
0.39344344100069856
-0.049546597790766166
0.018495281749539263
0.1958100736648692
-0.3514165684002335
-0.09968425978926096
0.39982519147373263
-0.4112572810387982
0.042486791050399944
0.19900854206575533
0.31773628062695086
-0.10264880068934326
0.1944621630260592
-0.2337769361636582
-0.025239153255882888
-0.27395878080155056
0.23883634125749387
-0.4240617424426834
-0.2761381316882374
-0.1651493866336579
-0.08156830062131541
-0.002397096331294315
-0.0949091729286717
0.43975204200568985
0.23997871595930825
0.1416867732384033
-0.21926689447428363
-0.08163268687938878
0.15054150900348182
-0.19547272260349108
-0.23022445484781914
0.5054901638136262
-0.43717657465848325
-0.16194789394193584
0.3345486252961522
-0.41645213480975585
0.2741785286697994
0.25700260574363204
-0.3342254288284089
-0.174634711135065
0.18184105738539677
0.2193952739274025
0.38341547803277864
-0.05322054433454851
-0.24772073641269063
0.4151798956532295
-0.1217417825789969
-0.04264710622308495
0.020044555890524757
-0.2945681186044717
0.3605167233038019
0.2758843768050707
-0.4150981939630884
-0.3929898770278346
-0.01723551396005568
0.26628943661956644
0.1908822468480438
0.5289648673379677
-0.11320444549032162
-0.44044208948179653
0.3469134214038636
0.09703542822717665
0.3982428921665909
-0.19012852531537658
-0.11686270004932786
-0.2270198558624139
0.3686910691781458
0.18727329074975627
-0.3499548997911054
-0.07363360892548869
-0.3242217990604018
-0.5165432112162776
-0.34058554828396886
-0.11377874761319937
-0.02950566475270129
0.21793606477669777
0.42868786637318196
-0.10230113331982436
0.6304873907775518
0.20430905822121243
-0.48247744602519016
-0.12710548025968632
0.09009645307635632
-0.14561906366995703
0.5158471446886157
0.011732099120991681
0.008038492523154476
-0.21585816261390364
0.17976500177488836
0.19011248158753824
-0.5041062228440195
-0.28894292816585404
0.1557923773773787
0.38177560258499654
-0.2976460542733616
-0.030435820998717993
0.46646970939136934
-0.17649502203285036
-0.04006441269035361
-0.1165494779737838
-0.24706362555967323
-0.06434345392925996
0.05302149062165221
0.4141474710592742
0.2614697312168655
0.4921435405397257
-0.25746012822630376
-0.3213996397223245
0.17147918154948286
0.36935270844711904
-0.39133424911260883
0.04203049895291329
-0.09655798740377346
-0.5495727340979356
0.1685132806377209
0.3197080351055756
0.43590246381158065
-0.06195756008397326
0.1999243641456894
-0.016491036257283553
0.02771679594839395
0.1911468230435573
-0.4686750988184417
0.21378335958328085
-0.04524490154352074
0.548290078191437
-0.3996265034150905
-0.37033699819434823
0.43044042438122926
0.28162163509671967
0.46723742963606973
0.09624795653249966
0.27004443488809143
0.3545152452064116
-0.10487607572353802
-0.2388360015951107
-0.4938203078409519
-0.3336069995457259
0.2555090527401759
-0.2683674868540571
-0.3356211703756724
-0.47485927421941254
0.0035703014146878367
-0.21701063780410085
0.4529594462634499
-0.34764355298809774
-0.29334772604130516
0.2126062343429079
-0.16181217026103317
-0.15547972814517982
0.3470374414190211
-0.05072828830846318
-0.22314457916815467
0.29309446872754225
0.40742296054016675
-0.38283615284021755
0.012168057408900439
0.017496982660061337
0.016400530418399388
0.38146574036872893
0.00906828253344913
0.10838122812316668
-0.4771493901359991
-0.4485668817515509
-0.4102760496090734
-0.3696243074929045
0.1990150440447669
-0.12785077439836667
-0.2971486591424638
0.1574868578813225
-0.32641908001022735
-0.4409437046320645
0.026242243687445682
0.07532889638853357
0.3330217899237413
-0.24443709207669145
0.0857085996542312
0.18483247325063473
0.17107854644279813
-0.051959507576560926
-0.32519573067132795
-0.27558801663266425
0.07201801092571844
-0.25075044736889157
-0.013705311125166585
-0.018760468996119186
0.43709044661156093
-0.11608454825030355
0.4370271812798227
0.1765453170538111
-0.0931821896841049
-0.2648043495493917
-0.1584418661965583
-0.13588584539536094
0.13897740144062481
-0.1031361074334821
-0.36425756042126317
0.3514339807137393
0.20257036302401416
-0.3286451680066935
0.33039914888011834
-0.2700407922821058
0.3586051128141328
-0.4047546226742956
0.4711646159397621
0.17700960965194523
0.3882981208415563
-0.14138946822241233
-0.13811809146331622
-0.29057658570780565
-0.3579100894251103
0.3236577307276254
