1
40
6
0.19028666540291492
0.21087609486678707
0.5093255752654297
-0.17079588700578766
0.05485059006177148
0.46478892746466866
-0.11545635920216368
0.1153222300347094
-0.41781073618583336
0.5366360271865694
-0.43659841854697434
0.39350887369167714
0.16881616992498993
0.27796220295857027
-0.15006808496818816
0.13520108608589507
0.5502054806794879
0.2520156075185328
-0.09862084900110563
0.2527062257422251
-0.31555125790671334
0.18266053712732408
0.02903426566803736
-0.29872736261805194
-0.09408904222847987
0.12662378910974068
-0.48678419247843013
0.3208784838164424
0.6545837626827848
-0.1135756042703941
-0.022217425741938617
-0.06587773051792306
-0.3901306243422273
-0.3127509706837487
0.05277232941652026
0.436059133413958
0.5979091276096739
-0.13996568057448383
0.246560523079066
-0.42302619594271806
-1.0719860080342452
0.2290583444995061
0.3804227798364363
-0.23866823876464083
0.46728031244413276
0.3216346139948121
0.11720605430753432
0.04093912202178888
0.0833439864520532
-0.39974684549252065
0.23198298047712326
-0.28911392029283417
0.11824637548012303
-0.044842108061493365
-0.3971265960623666
0.38385174287804424
0.3764599780603079
-0.37898613774269946
-0.3561863816173215
-0.3880832976148037
0.43586390945482706
-0.3807139977377949
-0.14780410192252685
0.34612696924090924
0.18295862657599246
-0.38876283877641155
-0.15323492590666096
0.18055142909493332
0.2934363542231105
-0.06380901004207346
-0.4367857337263328
0.08294606732553338
0.08135240467228644
-0.32549150169485014
0.37681040293096923
0.14458792690292271
-0.12335688764889248
-0.11815351526163041
0.4672752174686182
0.29176182887357144
0.19059603090678934
0.21264117783938496
-0.1657586035084894
0.3288851923808833
-0.3896085068686868
0.07021835007266478
0.15753823356649183
0.4158399574410465
0.34249506253020595
-0.12527068643735287
-0.07363777761402243
-0.2168495992112664
0.3915223704518357
-0.11109232684905421
0.4871584530428725
0.31303442119146063
0.28543136363966226
0.1647276402101259
0.309114393542732
0.09452960394201441
-0.2960294454192138
0.3668602315330494
0.16484998665350015
0.3868959782577298
-0.00216544363437809
0.22658755223868232
-0.1908874457727393
0.05631559978754152
-0.04464489663380589
-0.2775538431299551
-0.5525166327528608
0.2786328701954604
-0.3146189059918262
0.4591211347266683
-0.3886683541235969
0.14443388239427205
-0.22228957121553916
0.54204357573659
0.3062007413060339
-0.2446452303808561
-0.16012040762426274
-0.02938562635236658
0.4070417003245148
-0.20425482736630127
0.1513961259705145
0.2318254578600164
0.18371083978601452
0.48306745194139256
-0.3322376212828401
0.4494531891268604
0.45739392229049375
0.4154086394225032
-0.2036200436746473
-0.09151922919376582
-0.15292154027438945
0.4311710910702537
0.45286092473515266
0.46958608113376477
0.16251168692516632
-0.4078576967705851
-0.3805048717226811
-0.3863386734654914
-0.08033352430168503
0.039435263098256554
-0.2796109329308943
-0.24191814731652203
0.05817537515587616
0.26279237213091694
-0.27764223834757423
0.18529304721997822
0.11360031045523886
-0.42458450233116657
0.04003539691354019
0.32045165479302506
0.45604533115511625
-0.005854066093902572
-0.45034909787554567
-0.13772976624063943
-0.4300061181926828
-0.5076641101891328
0.24309265541703082
-0.0479338877750767
0.29742127673773927
-0.24119417042787814
-0.3409858354538181
0.26036852765002755
-0.027194001025844922
-0.38914054912494
0.43363799767400535
0.255447637473207
0.38735916787874597
-0.3033690053198044
0.19554161585090585
0.19542576671728398
0.3554439200032627
0.11005937492601821
-0.38566871290665167
-0.059474942303471605
-0.03137433092646758
0.388154165812386
-0.4183876042264425
0.3922211613865339
-0.34370859397375825
-0.2601091060444263
-0.27004096399486976
-0.3696996361203934
-0.05578060718685218
0.30175239318997576
-0.4302979596704819
-0.13511615017203435
-0.0598076634358267
0.215471964102884
-0.3264488825934351
0.2619035513483693
0.08667661708727806
-0.4805012303964433
0.4512234623225805
-0.20297693331110914
0.054781779548558014
0.032424899025690596
-0.34052595062236884
0.27267811965377226
0.24720222324425478
-0.04004596833562635
0.17773275814785694
0.3098473566937022
0.5051359693946884
-8.141695759282964E-4
0.1320768331710272
-0.5031262441704062
-0.09129139342734148
-0.3961922955833984
0.408562167239923
-0.011198369481781063
0.4949333487428265
-0.43380206090257817
-0.11811860283167226
-0.2763722273456878
0.4007026230541648
-0.3757048226869641
-0.19156239379982776
-0.36457386863815394
-0.016786389915292056
0.14623770425073176
0.03960860485303376
-0.03278253540116363
-0.390289990201491
0.21528727107727194
0.36650213164668016
0.2906692595804124
0.3670721289424949
0.05900494277353439
0.4680727030605399
0.07913680505493717
-0.44372062296350245
0.29814127928944195
0.33178667066001666
0.11115782457813494
-0.2844979346645729
0.36191160138607814
-0.47523221667253185
-0.22860149553266182
-0.42699500883858993
-0.5730584877836924
-0.3964336770278427
0.07525791808022028
0.22956472472223174
-0.012808942847837594
-0.13151933925028472
-0.43082093878170147
0.06371435680561853
0.27903249244442757
0.27386605851859624
-0.49098226740560175
0.02019734407513406
-0.4108050467074907
0.4046660207457655
-0.3288123219813901
-0.19568040177393076
-0.21645807947309592
0.2779078105011057
-0.2791515444446548
0.22638573271678833
0.3489488391571806
0.4587012285538392
0.30124377700361216
-0.46668172481323966
0.39167162772421377
-0.09899045830692578
-0.1380530708737823
-0.041787539509441606
0.25581286916683793
-0.22150442620541885
0.23003431662013646
0.23232990011186444
0.46244646749237883
-0.43884478345369193
0.0929338704543241
0.14770352309019394
-0.2761544205777091
0.27575836535204457
-0.3794583094612965
-0.29992093930617575
-0.14782159506693732
-0.13924510754354139
-0.40267596157313035
0.25680648706033526
0.24935781147309402
-0.25219387133797355
-0.19756263015939032
0.05439768751647947
-0.06512902174783666
-0.45668518729341356
0.16919512786337176
0.06402855173493328
0.4203414863637574
-0.2885889020350532
0.04261848900587382
-0.26424116992058144
-0.40804154293223427
-0.3936688708958857
-0.23660816520012493
-0.409063233087183
-0.1416201058682716
0.4627425616701898
0.07771219788426763
-0.007850950730939582
0.4589042192440574
0.18469826111420679
-0.290030435525495
0.32545514883961824
0.1754135504951979
0.24532910289735774
0.30840757355887616
-0.4129369408479659
-0.016493894105596697
0.19875882627884317
0.44932446404580323
0.5126954743469433
-0.26520120549469917
0.26111695874347673
