1
40
6
0.05452365263827567
0.034831589598360455
-0.07656385726553583
0.23812544027259594
-0.44323459788815633
0.2004830493137989
-0.5706594799770398
0.05383357486866643
-0.19843613940822716
-0.028543417691015725
0.1922422753733305
-0.02277262057936271
0.3031759053195761
0.21044949960938572
-0.1586223992032487
-0.020923186840483086
0.5301223031741782
0.058875462610776
0.16108314117604994
0.3846557362737078
0.28720985257013215
-0.43262421173642596
-0.3917293423215448
0.0035218698030707605
-0.35030422864790073
0.3560785711064852
-0.46947692759144094
0.19266280170774347
0.4128269577609934
-0.028116030240284702
-0.5025861303992816
-0.33174577818660456
-0.37181546374906593
0.5297644786463912
0.17224267012793815
0.14889174612754283
0.012014969986800456
0.3605602221047065
0.3408326582125195
-0.013600673923382744
-0.684117296195452
0.44507988073968674
-0.31637004191821433
0.4641092977357635
-0.4112331664325039
0.4321671024973711
-0.472774688096194
-0.3617367297886445
0.19838304992313788
0.44207058659240306
0.26666072220766157
-0.03291464556175478
0.13633492948144946
0.009688926418341683
0.2808697266976639
0.2551780361883548
0.16891615621519657
-0.42188934361283503
0.14971219231472951
-0.047177820655355356
-0.414572384139246
-0.27650977918116354
-0.17331391496244192
-0.3491353614696676
-0.22453034332522429
-0.22160781188839088
0.11877134563493673
-0.45537394218890065
-0.42959087566894855
-0.036291193403849745
0.1335144664032296
0.0026602803710835824
-0.14296381642079592
0.041344463826880985
0.38628773157961394
0.40373053765825545
-0.36026127535599106
0.2805105095780641
-0.0827568701913434
-0.22308615006095164
-0.3778271018426347
-0.08332271398686127
0.40142099877814175
-0.4309065902713666
-0.3871643006720492
0.43897149220840964
0.2532342199171056
-0.34312327860951414
0.4574093300173588
0.30765039535943633
-0.09020734778954255
0.043030050074981195
-0.4637959768182457
-0.3136624500398998
0.11861170830204489
-0.3084397376042767
0.4726084459769082
-0.20067308529773092
-0.22286462641219495
0.18755437461400887
-0.3854246112205034
-0.27282313403430347
0.09532690864145901
0.33215519982095015
0.15020698941449762
-0.07515138366584427
-0.12871577293044661
0.2834130422312797
-0.1767603083095734
0.27330224938699055
0.1510381646911884
-0.3663457382085314
-0.47286050084295317
-0.16021720350733776
0.010364019024753184
-0.21864575734920697
-0.27915471915160367
-0.47038793181510885
0.24950702312161457
-0.08768247201604741
0.15532329425422509
0.279998362110013
0.4334106169238011
0.4789751651573776
-0.3852040938767506
0.23375657745036585
0.4694864645148325
-0.3241395854337754
0.22350463570709814
0.4387097785870701
0.2496874561889462
-0.19575344568913886
-0.2838825211408677
-0.3391241989364556
0.036668782768926225
0.41118232496435053
-0.09307701582982092
-0.08619955899056578
-0.4300789063573208
0.1490240696121833
0.32864134574354104
-0.4287833061936853
-9.484462602008761E-4
-0.4036644898131465
-0.1562327128520856
0.15812726773802324
-0.18979516179954412
0.4547388876141036
0.19897283544032182
-0.4129758312915497
-0.33153275385043635
-0.31524871995827636
0.0895993818985618
-0.17459269381110365
-0.22717245422913745
-0.0012755985114782783
-0.33090665172597267
-0.3919004513945264
-0.34926357864288676
-0.3460331461928822
-0.4684580047112736
-0.09782681658016379
-0.2033078001688665
-0.34257469993474127
-0.23475468211269926
-0.41898411438011074
-0.019237463821101794
0.030479544795851177
0.319284547275469
-0.10913234598827504
0.4659943911921908
0.4993031418261669
0.1396407055754422
0.223554921390645
-0.38890825890042774
-0.2728122624641411
0.47889106604743586
0.43357687194666383
0.36364562776903697
-0.0013465003578671361
0.2879015582273291
0.35635841526841744
-0.16235058549967293
-0.40055414267429296
-0.026600074845099412
-0.45700533275453
0.3741125855808987
-0.07413621744264143
-0.03823527449826623
0.0408297319997788
-0.4216203384710049
-0.09013414128539815
-0.09606892744213279
0.11756502219010329
0.3076464392297691
-0.29845694878034335
0.021528566579789875
0.4648807301210592
0.0021055249678524797
-0.46296843653227004
-0.37531851855659326
0.0527759313829886
-0.1692360190701269
-0.3857336266674493
-0.049404159191362165
-0.4488480812291089
-0.19007551109842874
-0.03313314955400626
0.41667170613199417
0.1264512218615009
-0.1513962961813597
0.38990128856505796
-0.5128050039517006
0.45306784323227184
-0.10198843509767612
-0.2817243452769206
0.08871964563721889
-0.0788264795880758
-0.0622166796496662
-0.4841902851559674
-0.07776964180730045
0.4423182717781836
0.16234964461596174
0.1551258066146946
-0.2312291788965241
0.298692581979463
0.1722587724380664
0.2692978645958183
-0.3815352243135765
0.5866804944347208
-0.20395738450232512
-0.4145074857063658
0.23878508103676505
-0.20154683354945885
-0.23734934448870293
-0.16889805098622995
0.4079285905366996
0.4057997401664267
-0.2627855431874045
0.3458988955620449
-0.14078633816304906
0.2763319094268998
-0.1089779194556986
-0.04422245210941388
-0.4366793828834708
0.3720385331795768
0.15486015868784983
-0.47687408076290183
-0.06594570220889048
-0.1659371398454389
0.4626762690356641
0.36968696252532146
-0.08487133176770613
-0.3462122720579099
-0.11762039776866116
0.3279505241336777
0.4354948237192211
0.44931194494447957
0.2292290231185959
-0.1446934475444546
-0.09984571870680703
0.17771511795925776
-0.05868075850680963
-0.3756675237301635
0.40679594341693975
-0.39055090362113093
-0.08946302670690892
0.43514169335951947
0.003962402616356979
0.20753628830730705
-0.22731385270903798
-0.043293508556642574
0.02445616362505737
0.26299145795124346
0.2770560019442635
0.2597090091854789
-0.3543316616643611
-0.06936124213951558
-0.5477125941644979
0.13340758969129707
-0.05986757133368264
0.1071253780108867
-0.40247946064238516
-0.2697589279230795
0.29551009487588753
0.10769866731402546
0.30411406449936634
-0.39866686553475406
-0.45093541103502033
0.058753776861676425
-0.3928792596041814
-0.2940912741011154
-0.3643594876654715
0.04064863097643215
-0.35528529440756346
0.2391486170016188
-0.15834828560984993
-0.47036784001026527
0.12079918757517749
-0.39485170063348807
0.050250584991324204
0.06485783956788695
0.22008019951886795
0.21702465483049732
0.48627579727374054
0.27901463233102297
0.2845951244242908
-0.3760087412724557
-0.3753354909757995
0.3755705867882314
-0.12213782094116875
0.0032142308083170533
0.4586648545360593
-0.26073980530904345
0.2792346101641783
0.23956673619411276
0.14780147237546643
0.2978821011672939
0.06842956389647097
0.22100060518796275
0.22448184324664175
