1
40
6
-0.31306940927102606
0.12122139223769611
0.34139625120201983
0.14804240699733753
-0.15446175355765765
0.08174740045590749
-0.2733676487552885
0.2315042082736139
0.4505551585517069
0.15640094271286326
0.5155303952097292
-0.4824678686999337
0.3321190769037152
0.12602944012702827
-0.08366811621585854
0.23300809290123553
-0.23359415910266923
-0.16935708146954398
0.5428155498328416
0.06321984991500186
0.04555440440022171
0.23784889546420665
-0.07361563323942635
-0.4703229779628065
-0.2906306856658604
-0.11521842103130372
0.2733370192634723
0.30575630939730947
-0.49908806964379665
-0.14329686406806674
-0.018118417751684004
-0.22270788459384258
-0.3017166244681447
0.26526810143755625
0.3699565007613259
-0.1524381486400992
0.14680439169054774
0.2791119068107071
-0.34770098966795543
0.21732520079280396
-0.7306972053309568
0.3160989511727779
-0.016014592042096844
0.11171140386349128
0.10048532948302742
0.15719514008942975
-0.14677783799716712
-0.24618570403289824
0.09580854549187189
-0.037560568290276965
0.3042279512222715
-0.3752785682378277
0.15903670921358565
0.00857418853147453
0.31678803237155845
-0.26357635877580465
-0.31081992319182866
0.26316797296748995
0.0859888263397119
-0.1657508577547342
-0.210047906058498
-0.013688827245964947
-0.21171608942388803
-0.043187227451592536
0.22051756940274347
-0.37167221866800054
0.23188715106386443
0.20423686124164564
-0.1426411130868687
0.3591200333753982
-0.4046422397523309
-0.3276789822802497
-0.43186644470941576
0.42146368221896324
0.15219785094972912
0.08252781457484963
0.0889890978199271
-0.1895534989536379
-0.2942772616379324
0.36013716189823575
-0.30871635704324196
0.4204509808681764
0.35887985927336996
0.4458713551355427
0.2809972079913704
-0.11921911523048771
-0.30274911341006716
0.041739917455359765
-0.3983889231209795
-0.12265482081318753
-0.015948144614579197
-0.40674699373217704
0.054191192781048385
-0.34017854187165725
-0.4746797232098787
0.021939439260524836
0.16826200941465705
-0.3186313491755422
0.024081244900354817
-0.02002010852151075
0.45852262165943936
-0.23523102169593532
0.22303198380390848
-0.41295171378373874
0.233813794092245
0.1871071296910121
-0.4661379847631226
0.2645659847342612
-0.2898284473097736
0.15426206830358077
0.41583979961576034
-0.2769257879573126
0.2685166343442087
-0.09428859200157355
-0.18188660765078796
-0.01986807938472805
-0.39693467826078493
-0.11345541789184187
-0.24485077017862603
-0.06712919453171658
-0.3824145569486343
0.2154734027442499
0.4176542446079086
0.4938482949742733
0.1929197999455872
0.5335636488055185
0.10845994848202761
0.0015474477619762293
0.34704769438003336
0.020121708711805037
0.036521129955866816
0.07620140255299564
-0.1757856803144238
0.3801489579916664
-0.009196182782833427
-0.14134237409139233
-0.13211101184079435
0.2981550641997921
-0.17551882272693173
0.12565617246666813
-0.07381502528106375
-0.2959797294187269
-0.18586252262925854
0.48113377459665196
-0.11078382725726817
-0.11666847012728684
0.21919726318938762
0.30069827594351106
0.12751143802426199
0.08688753283167414
-0.2623880646732911
-0.038266539853906385
0.07039099874916671
-0.4014938175722711
-0.32551330870467027
-0.04942641208626797
0.03726818657133944
0.054913930355755876
-0.32238081588646267
0.10882461675248789
0.23479852085181552
0.03826548012552423
0.1915133869367786
-0.17676399623469088
-0.3702919024512505
0.19152002535698662
0.08327122646899988
0.44669276230172206
-0.005059343404814835
0.18036977031930898
-0.2877764557794628
-0.0017178073377546253
-0.4748046550091151
-0.5547131896141468
-0.35437624168331355
-0.2401582423874443
0.43745516656368905
-0.19795517551378147
-0.08594832556364372
0.4644691894908335
0.18953492363870428
-0.41786761021427826
0.021635003559511177
0.46017941724000505
0.2568980625525444
0.04839407301462967
-0.4529303533389263
0.21249231628674387
0.15915515109909928
0.25640166088486976
0.3898302002527989
-0.42262990505315373
0.4401993078182333
-0.23450992596323283
0.2985373169711738
0.055654656201001074
0.2219426176789976
-0.24574263133512783
0.19245717677952445
-0.26740275061272745
-0.10026439103251314
0.2501622961018313
0.34372577937819093
0.27043279502347806
0.0634975435014379
0.10623253036483464
-0.19802262551174124
-0.29203617006409105
0.5899373035387535
-0.2330917716414898
0.1923289807836445
-0.06405892364983119
0.03973677846827558
-0.48955956063883577
-0.2492322777932483
-0.17511542378187056
-0.38065422472439503
0.290327916876933
-0.3313760476640135
-0.3026314283252619
-0.09793978137485172
0.29228476815951027
-0.019341777830331905
-0.19999529000769198
-0.15189129883387437
-0.19065751297330624
-0.38399897137455563
0.21761476092532975
-0.16827819532501745
-0.14989364628520588
0.43895916538729757
-0.27610808424601113
-0.41762206241022914
-0.028232271408487112
0.020520628225983502
0.4502029551120938
-0.36442687719878863
0.26535514185704956
-0.10007851691668256
0.11580251997237033
-0.16831805830416194
0.402600020784657
-0.2217228806694006
0.35568701673337294
0.3478102700195289
0.3924691740501888
0.334712862878596
0.03591221417441115
-0.25460809378732974
-0.3962863014486215
0.12461755330003942
-0.4318246098277805
-0.48939648620755
0.17477993316820112
-0.04766182300831251
0.09064085172269386
0.411792074229143
-0.09592784137381585
-0.4858258561617388
0.06591293857147613
-0.21481170938874075
-0.21601759518610072
0.3577457552504245
0.44103715803192206
0.10402359442330567
-0.3415428620508148
0.3211323887379277
0.24965056760763363
0.13041482453765305
0.3296760765890794
0.22436202626341517
0.011146291893080704
-0.1866600503339188
0.1963204390679729
-0.09468947426092308
0.029489071070855202
0.2833898467575736
0.3805660142135518
-0.5168607293785975
-0.007252553203179975
-0.1894359693959465
-0.23779808291235377
0.20150223948272616
0.18409840832402258
-0.12666065670448562
-0.5295314580574415
0.15515535276035422
0.18348699869698445
0.3965476830137053
0.016343073391566883
-0.13296060077386543
0.4554772989520215
0.2778582631752292
-0.24265466774991754
0.3451072858711008
-0.3614462770920219
0.2830311768217355
0.15078706341690257
-0.025302432724110598
-0.22043746419318344
0.2912320704650095
0.16771604868486262
-0.4347173917406585
0.42491597706418577
0.471204943699123
0.22512211108421862
-0.3325810937040538
0.018588639052001574
0.16867790738913324
0.19810270581951397
0.1285320237255772
-0.4242475244849756
-0.3267582417983658
0.17878258907665623
-0.028301574010653155
0.3275379992006049
0.07787232280622283
-0.08808721232780842
0.21125712185126674
-0.17521722802670847
-0.11949843189445676
